-0.1322774291
-0.2273759246
-0.2635143399
-0.0301973708
-0.0699885637
-0.0268759262
0.0324068889
-0.1186279133
-0.2550363243
-0.1429400444
-0.0860527903
-0.1864862591
-0.1804724187
0.1215656102
0.1195907891
-0.1595034003
-0.0547372885
0.0172599722
0.1797605455
-0.1042636186
0.2372334450
0.1975595355
0.3383975327
0.1204421222
0.2037509084
0.0371713527
-0.0152718276
0.1648409814
0.0710993409
0.0932891294
0.1073968187
0.0317283757
0.1335088313
0.2092795670
0.3324942887
-0.0980605632
0.2489397973
0.0079382919
0.1244716272
0.2375846654
0.1787625551
0.1210545152
0.2375033498
0.2628616393
0.0549751408
0.2559257746
0.2598158419
0.0957336500
-0.1390733570
-0.2457595319
0.0104704127
0.1813829690
0.2762809098
0.0892363489
0.1996365637
0.0865196362
-0.0942626670
-0.1034073010
-0.2156132460
-0.1477455646
0.0421978049
-0.0697245747
-0.3203959167
-0.1957607716
-0.2517998517
0.2315616757
0.0549886487
-0.0889190063
-0.1603845805
-0.2699750662
0.1743867099
0.1278669536
-0.0133124329
0.1622902155
0.1070271209
-0.1281808019
0.0005245893
-0.2203561068
-0.1235627830
-0.0709344819
0.0441507623
0.0867338181
-0.1141425669
0.2320402116
0.0182576589
0.1848073453
0.2457384616
0.2529549301
0.2816102505
0.1045777202
0.0349263996
0.2450800985
0.2572768629
-0.0954942182
0.0052316403
-0.2896697819
-0.1071583033
-0.1448494792
0.0721432939
-0.2335828394
0.0620216429
-0.0441902205
-0.2080549896
-0.1068603173
-0.2641201913
0.1641851664
0.2347355187
0.1869685948
0.1885042489
-0.0356169418
0.0548097230
0.0404717661
0.3727922142
0.0582860224
-0.1517713815
0.0252926610
0.2726087868
0.0661016479
0.0564972386
-0.2602321506
0.1198465303
-0.1598319411
-0.2021308690
0.0133512076
-0.0675921589
0.1847195178
0.2160399556
-0.0315650180
0.2765076458
0.0718145818
0.1974731535
0.2225630134
0.3299184740
0.0039260816
-0.1003211588
-0.0854520500
0.1682724059
0.1130249575
0.0317539275
-0.0179193038
0.2645785511
0.1705944091
-0.0405839421
0.1672307700
0.0439476334
0.1326413304
0.0728277043
-0.0836685896
-0.3118396103
-0.2163427025
