-0.0620171465
-0.1564587653
-0.1852089167
-0.1813136041
-0.1867293566
0.0039226967
0.0399094857
0.1001692042
-0.0315267146
-0.0741459951
0.2179574519
0.2211332172
0.2286095023
0.1376916021
0.1051032394
0.0493643582
0.1268896312
0.0927383676
0.0979611874
-0.0276711266
-0.0916704834
-0.1403927207
-0.0058231847
0.0448551662
0.1218847632
0.0320390500
-0.0622472391
0.0606245808
0.0878328085
0.0601489991
-0.0665368885
-0.1170072407
-0.0359959416
-0.0336300433
0.1411278397
-0.0541925021
-0.0173073150
-0.0533590503
-0.0552406162
0.1525633335
0.1184116900
0.1798124313
0.1493825465
0.0391803458
0.0551180355
0.0371766053
0.0825143382
0.0199805908
0.0565372370
0.0802004188
-0.0324663483
-0.0161127374
-0.1712623239
-0.0953600705
-0.2788370848
0.1096421406
0.1263297051
0.0607872456
0.0454633608
-0.2366774380
0.1606642753
0.0660133734
0.1342990100
-0.0222220384
-0.1348104030
-0.1328352690
-0.1011554748
-0.0787816271
-0.0496455543
-0.1424673796
-0.0050472054
0.0662327409
0.0441269279
0.0176534485
0.0013901127
-0.0792111307
0.0468930453
-0.0662173629
0.0705042407
0.1174568385
-0.1840513051
-0.1658526361
-0.3049125373
-0.2159159482
-0.0171789099
-0.0677206665
-0.1930596828
-0.2091904730
-0.0877278894
-0.0760563239
0.0370377749
0.1346937716
0.1083588600
0.1015578732
0.0393969119
-0.0178670641
0.0560105853
-0.0767991915
-0.0938528031
0.0073655224
0.0216206200
0.0536247194
-0.0170465820
0.0282052308
0.1713246107
-0.0490815155
-0.1341684461
-0.0380458087
-0.1543198526
-0.0208310392
-0.0112774214
-0.1037145332
-0.1051084399
-0.1347937584
-0.0397616960
0.0542242080
0.1341413260
0.1422581077
0.1064425483
0.0547009371
0.0620674193
0.0894642472
-0.0049758996
-0.0110728480
0.0499093607
-0.0478177816
0.0285016652
0.0942739174
0.1037070826
0.0507589504
-0.0281104296
-0.0812286884
0.0373693965
0.0274878647
0.0547584668
-0.1322023422
-0.0435256660
-0.1191310361
-0.1096937954
0.0283081774
0.0651991516
0.0677522048
0.1427074224
0.0795394778
0.0973289534
0.0450715199
0.1046587452
0.1542402059
0.1455596238
0.0327890776
-0.0821889043
-0.0736611262
-0.0308311228
-0.0025305666
0.0837195590
-0.0238884948
0.0789081901
0.1395961642
0.1577854306
0.0800176337
-0.1072423980
0.0723597929
0.1107225344
0.0524080917
-0.1279991418
-0.1245646551
-0.1503179520
-0.0325988755
-0.2207046300
-0.2301534563
-0.1698115170
-0.1096470580
-0.0867754146
-0.2576085329
-0.1057407334
0.1102841794
-0.0945133939
-0.0215045772
-0.0571426265
-0.0993029773
0.0584284663
-0.0236360431
-0.1025212929
-0.0860892460
0.0237792488
0.0687876046
-0.0184465051
0.0324931554
-0.0123471888
-0.0035203977
-0.0516505800
0.0560884178
0.1097180024
0.0723851621
-0.0254712328
-0.0186102297
-0.0494668111
-0.0422358252
-0.0627392754
-0.0729458407
-0.0466832928
0.1103053764
0.0173688084
0.1063607037
0.1834459305
0.1181818545
0.2107463926
0.1366931051
0.0325453654
-0.0035143646
0.0797874480
-0.0621598288
-0.0485301875
-0.0630511343
0.0252091847
0.0122035751
-0.1272311211
-0.0867581815
0.0472246855
0.1026616991
-0.0207412317
-0.1423987448
-0.1020762473
0.1646605432
0.1706856340
0.0236327313
0.0456981733
0.0629019514
-0.0472700782
-0.0597047880
0.0287348777
-0.0908930078
-0.0899131894
-0.0601675734
-0.0083114700
0.0917449594
0.0363585949
-0.0161387231
0.2014053911
0.1889036596
0.0795112252
0.1419031471
0.1469176412
0.1468822360
-0.0980109796
-0.0921385959
0.0718046054
0.0533347242
0.0199403483
-0.1403895319
0.0700360164
0.0608751848
-0.0029388445
-0.0027021982
-0.0534271337
-0.0248974785
-0.0236444585
-0.1037489474
-0.1922999471
-0.1018388048
0.1244316846
-0.0011939335
-0.0501622967
-0.0067233574
0.1330972314
0.0165450200
0.0050529311
0.1358607709
0.0614869818
0.1411729604
0.0176867638
-0.0364627875
0.0763662979
0.1944544166
0.0622128136
0.0653096586
0.0363781564
-0.0019157762
-0.0723864064
-0.1034157872
0.1504730135
-0.0019195785
-0.0509805270
-0.1389722824
-0.1024750769
0.1283935905
0.0149815911
-0.0614561252
-0.0937508568
0.1064687297
0.1574905813
0.1179016531
0.0916982815
0.1689671576
0.1149180904
-0.0422310568
0.0941690505
0.0883332193
0.0661202148
-0.0827018023
-0.0047056079
0.0834033266
0.1449136883
0.1455221772
0.0004227108
0.0788021609
0.1994404048
0.2696461678
0.1340787113
0.0963715389
0.0866891965
0.2074822783
0.0227123555
0.0471681841
0.2299958169
-0.0932096243
-0.0177704208
-0.1354559660
-0.0090367049
-0.0058788429
-0.1792581230
-0.0693968460
0.0316675492
0.0251741596
0.0348518714
0.0038167567
0.0133008454
-0.0102527086
0.0820995942
0.0044987039
0.0363076329
0.0048184935
-0.0669888481
-0.1046075746
-0.0042502317
0.1252020746
0.0324186534
0.0914870128
0.0236415900
0.0503119752
0.0949025825
0.1236732230
0.1591186225
-0.0027129976
0.0840798616
0.0902299136
-0.0023039738
0.0591712520
0.0157378353
0.2138192505
0.0107194697
0.0491380170
0.0294789001
-0.0435988270
-0.1620997638
0.0188150406
-0.0295903739
0.1266364902
0.0450323038
0.1211824045
0.0220207479
-0.2016173601
-0.1552848369
-0.1114911065
-0.0418125279
-0.1322751492
-0.1834215224
-0.1940824836
-0.2892161906
-0.2307326794
0.1705148965
0.0069417902
0.0387037583
-0.1139340699
-0.1905537695
0.0456405804
-0.0203227941
-0.0429324619
-0.1242789999
-0.1252405792
-0.1477684677
-0.1593203843
-0.0573436916
-0.0374294594
-0.1829041243
0.0744900480
0.0967663750
0.1559429616
0.0942043141
0.0904169679
0.1676960737
0.1178034469
0.1834475696
0.1002269909
0.0600378998
-0.0787260979
-0.2448986471
-0.1210265830
-0.0803332552
0.0225942694
0.0659533963
-0.0031311158
-0.1133304313
-0.0470914654
-0.0367830284
-0.0049645337
-0.1217665598
-0.0917007402
-0.0735111088
-0.0661066025
0.1091844812
0.0446954332
0.0479128063
0.1553363800
-0.0025432108
0.2068608552
0.1165490374
0.1007567123
0.0620816424
0.1640763432
0.0470991433
-0.0856835544
-0.0155739207
-0.0412226245
0.0896865204
0.0633987710
-0.0278221909
0.0089134052
0.0217711665
-0.0547489747
0.0289951544
0.0197781753
-0.0736439154
-0.0918370336
0.0047764801
0.0255445354
0.0818252116
-0.0099136326
-0.0425073542
-0.0083998945
0.2123598307
0.0964302495
0.1819886267
0.0846434385
0.1070775539
0.1492551267
0.0781352445
0.0511877723
0.1315010041
0.0953670517
0.2020555586
0.1884135902
0.1710307002
0.1139852405
0.1576551944
0.1954909414
0.2956259847
0.1839526743
0.1513832808
0.1935909241
0.1071444377
0.0209410191
-0.1427654326
-0.0577616356
-0.0888940096
-0.0977334306
-0.0740934163
-0.2016391158
-0.1593338400
-0.0538288467
-0.0423901230
0.1315769106
-0.0003787674
0.0696500391
0.1574577838
-0.0736900046
0.0080166347
-0.0608570129
-0.1021240279
-0.1119126976
-0.0503110886
0.0899481252
0.0078995833
-0.0410161614
0.1008857638
0.0659264326
0.0499696359
0.0795629025
0.1555235386
0.1169932634
0.0790623501
0.1315628290
0.0002020956
0.0835357234
0.0795736536
-0.1157223284
-0.0129184499
-0.0192196704
-0.0802201778
-0.1492805779
0.0804908052
0.1673471481
0.1418168247
0.1564867347
0.1292914748
-0.0064398027
-0.2000231892
-0.2010176927
0.0362199433
-0.0951467827
-0.1983530372
-0.3241612315
-0.3517429829
-0.2811262310
-0.2338673323
0.0325372182
0.0162603240
-0.0006171829
0.0628688112
-0.0583419912
0.1470584124
0.1184219643
0.0089827729
0.0647657588
-0.1315781474
-0.1678860635
-0.2023877203
-0.1270880252
-0.1186876148
-0.1769641042
-0.1048994586
-0.0063862437
0.0212558098
0.0413394719
0.0112239746
0.1464043260
0.1793343723
0.2981953323
0.2662734687
0.1236560121
0.0491778813
-0.1011346802
0.0149687342
-0.0526762754
-0.0188190751
-0.0174034275
-0.0200913735
-0.1658029109
-0.0685601234
-0.1019460410
-0.0024128584
-0.0463371500
-0.1808260083
-0.0628173202
0.0061634663
0.0028579335
-0.1191810817
0.0332899354
0.1062170491
-0.0328614078
0.0862601325
0.1372563839
0.2017585039
0.1605032831
0.2007483840
0.0885057524
-0.0912133381
-0.0267850645
-0.0010749756
-0.0917967334
0.0127474545
-0.1695497930
-0.0273734536
-0.1125250906
-0.0489547513
-0.0231975950
-0.1449242085
-0.1037874967
-0.0585325956
0.0182630830
-0.0406404175
-0.0425604954
0.0327884108
-0.0456791669
0.0481158160
0.0698762909
0.0991117880
0.1337368637
0.1621568352
0.1453825086
0.1061265171
0.1252290308
0.1287178844
0.1384452581
0.1313799769
-0.0434392728
-0.0754110143
-0.0921653956
-0.0723213330
-0.0600825325
-0.0968171880
-0.1145118922
-0.0891473144
-0.0022774322
0.0251029227
-0.0042244876
-0.0914823711
-0.0594614260
-0.0389529429
-0.1121845245
0.0073048631
-0.0968751758
-0.1642484367
-0.1404887885
-0.0537893772
0.0712777823
0.1171642542
0.0678166077
-0.1356369853
-0.1513869464
0.0507281944
-0.0106895259
-0.0131713720
-0.0446343534
-0.1709837019
-0.0328661576
0.0879335925
0.0887456983
0.1207572371
0.1196040362
0.0322075039
0.0737763867
0.0774724633
0.0657830164
0.0694562122
0.0182430092
-0.0976592153
-0.0238630194
0.0098242452
0.1460370570
-0.0500368066
-0.1430371106
-0.0851414651
0.0143537326
0.0880235508
0.0435805060
-0.1428601891
-0.0806077644
-0.0173415449
0.0434037186
0.0383148789
-0.1423262805
-0.0660780221
0.0000786431
-0.0414034165
0.0069851689
-0.1170210019
-0.1903794408
-0.1081611812
-0.1438808143
0.1697287858
-0.0428587906
-0.2328945547
-0.1152155399
0.0364301912
0.1892333180
0.1951297522
-0.1168733761
-0.0586257391
0.0566932149
0.0631656498
0.1109338254
-0.0710619017
-0.0182544813
0.0220778920
-0.1655856520
-0.0498086624
-0.0020893440
0.0034358066
0.1070600003
-0.0670956224
0.0067662988
0.0070664072
0.0450030640
0.0688159913
-0.1648454070
-0.1129961237
0.0326629207
0.1552189738
0.0586654656
-0.0912624374
-0.1671795249
-0.0021469966
-0.0047683381
0.1421003789
0.0115081007
-0.1776858270
-0.0423519611
0.0811642334
0.0153733613
-0.0488645248
-0.0843109787
0.0532534607
0.0638163164
-0.0010581748
-0.0346393920
-0.0561349727
0.1122060120
0.0640829429
0.0680375174
-0.1977388114
-0.0797683746
0.0300560743
0.0455590598
0.0483759977
-0.0110403225
-0.1248924360
-0.1728218049
0.0115517192
-0.0138533004
0.0369213857
-0.0832684934
-0.0838854164
-0.0480740406
-0.0425513908
0.0499232151
-0.0328094624
0.1224168465
0.0909466892
0.1024753079
0.0560514033
0.0640293732
0.1141643524
0.0137212425
0.1229211241
-0.0625087693
-0.0555965304
0.0287516341
-0.0088630756
0.0530386791
-0.0507548451
-0.0930992439
-0.0610943250
0.0325920880
0.0723348781
0.0003536809
-0.1072506309
-0.0784390718
0.0122006750
-0.0523959696
-0.0433852896
-0.0000909258
0.0884908140
0.0419514738
-0.0733509064
-0.0188074019
-0.0219283998
0.0547616035
0.0009365104
0.1665804982
-0.1485825330
-0.1034543365
-0.0031659540
-0.0496267006
0.1276026517
-0.0481299497
-0.0887379870
-0.1656958014
-0.1131911576
-0.0886762068
-0.0728101358
-0.1077679247
-0.0409889668
-0.0488962308
-0.0158642959
0.0206330325
-0.0597354174
0.0334176980
-0.0703358501
-0.1208982691
-0.0412589647
-0.0448780917
-0.0600652210
-0.0481023155
-0.0128207840
0.1213034689
0.0198997781
-0.0169456229
-0.0245975107
-0.0095844399
-0.0483075194
0.0967781618
0.0479894280
0.1516601145
0.1270011812
-0.0890730694
-0.0067508188
0.0831818879
0.0418658666
0.1465269923
0.0503200591
0.1717119813
0.1533729732
0.1378199756
0.1468825787
-0.0626110956
0.0742107034
0.0663230121
0.1446727812
0.1377228498
-0.0819377899
0.0111915171
-0.1226583421
-0.0698747486
-0.1275342703
0.0584767014
-0.0315023698
0.0571118519
-0.0867893025
-0.1294539571
0.0573910326
0.0406237282
-0.1151834354
-0.0629358143
-0.1803312004
0.0562669449
-0.0110535147
-0.0715792477
-0.0554312728
-0.0375130735
0.0623012893
0.0736388043
-0.1009602845
-0.1382778287
-0.0811706558
0.1449655145
0.0736934319
0.0336016007
-0.0335583016
0.0259296335
-0.0067913891
-0.0220690221
0.0372497179
0.0112719964
-0.0123807276
0.0417011045
-0.0565869696
-0.0901110396
-0.0537221767
0.0579431951
-0.0180700999
0.0065849777
-0.0694148317
-0.1139454171
-0.1335956901
0.1399551481
0.0960318893
-0.0634039491
-0.0335737430
-0.0952900425
0.0277314018
-0.0354178809
0.0763337389
0.0467033684
0.1159863546
-0.0332520269
0.0893439502
0.0094005158
-0.0393652916
-0.0170409009
-0.0119815674
-0.0476884320
-0.0327914171
0.0590997078
0.0039472366
0.0419422612
-0.1231331155
-0.1216399223
-0.0119492859
-0.1014103591
0.0010175601
-0.1130816936
-0.0381739885
-0.0352059156
-0.1077312231
0.0426075906
0.0925089121
-0.0101234606
-0.0728971660
-0.0336586684
-0.0087480238
0.1212888733
0.1248593032
0.0451219901
0.0982122645
0.0026526256
0.0383980013
0.0939473063
0.0340329520
0.0995853543
-0.0776040927
0.0045790640
-0.0924316421
-0.0616397150
0.0097582210
-0.2089156955
-0.0760676190
-0.0441527031
-0.2090008259
0.0366853066
-0.0791882724
-0.0522676818
-0.2302795500
-0.0743516311
0.1064524949
0.0573745891
-0.1075914353
-0.2370609045
-0.0084015932
0.1269109249
0.1373119950
-0.0645556673
-0.1074007601
-0.0009569587
0.0138015402
0.0410098694
0.0121755237
-0.0313820913
-0.0722148195
-0.1353184879
0.0957858860
0.1003189683
0.0789958015
0.0089351889
-0.1496479213
0.0002427802
0.0453273021
-0.0112870522
-0.0791828558
-0.0566505007
0.0128840711
0.1867077351
0.1063739508
-0.0425992608
-0.1486879885
0.0893016532
0.0995771140
-0.0534528121
-0.0198881589
-0.1628972739
-0.0641167462
-0.0227419082
-0.0482921861
0.1248517260
0.0674296841
-0.0741376057
-0.1182942018
-0.0115974322
0.1800507456
0.0449082181
-0.0458187610
-0.1510684192
0.1296283603
0.2365660667
0.0162801761
-0.0732202679
-0.1585945487
0.1489004195
0.2328888625
0.0338950008
-0.0262780059
-0.0988710076
0.1091279909
0.1808335334
0.1409203261
0.1936670393
0.0544957966
0.1053940132
-0.0207633451
-0.0380982794
0.0441322215
0.0762882084
0.2519433796
-0.0862039626
-0.0846974254
0.0212383252
0.1368606389
0.0787029490
-0.0638696849
-0.0950923115
-0.0622209646
0.0737267807
0.1279673576
-0.0729359686
-0.0638914332
0.0340768062
0.0102238329
0.0625034273
-0.1310783774
-0.1476446837
0.1308332384
0.0751402155
0.0614551567
0.0100044375
-0.0422841646
0.1407375038
-0.0224395581
0.2236356586
0.0901059881
-0.0760505572
0.0632463992
0.0679199770
0.2152502090
-0.0477895513
-0.0948075354
0.0204459410
0.0355421565
0.0529234968
-0.0347038731
-0.0553221665
-0.0901949108
-0.0209776554
0.0086104376
-0.0573599152
-0.1173820868
0.0637404248
0.0148793086
0.0011347239
-0.0002751497
-0.0202305559
0.0653168932
0.0021178061
0.0779144242
0.0159300976
-0.0679040477
0.1097684503
-0.0395932123
0.0814562067
0.0362098776
-0.1411319524
-0.0254383199
0.0451647043
0.1420198679
0.0323336460
-0.0217852201
-0.0240407716
0.1312884688
0.0643745959
0.0377159268
-0.1587731987
-0.0118167959
-0.0786059126
0.0369443223
0.2204097807
0.2159011662
-0.0072109825
-0.0340199322
0.0945249349
0.2152407169
0.1723172963
0.1163669303
0.2078023404
0.2506679893
0.1553564221
0.0746162012
0.2317299396
0.2227814347
0.0144123193
-0.0197539572
0.0001393328
0.1407389343
-0.0572881103
-0.2091217786
-0.1335467249
-0.1472892761
0.0589897633
-0.0021407227
0.0156808831
-0.0118471431
-0.1423933655
-0.0132848872
0.0126411719
0.0140978992
-0.1203800887
-0.0656494424
-0.1092565432
-0.0987839326
-0.0093336748
-0.0697430968
0.0134710893
-0.0582217984
0.0647016019
0.1278383732
-0.0106778238
0.0811347887
0.0220118221
0.1374266893
0.1233647913
0.0255909711
0.0816901103
-0.0145001896
0.1155947670
0.1509182304
0.0640856400
0.0682192296
0.0270113964
0.0710437149
0.0189336743
-0.0587750562
-0.0264317542
0.1386820823
-0.0276386850
-0.1069951877
-0.1134864464
0.1972493827
-0.1241584122
-0.1855598092
-0.1484997422
-0.1252358258
-0.0000464978
-0.1158525422
-0.1347943246
-0.0722072944
-0.1351286769
-0.1190216690
-0.0361022390
-0.0181828737
-0.0839068219
0.0138135804
-0.1392087787
0.0739755258
-0.0781340674
-0.1129265875
-0.0020569796
0.0637448654
-0.1491619796
-0.0379064158
-0.0823801458
0.0756692588
-0.0450967774
-0.0287522264
0.1000491083
0.1429490745
0.1157215163
0.0681051686
0.1640791297
0.2045437396
0.1681383550
0.0396578126
0.1010197774
0.0473521911
-0.0570660047
0.0300289467
-0.1159900278
-0.1743895411
-0.0004918789
-0.0596497506
-0.0138917360
-0.0396108851
-0.0609285645
0.0363130011
-0.1578176320
-0.0552774966
-0.0474584885
0.0627488419
-0.0914301425
-0.0026964576
0.0703585148
0.0392713435
0.1519443393
0.1187771633
0.0817408413
0.1190830469
0.1084055603
0.0657423586
0.0599926710
-0.0600432791
-0.0678616688
-0.1132984757
-0.0901371837
-0.0062752692
0.0747104362
-0.0960720852
-0.1072204188
-0.1120439395
0.0122630037
-0.0084729465
-0.0970584452
0.0270734690
0.0235198718
-0.1035254374
-0.0190145727
0.0292830244
0.0187905449
-0.0002086581
-0.0022951472
0.1307544410
0.1201417372
0.0713765174
0.1128619388
-0.1151325405
-0.0688442737
0.0512002781
0.1543731987
0.0776706710
0.0222334825
0.1068650410
0.0749262944
0.0747329965
0.1172903180
0.1531020850
0.2496212870
0.0874055177
0.1352273524
0.0475577042
-0.0947330967
-0.0237901751
0.0741923004
0.1372838616
0.0680117086
-0.1656288952
-0.2193425596
-0.0555725694
0.1117268875
0.1483652592
-0.0243752729
0.0408804715
-0.0381959677
-0.0516255349
-0.1561266333
-0.0461329035
-0.1158898100
-0.1304925978
-0.1358414590
-0.0907916203
-0.0795124918
-0.0587689839
-0.0376711339
-0.0317977034
-0.0117471330
0.1100273952
0.1027629822
-0.0120096905
-0.0025193756
-0.0164839495
0.0638245866
0.1292647123
0.1174574122
0.1245542020
-0.0553646535
-0.0335337333
0.0228065178
0.1428522170
-0.0388143919
-0.0836529732
0.1552142203
0.1268096715
-0.0199469514
-0.1287988871
-0.0523245595
0.1348107904
0.1863674521
0.1109754741
0.0593291745
-0.1086063012
-0.0845295787
-0.0641143993
0.1268601716
0.1449441612
0.0583630688
-0.1561820805
-0.1850648075
0.0023798745
0.0042155688
0.0733821318
0.1500578076
-0.0221253783
-0.0120294476
0.0371152423
0.0094248476
-0.0416549630
-0.0989875123
-0.1246203408
-0.0641045198
-0.0321194716
0.0036622649
-0.0243244246
-0.0636910647
-0.0248472430
0.0267327186
0.1541469097
0.1136472374
0.1739952117
-0.0794049352
-0.1170031279
0.0250524003
0.0893837810
0.1142601520
0.0812110156
-0.0028720535
-0.0366918780
0.0625540540
-0.0308317803
-0.0704484060
-0.1027454883
0.0862725452
0.0062419362
-0.0670987964
-0.0614099801
-0.0704554021
0.0652641281
-0.0766817480
0.0200028699
0.0263139699
-0.0784475729
0.1496476382
0.0575841554
0.0828379914
0.0518679544
-0.0415150672
0.0117143830
0.0615575500
0.1002267078
0.1243000031
-0.0482935682
0.0688472539
-0.0004534072
-0.0834032521
-0.0461545102
-0.1249560565
-0.0111584831
-0.0022004806
0.0043727839
-0.0783627927
-0.0321766548
-0.0747864991
-0.0407596268
-0.0209043268
-0.0129463430
-0.0379411727
0.0557476059
0.1076739728
0.0073659923
-0.0800478458
-0.0669437498
0.1684901118
0.1551068127
0.0722032562
0.0956055000
-0.0152417263
-0.0361200199
-0.0336466581
-0.0848204866
-0.1069566682
-0.0395697616
-0.1272394508
0.0346455202
-0.0848599225
0.0223717205
0.0111808013
0.0622968115
0.1726337522
0.0757510886
0.1034195349
0.0757122412
0.2008288652
0.1401667148
0.1337740719
0.0822525546
0.0870635360
0.1225254312
0.0176408142
-0.1357706189
-0.1098812073
-0.1813250333
-0.0042098188
0.0195004269
0.0792057291
0.1137005538
-0.0200286470
0.0614506640
0.0011097897
0.0483144522
-0.0780596882
-0.1015876457
0.0606272221
0.0000377645
-0.0567513965
-0.1302861422
-0.1166301966
-0.0360152237
-0.0815613940
-0.0435252450
-0.0739360526
-0.0518738702
0.0122653777
-0.0657816082
0.0849875286
0.0324488133
0.1230740920
-0.0764200240
-0.1546567082
-0.1868641078
-0.0735228881
-0.0684245974
0.1892302334
0.0099234926
0.0884073004
0.1452639550
0.0900851712
0.2272458524
-0.0156731848
0.0966033787
0.1154863089
0.1681302190
0.0771791339
-0.1188283861
-0.1448978931
0.0074634789
-0.0717299357
-0.0897974297
-0.1798537225
-0.0152434679
-0.1219611466
-0.1405340731
0.0546079986
0.0884303898
0.0224435758
0.0778315216
0.0485497974
-0.1532675922
-0.1194381118
0.0426543579
0.0743491426
0.0102208983
-0.1466882527
-0.0371175893
-0.0316282213
-0.1038206741
-0.0115515534
-0.1011135280
0.0034102465
0.0987585038
0.1650870144
0.1278396696
-0.0095005445
0.0724782422
0.1759645045
0.0767025501
0.1254562885
0.0205550995
0.0046216389
0.1320531815
0.1308362484
0.0546304323
0.0064623528
-0.0125697516
0.0459570736
-0.0270717889
-0.0537670292
-0.0534823313
-0.1365121156
-0.0799349770
0.0088965734
0.0012409072
-0.1320980936
-0.0568524487
0.0752404481
0.0022898396
0.1230101138
-0.0552076176
-0.0088462839
0.0822124332
0.0325144082
0.0738706514
0.1165432557
-0.0364683270
0.0109873610
0.0213872716
0.0247283522
0.0642916188
-0.0184936430
0.0358563028
0.0396349877
-0.1105414405
-0.1111208797
-0.1158453971
-0.1482377350
-0.1215310395
-0.0749790594
-0.1692820638
-0.1780425310
-0.1150999889
-0.1286823601
0.0211505033
-0.0824554712
-0.0366070569
0.0146941571
0.0508141406
0.0762145147
-0.0912248269
-0.1347292066
-0.1139710248
-0.0320529342
0.1066953316
-0.0437600948
-0.0028571924
-0.2238296568
-0.1977708936
-0.0564333014
-0.1546155959
-0.1897116303
-0.1358522922
-0.2372591943
-0.2308407724
-0.0074759522
0.0858568102
0.1244929433
0.0287899524
-0.0046824506
0.0420372821
0.0960457623
-0.0648190305
-0.0185651351
-0.0338123776
0.0352526419
-0.0430557206
-0.0105048800
0.0830065906
0.0637540966
-0.0319256783
0.1240843013
0.0200127233
0.0905515999
0.0330003835
0.0141041633
-0.0532272980
-0.0774414912
-0.0421695709
0.0032693348
-0.1275240034
-0.1250809431
-0.1550512612
-0.0867638141
-0.0039219726
-0.0089610852
-0.1026737317
-0.0657584518
-0.1403473914
-0.1797865778
0.0593789071
-0.0691162497
-0.0748334974
0.0686375052
0.1420319229
-0.0625840202
-0.1409665346
-0.1568631232
-0.2337744385
-0.1320570707
-0.0531205237
0.0718760043
0.0331989191
-0.0180522352
-0.2081679106
0.0058662589
0.2480092198
0.1973502189
0.1300307959
0.0625791103
-0.0237180460
-0.0178349502
0.0155256372
0.0563962944
0.0724330992
-0.0085416026
-0.0299699958
0.1267555505
0.1054902002
-0.0272857361
0.0323096439
0.1395025998
0.0772795975
0.1574813873
0.1940828115
0.0122158062
0.0835823864
-0.0490762070
-0.0728955567
-0.0455192551
-0.1169425398
-0.1602028310
-0.1455245912
-0.1838987917
-0.0238594655
-0.0560856313
-0.0463263392
-0.0093049966
0.0092245508
-0.0466172732
0.0244202260
-0.0227235518
0.1099531576
0.0138303395
-0.0089974580
0.0074693640
0.1135952696
0.1213981286
0.1397595853
0.1492234766
-0.0096412217
-0.0192923117
-0.0123687955
-0.0678341761
-0.0437815711
-0.0553498715
-0.0381162055
-0.1679635644
-0.0782365352
-0.0721550956
-0.1175270379
-0.1013865545
0.0784407929
0.0496541560
-0.0633322001
0.0518978648
-0.0014171242
-0.0216689743
-0.0351277478
0.0004891719
-0.0191001669
0.1110881940
0.0776834264
-0.0047606938
0.0443156771
-0.0309371632
-0.0505006164
-0.0825375393
0.0113232816
0.0727704316
-0.0738364756
-0.1489279568
-0.0537934676
-0.0629502609
-0.0687008724
-0.0728781894
-0.0470061339
-0.1366138309
-0.1055472121
-0.1947220713
0.1156480536
0.0404989123
0.0653351769
-0.0570583455
-0.0677472502
0.0071173226
-0.0074336096
0.1597982645
0.0915196314
-0.1255847812
-0.0576969348
0.0086332206
0.2635075748
0.0236104876
-0.1609603912
-0.0374580137
0.1775508523
0.2056289017
-0.1123194620
-0.1969783902
0.0084942598
0.1509619951
0.0049397899
-0.1228357106
-0.0685400516
0.0519715585
-0.0630255044
-0.1399325281
-0.0488366857
0.0011447849
-0.0239940025
-0.1007212624
-0.1384949386
0.0417628884
0.0697144493
-0.0481212735
-0.0124249542
0.0153050246
0.0517892987
0.1295857430
-0.1691792309
-0.0700134039
-0.0312578157
0.0459147505
0.0764165819
-0.0947071835
0.0702977777
0.0048863571
0.1479814649
0.0425218157
0.0963347778
0.1021212935
-0.1849908382
-0.1886368692
-0.0961129516
0.1796815097
0.2083530724
-0.0271952953
-0.2765961587
-0.2046796083
0.1598660648
0.1509977579
-0.2752569020
-0.2115442455
-0.1958104521
0.1287303567
-0.0508465692
-0.1850553304
-0.0018149526
-0.1608025134
-0.0132547002
-0.0659810156
-0.1179347336
0.0325500816
-0.1143001392
0.0499565527
0.0277961530
0.0399313569
0.0598801039
0.0632511973
0.0987204462
-0.0184153430
-0.1238594279
0.1337345541
0.1095104814
0.0628540590
-0.1903649569
-0.0839687660
0.1450115293
0.1564885229
-0.0877603665
-0.1708303541
0.0757881328
0.1847605258
0.1113949344
-0.1106574312
-0.0013255879
0.1237477735
0.1750796586
0.1083368957
0.0332005881
-0.0957825780
-0.0514823869
-0.0623306669
-0.0426693931
0.0305690784
0.0508295223
-0.0636704117
-0.1047877595
0.0289231446
0.1106819138
-0.0944404006
-0.0926892981
-0.0200534258
0.0513937473
-0.0675428733
-0.1519316286
0.0027016071
0.0781053677
0.0652047694
-0.0571742803
-0.0303960964
0.0148668960
0.1860221922
0.0889830068
-0.1273369640
-0.1345387995
-0.1118938923
-0.0548303239
0.0229228847
-0.0440362319
0.0464766026
-0.1506000608
-0.1199863628
0.0145736076
0.1022286713
-0.0221617538
-0.1565494388
-0.0333145559
0.1128051132
-0.0907008424
-0.1812906712
-0.0771683753
0.0813424215
0.0705022067
-0.1589104235
-0.0909004509
-0.0476606674
0.1310461760
0.0878600627
-0.0221711192
0.0493793078
-0.0432244912
0.0257490687
-0.0268731508
-0.0305788200
-0.0799797922
-0.1115864143
-0.0989787877
-0.0997397453
-0.0529396161
-0.0408428535
-0.0694792345
-0.1061293408
0.0277664755
-0.1423602700
-0.0985058248
-0.1287422776
-0.0640218779
0.1232009530
-0.0772106349
-0.0210446250
0.0666500479
0.1289621592
-0.0050638514
0.0827855542
0.0754930153
0.0965406671
0.0003475606
0.0125278244
0.0215071142
-0.1189329848
0.0197487678
0.0830816478
0.1037948653
0.0222668704
0.0745994374
0.1400117278
0.1168781817
0.0461101942
0.1570570618
0.0744716600
0.1170515642
0.0921484008
0.0579233989
-0.0210550763
-0.0224624276
-0.0240134802
-0.0325833224
-0.0257712211
0.0504770540
-0.0364044979
-0.1886394620
-0.0221657455
0.1599132270
0.1641447395
-0.0207734294
-0.0424549989
-0.1280660778
0.0097790696
-0.1650109887
-0.0923099890
-0.0175466184
-0.0273497924
0.1079598144
-0.0921989903
0.0301434174
0.0141330734
-0.0159213264
0.0770530477
0.2237029374
0.0573682562
-0.0550752692
-0.1708779335
-0.0747194961
-0.0894226879
0.0088674845
-0.0082898298
0.0377163440
0.0626245141
0.0123925749
-0.1263053119
-0.0488953777
0.0184636470
0.0711195990
0.0137086418
-0.0102733374
0.0229802839
-0.0013522014
0.0445720442
0.1368985325
0.0280863233
0.0618451163
-0.0470537581
-0.1004970595
-0.1500871629
-0.1960632950
-0.2240517139
0.0435566120
0.0094805872
0.0887790173
0.0847786367
0.0798443630
0.0595945381
0.0701937675
0.0518516116
0.0436307527
-0.1105650738
0.1116913036
0.0963468775
0.0199252367
0.0348287150
0.0316344276
0.1025364324
0.0802618861
0.0449352115
0.0328686945
0.0923189297
-0.0572512820
0.0570068099
-0.0806703791
-0.0506867208
-0.0190530866
-0.0296170954
-0.0615214072
-0.0279898997
-0.0531589836
0.0815958977
0.0915161073
0.0466288067
0.0738266259
0.0068230592
0.0073104580
-0.0072728680
0.0420248583
0.1513144672
0.0386798941
0.0184859149
0.1829108298
0.1045501009
0.1872185916
0.1383336931
0.1702703983
0.1092013866
0.0143231070
0.0470040813
0.0046205968
0.0225455742
-0.0390965007
0.0617389008
0.0717781410
0.1064684391
0.0068065003
0.0559046902
0.0686944872
-0.0848778561
0.0235859025
0.0346442834
0.0547166467
-0.0210627317
-0.0784366578
-0.2333213091
-0.0610448383
-0.1192728356
-0.1181922406
0.0130912093
-0.0053587253
0.0122227734
-0.0385687090
-0.1355743557
0.0255346764
0.1893924922
0.1662761122
-0.0548262335
-0.1343479753
-0.0958349481
-0.0229098573
-0.0315164812
-0.0837628171
0.0268904418
0.1229339615
0.0590143874
-0.0350153148
-0.0362417139
0.1321633607
0.1147080883
0.0141624985
0.0249470659
-0.0137178525
0.0571014769
-0.0150921224
0.0101820370
-0.0034350161
0.0572995991
0.0402994677
0.0282000620
-0.0400660373
0.0878950804
0.0082710553
-0.0378442891
-0.0502980687
-0.0485286117
0.0714108795
0.0027655701
-0.0914143175
-0.1952060759
-0.0871335492
-0.1152408794
-0.1127230898
-0.2447148412
0.0110954605
-0.1165373027
-0.0878624916
-0.1621893197
-0.2250280529
0.1149445549
0.0385888107
-0.1034675613
-0.0444171950
0.0238352567
0.1116718352
0.0312100332
-0.1539583057
-0.0785614401
0.0044845277
-0.1094702184
-0.0572580285
-0.0784301236
-0.1774117202
0.0428835079
0.0455207005
0.1007708535
-0.0054788315
-0.0111473845
0.0605175421
-0.0494340137
-0.0674034953
-0.0876384974
-0.0680061355
0.1300140917
-0.1885230541
-0.0730401576
-0.0761393756
0.0493110977
0.0987606347
-0.1466508508
-0.0350860953
0.0317109115
0.0203976352
-0.1364395767
-0.0734956563
0.0490379520
-0.0382187106
-0.0457921103
0.0195596721
0.1400629878
0.0880207494
0.1773302257
0.0083635272
0.1181110367
-0.0076433565
0.1273084730
0.1246171668
0.0357343480
0.0613911934
-0.1525788158
-0.1509049982
0.0053606913
-0.0332810022
0.1099223942
-0.0903789103
-0.1469476670
-0.0540354252
0.0323823094
0.0636561736
0.0444556065
-0.0693482608
-0.0532136224
-0.0827796608
0.0692103580
-0.0320799313
0.1151311547
0.1342805624
0.1303137243
0.0800672621
0.0660606399
0.1664990038
0.1769575030
0.1487684846
0.1489429474
-0.0528579801
0.0301644579
-0.0169553962
0.0362734050
0.1352970302
-0.1007895544
-0.0084241405
0.0888055265
-0.0217431616
0.0346879214
-0.1144775525
-0.2106680274
-0.2861837149
-0.2172899246
-0.1717587858
-0.1071919426
-0.3349070847
-0.2279205173
0.0251190066
-0.0389925577
-0.2096331418
-0.0835386813
0.1339565814
0.1752371490
0.0699676350
0.0258673802
-0.0216162205
0.0918524638
0.0044042501
-0.0260170065
0.0354947634
-0.0392347649
-0.0393849574
-0.0406349190
-0.2577902079
0.1242095381
0.0127768796
0.0242148731
0.0191823859
0.0217933804
0.0793029368
-0.1133968756
-0.0453920737
-0.0766941756
-0.0662767366
-0.0108813914
-0.1498100460
-0.1429929584
-0.0849043429
-0.0953029171
0.0347456485
-0.1126990020
-0.0225168001
0.0204877388
0.1003565043
0.0710576028
0.0863287449
0.0527452976
0.1436704248
0.1891791970
-0.1235860139
0.0647920296
-0.0491761491
-0.1733607501
-0.0511512794
-0.0449843258
0.1461510211
0.1407917291
0.1327062845
-0.1060157940
0.0652294084
0.1946998984
0.1461430937
0.0238537416
-0.2407801300
0.0060422360
0.0023293791
0.0118681276
-0.1840351373
-0.1557435691
-0.0398905799
-0.0939295515
-0.1279867589
-0.1122975200
-0.0154262930
0.1800065935
0.1719081849
0.0441904254
0.1447007358
0.0705182925
0.1669324338
0.0512023717
-0.0274499785
-0.0909423158
-0.0767205581
0.0691831410
-0.0708014444
-0.1295166612
-0.1880182028
-0.0890146270
-0.0654020160
0.0104945842
-0.0613245256
0.0126604820
0.2499035746
0.0161999594
0.0481438190
0.0957735330
0.0619519278
0.2178518772
0.0257006921
0.0745874271
0.1284161955
0.0241889581
0.1077877805
0.1846026331
0.0775562897
0.0225347038
-0.0260324311
-0.0262862854
0.1456766129
0.0057243863
-0.1843366772
-0.2197549641
-0.1377601177
0.0015159576
0.0088783307
-0.0693428963
-0.0807152092
0.0122108776
-0.0414911248
-0.0189037696
0.1171376705
0.1022168696
0.2085335702
0.0847788230
0.0123717971
0.1427374184
0.1094963476
0.1102683395
0.0734265819
0.0420082659
-0.0352677405
-0.0598120689
-0.0302900095
0.0188928470
-0.0251648948
-0.0560710356
-0.1198479310
-0.1648931801
-0.0862563401
-0.0511207543
-0.0668922067
-0.0425537415
-0.0740733445
0.0658921525
-0.0567138717
-0.0273018610
0.0865255445
0.1643147469
-0.0279051512
0.0175167806
0.0671851709
0.1659336537
0.0885632187
0.0397901684
0.1116251573
0.0950430855
-0.0900330991
-0.0831693858
0.0389845669
0.2197612971
0.0678790361
-0.1046315134
0.0559905618
0.0683715641
0.2360445261
0.0238502007
-0.0783171728
0.1990626603
0.0714912415
0.1198181733
-0.0181041881
0.0123478472
0.1412559152
-0.0626059100
-0.0412812270
0.0392096341
0.0648548454
0.1013983116
-0.0688625053
0.1008259878
0.0776687190
0.1637130231
0.0709482431
0.0674302205
0.1617817283
0.1746744663
-0.0133829657
-0.0084499745
0.0592122860
0.1857201904
0.0538831316
0.0653054491
-0.0719317943
-0.0745409578
0.0341536365
0.1100426540
0.0289160702
-0.0689976737
0.0353008807
0.0023936513
-0.1879140735
-0.0361423045
0.1712609977
0.1413669735
0.0904137716
-0.3355029225
0.1143032089
0.2287988961
0.1367883831
-0.1294142306
-0.3152907789
0.2816194296
0.2067314088
0.1345956177
-0.1950455457
-0.2294929177
0.1470351815
0.0086276028
-0.0326781124
-0.2456881553
-0.1360442936
-0.0120087229
-0.0097838920
-0.0506814197
-0.1966518313
-0.0825592950
-0.0291309580
-0.0822446197
-0.0694034398
-0.3080642819
0.0788661763
0.0865657181
-0.1085794717
-0.2341731489
-0.2217687070
0.0606504939
-0.0712549984
-0.2054951340
-0.2756517231
-0.1364825815
-0.0020866776
-0.1485499591
-0.1351047605
-0.1877379566
-0.0705433339
0.0074363626
-0.0971792266
-0.0634355471
0.0129853776
-0.1014645323
-0.0273444764
0.1010801047
0.0855696797
0.0738976151
-0.0743858367
-0.0398261100
0.1745530069
0.0182951763
-0.0639462024
-0.2342577875
0.0580185577
0.1988390386
-0.1585713178
-0.0266386922
-0.0746978894
0.1160810068
0.1445363462
-0.0552241094
-0.0904024988
-0.0908346549
0.0493279323
0.0314700641
0.0496052988
-0.0592546910
0.0062734969
-0.0039480347
0.0944132730
0.0015585304
0.0335108824
0.0187253952
0.0226544179
0.1903842390
0.0533012673
-0.0022299588
0.0735806152
0.1804840714
0.1030040234
0.0904753432
-0.0089077940
0.0186630953
0.1479131132
0.1409069896
0.0668517947
-0.0027479210
0.0513706803
0.1176685989
0.1136118844
0.0937190130
