-0.0191921815
-0.0021668093
-0.0077145705
-0.0083854208
-0.0040680780
-0.0768726394
-0.0861126781
0.0331036970
-0.0275871046
0.0119383307
-0.0690993369
-0.0151671898
0.0349113680
0.0170086399
-0.0425639451
-0.0529562347
-0.0509510227
-0.0483386815
0.0054072370
0.0081089912
0.0372251272
0.0479560755
-0.0287551600
0.0198375061
0.0574647486
-0.0441760086
-0.0862910822
0.0507597364
0.0207553636
0.0214818902
0.0386978053
0.0054819775
-0.0199304558
0.0403390862
-0.0036430212
-0.0271026958
0.0167672429
0.0130900396
0.0119334226
-0.0136893252
0.0192973297
0.0463406332
-0.0007924673
-0.0711186007
-0.0058419751
-0.0283152293
-0.0562454797
-0.0103889788
0.0836561173
0.0233005062
0.0126856267
0.0049556037
0.0554351620
-0.0692280233
0.0226601046
0.0075118737
-0.0030414958
-0.0265669618
0.0084855892
-0.0574912615
0.0774834976
-0.0051885662
-0.0311303306
-0.0564545356
0.0000398567
-0.0218850467
-0.0519361012
-0.0165090580
0.0211623125
-0.0280426703
-0.0341267437
-0.0477932617
-0.0271748174
-0.0532823987
-0.0267622825
0.0074811755
-0.0404955484
0.0650395304
-0.0646714196
0.0892646983
-0.0105348136
-0.0549652725
-0.0258228667
0.0121003753
-0.0497894213
0.0374564454
0.0591456406
0.0024810534
-0.0483323932
-0.0038870007
-0.0339345895
0.0480780713
0.0202943198
0.0629018173
0.0109156016
0.0333222300
0.0720131844
0.0183483623
0.0233320221
0.0791437104
0.0243648216
-0.0060837758
0.0542206205
-0.0169050619
0.0620505176
-0.0499028154
0.0127155036
-0.0201771576
-0.0522785150
-0.0876785517
0.0289405119
-0.0079906313
-0.0942294821
0.0310696196
-0.0121606719
-0.0195525102
0.0198953990
-0.0080590574
0.0835146010
0.0145378672
