-0.0111122290
0.0251131207
-0.0390451923
0.0304421894
0.1357160658
-0.0346263573
0.0825033560
0.1308191717
-0.0237546861
0.0160944909
0.0862019658
0.0156016443
-0.0311943013
-0.0361584947
-0.0229572393
-0.0562967919
-0.0454688333
-0.0436336026
-0.0191782489
-0.0442169197
-0.0818272159
0.0794867799
-0.0042037540
-0.0921008140
-0.0381652154
-0.0536960736
-0.0489733927
0.0229332857
0.0130335763
0.0418818817
-0.0489877574
0.0093364399
-0.0311334580
-0.0324077569
-0.0096034221
-0.0554560535
-0.1404350847
0.0124706551
-0.0098980470
-0.0208766814
0.0599542670
-0.0443600751
0.1063649952
0.0406792760
0.0156705547
0.0892748237
0.1255384833
0.0240907725
0.0930308923
0.1056841761
-0.0553810820
0.0257444307
0.0741920993
-0.0318802670
0.0470718741
0.0097946357
0.0801845342
0.0498957485
0.0485958233
-0.0057380446
0.0200773142
0.0681642815
-0.0449543633
-0.0257392619
-0.0311146323
-0.0174043439
-0.0196920484
0.0042580641
-0.0246120822
-0.0186169297
0.0578271188
0.0050111245
-0.1188980490
-0.0281202830
0.0053726570
0.0673734173
0.0794887394
0.0739337057
0.0301759541
-0.0908731446
0.0646595210
0.1778435111
0.1476101428
0.0392991640
0.0380603373
0.0861693546
0.1237471476
0.0107138809
-0.0412396416
-0.0166169386
-0.0669819042
-0.0179946031
-0.0102312118
-0.0126368282
-0.0858413801
-0.0807707310
0.0276494641
-0.0506769009
0.0180864781
-0.0157645848
0.0030980823
0.0994008705
-0.0287428219
-0.0133962696
0.0342838801
-0.0056673777
0.0015336077
-0.0565100610
-0.0019939670
0.0493698269
-0.0523516834
0.0344302207
-0.0616513193
0.0178221483
-0.0378385931
-0.0429132693
-0.0419951342
-0.0391731113
-0.0737044290
-0.0216283873
-0.0615192987
-0.0071042562
-0.0137925530
-0.0278104823
-0.0746050626
-0.0318326391
0.0133719156
0.0374756791
-0.0208675992
-0.0312584527
-0.0170678496
-0.0265937392
0.0502658561
-0.0167035665
-0.0491550304
-0.0502193533
-0.0001044057
-0.0325573646
-0.0252536088
0.0522579178
0.1033099368
0.0228563473
-0.0138575472
0.0731171891
0.1053057835
0.0986006483
0.1040735543
-0.0351020284
0.0683070272
0.0770215765
0.0826322064
0.1123508811
0.0713557675
0.1236133277
0.0760504529
-0.0366611667
0.1084019989
-0.0066724182
0.0046381527
0.0642214343
-0.0494314209
0.0277093388
0.0128613152
-0.0787564889
0.0217138845
-0.0171844903
-0.0434036441
-0.1135228202
0.0451397337
0.0047024945
-0.0701842383
-0.0709052309
-0.0500505492
-0.0217081960
-0.0547093637
0.0496359318
0.1009297743
-0.0250471532
-0.0849029124
-0.1512037218
0.1018541157
0.0003912991
-0.0269554853
-0.0677819178
-0.1519573182
0.0458336957
-0.0173058715
-0.0410186574
-0.0537797771
-0.0257547349
0.0098674428
-0.0134287346
0.1027624384
0.0237103775
0.0364536755
0.0168431941
0.0526381060
-0.0475642607
-0.0616998337
-0.0453844741
0.0604299083
0.0119941253
0.0822766721
0.0499453135
-0.0138360988
0.0179627519
0.0316516720
-0.0035379152
0.0829480365
0.0181457493
0.0880015492
0.0054185642
-0.0413211435
0.0502860360
0.0749248341
0.1138550341
0.0128696579
0.0321466774
0.0924442485
0.0489990599
-0.0683140233
0.0481402725
-0.0711060241
0.0298861209
0.0858855397
0.0953646749
0.0277948286
0.0379849412
0.0731668621
-0.0557788126
0.0111211147
0.0380235575
-0.0618465617
0.0973052979
0.0060393373
-0.0109850243
-0.0151116224
-0.0214964952
0.0326163396
-0.0185930915
-0.0375778787
0.0692699477
0.0615964159
-0.0277229026
-0.0100668389
-0.0140402615
-0.0862183794
-0.0726292133
-0.0280126277
-0.0104835583
-0.0007166443
-0.0555032454
0.0116896341
0.0594838113
-0.0231247973
0.0132358838
-0.1256245375
-0.0066973027
-0.0612644888
0.0113369925
-0.0189331137
-0.0169365015
-0.0411603004
0.0729404390
0.0089784125
0.0160808191
0.0229807124
-0.0044925446
-0.0047132843
-0.0680152699
-0.0608237013
-0.0621029250
0.0636430904
0.0190340038
-0.0279205721
-0.0789806023
-0.0845589340
-0.1229999661
-0.0311452076
-0.0677942634
0.0320429765
-0.0238420628
-0.1326871663
-0.1308160573
-0.1628948301
0.0409085602
-0.0913035795
-0.0106284777
-0.0223500077
-0.0782117471
0.0483405665
0.0502946079
0.1052905023
-0.0638765171
0.0399391539
0.0646954402
0.1532425880
0.0885173455
0.0249110721
0.0910464600
-0.0140683884
-0.0365515314
-0.0650037378
-0.0376670621
0.0434835218
-0.0201359279
-0.0221928898
0.0402143747
0.0302288905
0.0070212120
-0.0164169408
0.0319729075
0.0250769947
-0.0499581620
-0.0776368529
0.0154505447
-0.0521153510
-0.0201502126
-0.0685056075
-0.0393429510
0.0062961918
-0.0271496996
0.0384757146
-0.0017760458
-0.0150454734
-0.0288439412
0.1168594137
-0.0132502345
0.0456956550
0.0091713695
0.0260038339
0.0485717356
-0.0208229460
0.0374217518
0.0362700596
0.0288542062
-0.0116481185
-0.0003353277
-0.1129079312
-0.0285207834
0.0167427622
0.0184020009
-0.0594796352
-0.0709551498
-0.0229745917
0.0203823298
-0.0407932512
-0.0479890630
-0.0197183248
-0.0352522954
-0.0030943183
-0.0033441330
0.0525992252
0.0956340432
0.1606216431
-0.0438214839
-0.0266226549
0.0336960517
0.0692296848
0.1098988056
-0.0576405339
-0.1186537370
0.0608710386
-0.0038285293
0.0287942532
-0.0481430069
0.0448499322
-0.0538511723
-0.0976530015
0.0651153922
0.1302548498
-0.0143456561
-0.0159503687
-0.0295868460
0.0081991581
-0.1402683109
-0.1225119233
-0.0931043327
-0.0009245230
0.0879736543
-0.1993086785
-0.0539758280
-0.0991079062
0.0407126658
-0.0498699769
-0.0917174369
0.0349501595
-0.0204699356
-0.0077804131
-0.1317744553
0.0933314040
-0.0001499409
0.0324168466
-0.0783396438
-0.1150683463
0.0235246047
-0.0231642816
0.0358514898
-0.0436876044
-0.0590912737
0.0311110634
-0.0159215648
-0.0031204980
0.0418152586
0.0739637539
0.0209633503
0.0270798840
-0.0118202697
-0.0732661858
0.0234151334
0.0169091132
0.1216250211
-0.0487662219
0.0859537050
0.1141843721
-0.0350915119
0.0447320268
0.0319836698
0.0568268672
-0.0424888544
0.0068964907
0.0251595080
0.0624319576
-0.0068376246
-0.1154306158
0.0249893684
0.0132732894
-0.0378374606
0.0187136084
-0.0202435795
-0.0280366521
-0.0112823192
0.0540642068
-0.0346399434
-0.1204226539
-0.0901856571
-0.0096268747
-0.0623070933
-0.0217101276
0.1252551973
-0.0546212271
0.0118129672
-0.0236328337
0.0861800388
0.0593680218
-0.0315889120
0.0163023248
0.0317369401
0.0708978549
-0.0190742481
0.0133884847
0.0915938914
0.1286500245
0.0564155355
-0.0250538681
0.0008839026
0.0124253985
0.0026502411
0.0250091441
-0.0491018631
0.0020675771
0.0665295422
0.0255786236
0.0065638847
0.0632409304
-0.0842120796
-0.0264596995
-0.0526186824
0.0098864455
0.0524732098
-0.0022310377
0.0232992601
-0.0285877977
-0.0084162578
-0.0141031705
0.0856058002
0.1263378710
0.0559613407
0.0256621633
-0.0028655669
0.0193239339
0.0910440311
0.1363298148
0.0681068972
-0.0852732658
0.0147749800
0.0988166034
0.0651513636
-0.1320699602
0.0436600856
-0.0119924489
0.0439131483
0.0376217701
0.0294752512
0.1630429327
0.0416836403
-0.0006938786
0.0383225121
-0.0094010532
0.0211417060
-0.0674638376
-0.0850921944
-0.0026845569
-0.1223202422
0.0230699796
0.0082446299
0.0216942877
-0.0304280296
-0.1546972543
0.0333808810
0.0322174206
0.0145520400
-0.0056745145
0.0077396887
0.0146908034
0.0212781671
-0.0890765116
0.0112621849
-0.0093898810
-0.0072876308
0.0067441128
0.0165517088
-0.0837576613
0.0099171437
0.0131246066
0.1044007391
0.0749141425
0.0589441955
-0.0061205737
-0.0340759903
0.0002904084
0.0312284492
0.1195156053
0.1530937999
-0.0117568746
-0.0290164705
-0.0032223212
-0.0139173362
0.0795352310
0.0484560989
0.0450050458
0.0760681853
0.0541854575
0.0556215383
0.0118130362
0.0184492748
-0.0335390829
0.0255696122
-0.0367712379
0.0033445170
-0.0214724075
0.0792912990
0.0755316317
-0.0108851651
-0.0537749007
-0.0121192476
0.0699474886
0.0963611007
0.0226051696
0.0450181998
0.0013783901
0.0733611658
0.0819725618
-0.0299986433
0.0014923090
0.0100579523
0.0449646041
0.0462747663
-0.0467614084
0.0483840294
-0.0417108722
-0.0864178464
-0.0605845153
-0.0174078718
0.0206270684
0.0602320619
0.1543100476
0.0245498866
-0.0125556784
-0.0721032172
-0.0336344987
0.0033917911
-0.0063180318
-0.0565472022
-0.1173959076
-0.0276868325
-0.0398618393
-0.1097205281
0.0290018991
0.1258693784
-0.0002051435
0.0084903296
0.0228486434
0.0128827859
-0.0067680907
0.0190664884
0.0389710702
0.0413740687
-0.0197739266
-0.1152350307
-0.0167813208
0.0480853468
0.1114107668
0.1562567204
0.0020214228
-0.0199040622
-0.0284254048
0.0765559152
0.1069227234
-0.0608933344
-0.0696970075
0.0262304731
-0.0686266795
-0.0746694133
0.0160070863
-0.0575021021
-0.0374338441
0.0132663725
-0.0298018027
0.0410999395
-0.0388794392
-0.0492685661
-0.0297693331
0.0406834930
-0.0147618558
0.0036989718
0.0704824701
0.1005313098
0.0907453746
0.0757417083
0.0677202791
0.0502049848
0.0048542907
0.0288705025
0.0203545671
-0.0167697780
0.0088248551
-0.0452238210
0.1263866276
0.0882827044
0.0211546477
0.0812679306
-0.0303743854
-0.0210404042
-0.0485873856
0.0191178862
0.0732389092
0.0288887825
-0.0490177870
0.0121344449
0.0135053024
-0.0497699194
-0.0705557987
0.0074121105
-0.0039404314
0.0501496904
-0.0759254694
-0.0045173881
-0.0307699442
0.0595243275
-0.0647448525
-0.0068526231
0.0234138053
0.0463283584
-0.1199010015
0.0058493400
0.0200023614
0.0078522582
0.0251661222
-0.0797994211
0.0613505132
-0.0133405421
0.0328973569
-0.0366512462
0.0280488357
-0.0156153915
0.0024298574
-0.0133103803
0.0142319892
0.0116762165
-0.0416752882
-0.0917763114
-0.0987342969
-0.1705089360
-0.1117167324
0.0168499574
-0.0161296129
-0.0826226994
0.0116520869
0.0306249131
0.0362999775
0.0391005874
0.0066930945
0.0558412597
-0.0269023422
0.0803772882
0.1326645315
0.0409542657
0.0167134851
-0.0240382664
-0.0743437186
-0.0270615295
-0.1333053410
-0.1741053015
-0.0784999132
0.0278944802
0.0615442879
-0.0338798724
0.0083027501
0.0047827410
0.0927468538
0.0137402806
0.0817094818
0.0199144743
-0.0760577917
0.0189007949
0.0582541227
0.0520981289
0.0066318857
0.0703812689
-0.0544251278
0.0063935723
0.0363188088
0.0256459974
0.0786599666
-0.0394875444
0.0082049156
0.0114446506
-0.0319543444
-0.0640709326
0.0528409295
-0.0318444595
0.0191112347
-0.0287589896
-0.0411942452
-0.0031570098
-0.0275757220
-0.0072884066
-0.0658899844
-0.0238338858
-0.0409371071
-0.0366762243
-0.0306367092
0.0442049541
-0.0036659900
-0.0316040367
-0.0511259846
-0.0336472429
-0.0617131516
-0.0080129225
0.0136192031
-0.0043033292
0.0651480779
0.1423066258
0.1465244591
-0.0184770562
0.0120085813
-0.0354974382
0.1227574274
0.1626864821
0.0021469414
0.0107674580
0.0744159520
0.0874434486
0.0080267256
0.0101509821
0.0792637318
-0.0288251229
-0.0026818952
-0.1391060352
0.0956925228
-0.0418046080
-0.0526987836
0.0162315033
-0.0301411171
0.0155278090
-0.1356323510
-0.1832334846
-0.1901879311
-0.0172935054
0.0385590419
-0.0441245548
-0.0564281158
-0.1021643430
-0.0504625328
-0.0659834594
-0.0440310538
-0.0089648692
-0.0758155435
-0.0268636942
0.0505269133
-0.0556116104
0.0007192054
-0.0384967774
0.0717680305
-0.0630790219
0.0085625490
-0.0385331027
0.0303726532
0.0104360795
0.0321433432
0.0428914018
0.0074298223
0.0384978205
0.0402273349
-0.0632515699
-0.0977951959
-0.0768734664
-0.0442010127
0.0098307915
0.0044889031
-0.0018836635
0.0739965215
0.0378987044
0.0055990913
0.0069715022
0.0178928655
0.0884584263
0.0097796405
-0.0080385199
0.1353054345
0.1027043834
0.0955945179
0.0244932938
0.0175734330
0.0018237943
0.0587688461
-0.0351029858
-0.0569971353
-0.0895565599
-0.1034225747
-0.0585480630
-0.0205978416
0.0452839807
-0.0964320526
0.0402374864
0.0455515943
-0.0128174806
-0.0915886760
0.0053661433
-0.0263745300
-0.0754625648
0.0351942517
-0.0958992317
-0.0741204023
-0.0628267154
-0.0445615873
0.1098801643
0.0635490045
-0.1210944951
0.0400359891
0.0326264091
0.0654221028
0.0033431577
0.0011644224
-0.0521279834
-0.0785261691
0.0129490504
0.0203589760
-0.0426849164
0.0469658971
-0.0356155112
-0.0034450446
-0.1095345393
0.0244015325
-0.0228186063
0.0367057361
0.1223765016
-0.0131626269
-0.1086870730
0.0268941503
-0.0036994412
0.1285236478
0.0683702379
-0.0025081998
0.0903919116
0.0797807351
0.0190864876
-0.0584050082
-0.0715104118
-0.0336210430
0.0999126434
0.0517878197
0.0143334242
-0.0717769712
-0.0817506537
-0.0419637747
-0.0901116952
-0.1068427116
-0.0017570641
0.0737378523
0.1076239422
0.0060504293
0.0946074203
-0.0415715761
0.2143688947
0.1546142846
0.1215291917
0.0928405076
0.0390294567
0.0397318825
-0.0585158989
-0.0019924773
-0.0213561561
-0.0229833499
0.0915963724
0.1039202437
-0.1181247830
-0.1301987022
0.0436236374
0.0946122408
0.0133519443
0.0192127116
-0.0386650302
0.1009842977
0.0453210510
-0.0412527509
-0.0356895812
-0.0204551388
0.0420129448
0.0558457747
0.0121868160
-0.0807251558
-0.0688792169
-0.0512924902
0.0556908846
0.0468770415
-0.0479900762
-0.0585702993
0.0055563850
-0.0355152376
-0.0240208134
0.0903634503
0.1234532520
-0.0309276748
-0.0015929808
-0.1665367931
-0.1429689825
-0.0209275614
0.0442329273
-0.1023544446
0.0064201350
0.0124187889
-0.0812125504
-0.0968982354
-0.0864370465
-0.0017975461
0.1033849120
0.0505835377
-0.0970946327
-0.0111830654
-0.0197649673
0.0696304813
0.0204464011
-0.0476381630
-0.0055132643
0.0496907681
0.1135919169
0.0200535152
-0.0205656104
-0.0219414812
0.0288363732
0.1229983717
0.0564750172
-0.0176681355
-0.0088413721
0.1077578515
0.0551534519
0.0027206363
0.0027602159
-0.0019460183
0.1300885379
0.1038432792
0.0451508574
-0.0418464690
0.0229126718
0.1224900931
0.0726632327
-0.0125880623
-0.0872522593
-0.0434592552
-0.0455507003
-0.0402699187
-0.0074262181
0.0055355090
0.0877850279
0.0174181648
-0.0328221731
0.0268749017
0.0894863084
0.0493650101
0.0428418890
0.0003499618
0.0022969171
-0.0458934456
0.0148231629
0.0001265315
-0.0027913030
-0.0272500291
-0.0604019240
0.0154500259
0.0050735106
0.1518601775
0.0995085239
-0.0126369763
0.0016511455
-0.0762313604
0.0217278488
0.0480676480
-0.0523694083
-0.0304687712
0.0346367843
-0.0815652460
-0.1293881685
-0.0720991716
0.0059776166
-0.0536813997
0.0404936634
-0.0855560973
-0.0849011093
-0.0119350068
-0.0433735512
0.0530946814
0.0479480997
-0.0352953263
0.0022911290
0.1189318895
0.1058072150
0.1108070314
0.0868086144
-0.0555006303
0.0173193067
0.0089485003
0.0124766883
-0.0333022103
0.1330179870
0.0625810772
0.0294062532
0.0464346968
0.0243601855
0.0717265159
0.0715752468
0.0450185798
0.0208763033
0.0826500356
0.0079414612
0.0391794518
-0.0184435509
-0.0420642123
0.0035984814
-0.0771939605
-0.1152270734
-0.0355516151
-0.0072562126
-0.0059145284
0.0764132291
0.0355748162
-0.0058723604
0.0218185633
0.0452607125
-0.0009948777
0.0478535071
0.0435410216
0.1096249372
-0.0222855248
0.0183665212
-0.0665720180
-0.0689594224
0.0440820009
0.1066513732
0.0232227109
-0.0555940792
-0.1215884238
-0.1015168205
-0.0058482555
0.0362404250
0.0150710288
-0.0879405737
0.0295845997
0.0628323033
0.0642964095
0.0109597584
-0.0815181583
-0.0449968986
0.0163002722
0.0057671247
-0.0599362776
-0.0291379783
-0.0168030802
-0.0239572246
0.0213602483
-0.0035112465
-0.0636004433
-0.0618069805
-0.0239328835
0.0656003281
-0.0206677169
-0.0870108604
-0.0255573895
-0.0146346763
-0.0663323775
-0.0135731315
-0.0491548181
-0.1554444879
-0.0324708261
-0.0659310743
0.0553670302
-0.0271319486
-0.0422198810
-0.0429193415
-0.0743595660
0.0499255583
0.0147497421
0.0098065045
0.0547899976
-0.0778300688
-0.0502695143
-0.0488971062
0.0172433648
-0.0476306751
-0.0033379304
0.0346613117
0.0469471887
-0.0301212147
-0.0771995187
-0.0095673129
-0.0336591154
-0.0250405092
-0.0201463886
-0.0464338623
0.0667303130
-0.0013572747
-0.0341930687
-0.0837326124
-0.0406304337
0.0159980245
-0.0087350532
-0.0052049025
-0.0041679465
0.0419559479
-0.0032067117
0.0195293892
-0.0377225801
-0.0241616778
0.0443417840
-0.0068333140
0.0848113447
-0.0074145733
-0.1027320027
-0.0737931952
0.0179179423
0.0142908720
0.0857780203
0.0701767206
0.0427053459
0.0009710822
0.0202578567
0.0352784842
0.0187901054
0.1272795945
0.2186794579
0.0891024247
0.0510198027
-0.0245759692
-0.0346616730
0.0922156721
-0.0234533139
0.0069482573
-0.0748876855
0.0011928838
-0.1406825781
-0.0738561824
-0.0571818501
0.0089295348
0.0220646691
-0.0185713805
-0.0578668080
-0.2228946686
-0.1777262837
0.0014648403
0.0094392905
-0.0162650011
-0.0667812899
-0.0400833078
-0.0151487328
-0.0579718240
-0.0050320476
-0.0938906968
-0.0059896652
0.0423014015
-0.0130515750
-0.1538040936
-0.0891093686
-0.0776876807
-0.0324211121
-0.0137459571
-0.0513208769
-0.0252005402
-0.0254379287
-0.0375356413
-0.0415361784
0.0852484629
0.0282728542
-0.0308094956
-0.0804233998
-0.1551024616
-0.0864977315
0.0314380415
-0.0263041593
-0.0743816942
0.0023426488
-0.1577044278
0.0933341160
0.0770471022
0.1114611402
0.0809996873
0.0338097475
-0.0103863701
0.0782276541
0.1298109293
0.0144240307
0.0600229651
0.0596943460
0.1010339409
0.1583516598
-0.0324914791
0.0640728772
-0.0498913042
-0.1216542274
-0.0057656458
0.0028044966
0.1259883940
-0.0611586235
-0.0110887950
-0.0023995768
0.0999251530
0.0611543655
0.0585001707
-0.0030500945
-0.0376460515
-0.0522381179
-0.0169500522
0.0090751806
-0.1175248250
-0.1027924046
-0.0320240706
-0.0772234425
-0.0859033018
-0.0157153606
-0.0464350097
-0.0221705064
0.0079833986
0.0068595102
0.0582166389
0.1719370186
-0.0050613726
-0.0174883977
0.0744759664
0.0770212784
0.0159835387
0.0014700773
-0.1181527823
-0.0308687277
0.0305600371
0.0428160466
0.0388625227
0.0219631027
0.0077429623
0.0118522681
-0.0087759122
0.0128307566
0.0774351731
0.0886329263
0.0720122233
0.1199442893
-0.0446821339
0.0512983464
0.1357643753
0.1982719898
0.1488122046
-0.1108199060
-0.0156222489
0.0431675911
0.0875136182
-0.0338122137
-0.0911654457
-0.0518892407
-0.1152278483
-0.0585682392
-0.0723627508
0.0326341018
-0.0612504855
-0.0520774797
0.1009125039
0.0374685563
0.0571115240
-0.0160177965
0.0602489896
0.0386356004
0.0269929655
0.0094192307
0.1143813357
0.0169292409
0.0875806138
-0.0322195441
0.0548131540
0.0985068679
-0.0356795341
0.0547075942
-0.0050807842
0.0490783639
0.0120798498
-0.1262213588
-0.0272973347
-0.1051976457
-0.0136575401
-0.0110866986
-0.0850688890
-0.0773142055
0.0242772922
0.0290802065
0.0047485540
0.0086114220
-0.0325843804
0.0822434425
-0.0087219793
0.0065495973
-0.0410938524
-0.0255696308
-0.0114575466
0.0682683215
-0.0277694725
-0.0024386137
0.0099554770
-0.0492350236
0.0511383563
-0.0727405027
0.0605876409
-0.1145163178
0.0387762524
-0.0389901735
-0.0295831766
0.0769512355
0.0899161845
-0.1000153199
0.0040937872
-0.0646281168
0.0559102073
0.0891424268
0.0081702685
-0.0440010875
-0.0370239615
-0.0227770787
-0.0013488554
-0.0002855174
-0.0076040048
-0.0993043110
0.0315119140
-0.0644711256
-0.0041611921
-0.0927308351
-0.1128338128
0.0071271718
0.0256415084
-0.0065508038
0.0463446230
0.0744005144
0.0186230168
0.0650397614
0.0649313703
0.1292113364
0.0970724598
0.0526775271
0.0152989244
0.0638136789
-0.0370703079
-0.0221086182
0.1079209596
0.1969071180
0.0911158845
-0.0402766168
0.1171843335
0.0753904432
0.0766769871
0.0360920839
0.0273888055
-0.0065131048
0.0594850779
0.0658821911
0.0557712168
-0.0456333943
-0.0391968302
-0.0100958617
0.0089173578
-0.0389974937
0.0687910244
0.0214935951
-0.0064344737
0.0003117768
-0.0756556988
-0.0198572241
-0.0318258256
-0.0144212339
0.0345760547
0.0396532938
-0.0978047699
-0.0428334959
0.0637990013
0.0357128158
0.0159482379
-0.0018158609
-0.0187220108
0.0184108540
0.0880989805
-0.0424376950
0.0591314286
-0.0521349423
0.0119869784
-0.0259024706
-0.0351561680
0.0179598257
0.0258065630
-0.0320883356
-0.0755390003
-0.0879469588
-0.0183767620
0.0534235202
0.0403164960
-0.0083138254
-0.0602278821
0.0289690085
-0.0150674274
-0.0410769694
-0.0760927126
-0.0274749231
-0.0466663390
-0.0074789478
0.0166743360
0.1764582694
0.0220782645
-0.0138774272
0.0760358348
-0.0406304710
0.0764335394
-0.0215570014
0.0372616872
0.0098184822
0.0409302674
0.0389354005
-0.0848806947
-0.0596326664
-0.0099642603
-0.0689979568
-0.0664336234
-0.1321428716
0.0359456129
-0.0281554572
-0.0485227630
-0.1088477150
-0.0369626358
-0.0323487073
0.0549603403
-0.0599409193
0.0084999828
-0.0333741084
-0.0851577371
-0.0098384870
0.0084861675
-0.0513523258
-0.0161779840
0.0071992166
0.0199874416
-0.0652165860
-0.0787168965
-0.1253767312
0.0894587412
0.0248101093
-0.0133364107
0.0504421927
0.0055245999
-0.0313101821
0.0739967600
0.0950087905
0.0517634712
0.0309046246
-0.0092439335
-0.0632624626
0.0281285048
0.0542214774
0.0881343558
-0.0395014882
-0.0968083367
-0.0752846003
-0.0356432088
-0.0458626933
-0.1012900397
-0.0794973895
-0.1036540195
-0.0541454330
-0.1339946538
-0.0160010327
-0.0108897761
-0.0897262841
-0.0331533104
-0.0993144065
-0.0488032848
-0.0429801792
0.0212102327
0.0221967027
-0.0292211417
-0.0166101865
0.0339604840
-0.0165975355
0.0517783277
-0.0344056115
0.0552221164
-0.0274305586
0.0270359777
0.0198832005
0.0458738059
-0.0111853890
0.0322159827
0.0304725394
0.0237795319
0.0410556011
-0.0362832919
-0.0348240398
0.0144374333
0.0153894387
0.0328051858
0.0041955812
-0.0376620330
-0.0668791309
0.0357958898
-0.1375766098
-0.0229736455
-0.0599659756
-0.1182677746
-0.0965555608
0.0323002487
-0.0370869786
0.0147141870
0.0079492461
0.0495852754
0.1210964695
0.0282032397
0.0992997140
0.0899569094
0.0169170592
-0.0110596819
0.0148920035
-0.0938824341
-0.0491833277
-0.0684610158
-0.1382867992
0.0551593602
-0.0016975389
-0.0471580066
-0.1384646297
0.0144887213
0.1343906522
0.0389739722
0.0716648474
0.0250810441
0.0465817861
-0.0056211227
0.0081386538
0.0451289788
-0.0133392662
-0.0688972846
-0.0703306943
-0.0183430258
0.0621618479
-0.0128181204
-0.0876423717
0.0621385723
0.0625661463
-0.0509096347
-0.1764002293
-0.1436182708
0.0463653095
-0.0047696731
-0.0593120828
-0.1220187470
-0.1230614558
0.0637199283
0.0307859350
-0.0821142718
-0.1239221022
-0.0876730233
-0.0686722919
-0.0913758799
-0.0618431009
-0.0299101602
0.0606017299
-0.0976242870
-0.0764372498
-0.0454738736
0.0336404815
0.0828117877
0.0419731326
0.0727644935
-0.0183058642
0.0080912197
0.0887387395
0.1594910473
0.0505941547
0.0159020592
0.0847267881
-0.0698587224
-0.0425213724
-0.0135291368
0.0403023101
-0.0915808305
-0.0522016063
0.0269864537
0.0098891836
0.0415955409
-0.0523560792
-0.0410718285
0.0063318163
-0.0040241741
0.0136592379
0.0467284881
-0.0782650039
0.0110851396
0.0216708593
-0.0245537739
-0.0239004008
0.0408209004
-0.0498651937
-0.0308132302
0.1024859920
0.0493149124
-0.0135430759
-0.0579347312
-0.0575731955
-0.0887760669
-0.0895722136
-0.1203030646
-0.0169729944
0.0464594103
0.0736588836
0.0737461448
0.0619568117
-0.0248165838
-0.0257235803
-0.0342913531
0.0283668004
0.0560433902
0.0776750147
0.0995305106
0.0230974238
0.0133498013
0.0838592798
0.0445133634
-0.0186440535
-0.0138034103
0.0108273448
0.0136412168
-0.0742783248
-0.0516867228
0.0492892526
-0.0586827844
-0.1328646839
0.0472094864
0.0826947615
0.0723739341
0.0237611588
0.0258872397
0.0837397128
0.0835155249
0.0172024146
0.0053134500
-0.0048449002
0.0413992554
0.0250712782
-0.0425019637
-0.0337234959
-0.0192903150
0.1905267090
0.0568844415
0.0124958288
0.0684260502
0.1781692654
0.0528000779
-0.0231871027
-0.0548643321
-0.0404100157
-0.1108270735
-0.0034979375
0.0498532429
-0.0534817725
-0.0993620232
-0.0601249449
0.0886410102
0.0165917203
-0.0504886732
-0.0762716010
0.0359487310
-0.0835804120
0.0027293910
-0.1276805699
-0.0054048705
0.0223110858
0.0531878583
0.0011771349
-0.0434012935
0.0441037267
0.0714712515
0.0640971139
0.0329024233
0.0915830582
0.0474759638
0.0878600925
-0.0608657897
-0.0310568009
-0.0542432591
-0.0880530179
-0.0232462045
0.0926271901
0.0128799677
-0.0261971280
-0.0284296293
-0.0912210792
0.1164050996
0.0917766616
0.0843499228
0.0652018264
0.0989452228
-0.0111713484
-0.0170641914
0.0116056139
-0.0593598261
-0.0982805043
-0.0516254567
-0.0264011323
-0.0027137320
-0.0623667203
-0.0914577171
-0.0076265763
0.0662493482
0.0717097968
-0.0050471956
0.0697742701
0.0170267560
0.0013576518
-0.0026400075
-0.0035594995
0.0019400052
0.0043510646
-0.0067968895
-0.0141665963
-0.0986635387
-0.0179590061
0.0004905775
0.0865341127
0.0928642824
-0.0455758870
-0.0469459780
0.0040239180
0.0118462062
0.0051224767
0.0014708523
0.0082324445
-0.0758352429
0.0183819942
0.0181679074
0.0084041907
-0.0795511678
-0.0926220715
0.0195771623
0.0830357596
-0.0611805543
-0.0423397385
0.0568432435
0.0451786257
-0.0912956670
0.0017704812
0.1511470675
-0.0194968823
-0.0923371464
-0.0295032915
-0.0576451793
-0.1310928613
-0.0936600193
-0.0351239033
0.0459769294
-0.0985336602
-0.1712342799
0.0486984551
0.0916319489
0.0117387855
-0.0183044411
0.0845739841
0.0228172056
-0.0628242716
-0.0126900356
0.0763754919
0.0849898756
0.1076002046
0.0631742477
0.0164914876
-0.1304253191
-0.0050155385
0.0300379153
0.0510845631
-0.0539860316
-0.0552916676
-0.0401733853
-0.0846145898
-0.0220521018
-0.0023128269
-0.0288081691
-0.0615018755
-0.0319990776
0.0668485314
0.0455932431
0.0531725883
0.0452447534
-0.0134281479
-0.0928921178
-0.0762365982
0.1026803926
0.0838001892
0.0127099063
0.0164961834
-0.0262906682
-0.0069532199
-0.0365021825
-0.0345260911
-0.0541270934
-0.0564228408
-0.1147312447
-0.0326531343
-0.0579146184
0.0736227185
-0.0366422981
-0.0442731418
0.0673301890
0.0858381987
0.0382137857
-0.0555375926
-0.0030054308
0.0295488462
-0.0900403932
-0.0551867671
-0.0188794956
0.0230527744
0.0316411480
-0.0776376873
-0.0818791017
0.0409415029
0.0093969330
-0.0470827296
-0.0868103504
-0.0326945074
0.0095156217
0.0197847448
0.0467204489
-0.0134549094
-0.0312299356
-0.0216463637
0.0199296921
0.0726846829
-0.0079041487
-0.0495869108
-0.0439188592
-0.0313897133
-0.0267759226
-0.0609414056
-0.0119627742
0.0130074853
0.0276036318
-0.0377812386
0.0484459326
0.0243190266
-0.0382719338
0.0711366609
0.0838349685
0.0457749739
-0.1154526100
-0.1312869340
-0.0141731407
-0.0471799523
0.0200785007
0.0307224598
-0.0535753742
0.0074660312
-0.0663964599
0.0560500212
0.0631456897
-0.0168316923
-0.0172558874
-0.0101684807
0.0712104738
-0.0571740307
-0.0636196882
0.0430630147
0.1220267043
-0.0069185547
0.0288576465
0.0082253041
-0.0294939950
0.0731105953
0.0229477603
0.0880445093
0.0599620603
0.0568092577
0.1581312716
0.0436323620
0.0291803442
-0.0501878001
-0.0690189824
0.0575834811
0.0210125595
0.0311603583
0.0745611563
0.0491860472
-0.0728854537
0.0139979422
0.0581359416
0.1042886823
-0.0195318926
-0.0243650675
0.0341794007
0.0727393851
0.0347498655
0.0824265406
0.0603830107
0.0317138322
0.1228566766
0.0663450882
0.0578729510
0.1625189781
0.0352522209
0.0672724098
-0.0436785482
0.0006950505
0.0068328902
0.0344218425
-0.0393706262
-0.0493989661
-0.1147404090
-0.0725361258
0.0785331726
0.0482282899
0.0394796096
0.0013762793
-0.0259242784
0.0508745424
0.0215142537
-0.0622535646
-0.0114381788
0.0033279939
-0.1373240054
-0.0186176375
0.0297924113
-0.0250472203
-0.2693781257
-0.1021609902
0.0525676720
-0.0008315453
0.0881532729
0.1187458262
0.0285046715
-0.0402246304
-0.0456199050
0.0835907683
0.0869446099
-0.0051789922
-0.0613473728
-0.0371818319
0.0138741368
-0.0041865995
-0.0214890633
0.0512768328
0.1038621068
0.0970903784
0.1536068767
-0.0364376940
-0.0030584573
0.0524664074
0.1040940732
0.1173790842
-0.0223909840
0.0284365825
-0.0079474412
-0.0034697321
-0.0083049899
0.0054667685
0.0995562002
0.0237193853
-0.0470205061
-0.0297051854
0.0623160228
0.0582362041
-0.0017609862
-0.0604238249
-0.0450470820
0.0462783650
0.0001080925
0.0184485000
0.0139803989
0.1006492972
0.0648263842
0.0215543248
0.0897045657
-0.0187301598
0.1011940464
-0.0391279384
0.0675618798
0.0370029360
-0.0198587552
0.0192639902
0.1105383262
0.0510242358
0.0969621390
-0.0844227597
0.0263533145
0.0979852676
0.0595405400
0.0417449959
0.0752846599
-0.0097632166
0.0494190492
-0.0939777568
-0.0090471283
0.0266336109
-0.0220647287
-0.0404011160
-0.0195295401
-0.0987769663
-0.0960427374
-0.0434937514
-0.0567066111
0.0700630099
-0.1250696033
0.0505592339
-0.0023774940
-0.0556884259
-0.0939500481
-0.0048790807
-0.0127929812
0.0145022189
-0.0679237098
-0.0085261390
-0.0285845641
-0.1251995414
-0.0338059403
0.0362341776
0.0521638505
0.0076695043
-0.0005193492
-0.0927463248
0.0335616060
-0.0524071306
-0.0341997929
-0.0200788118
-0.0021134196
0.1246146634
0.0704414919
0.1245011091
0.0574122369
0.1020243168
0.0018970976
0.0498177335
-0.0183005109
0.0416897424
0.1275439858
0.0220100116
0.1240582764
0.0461173989
-0.0275552608
-0.0043826322
-0.0256611723
-0.0157515258
-0.0142209763
-0.0501774214
-0.0734619796
0.0565587953
0.0124455700
0.0190545935
0.0594424531
0.0550156720
0.1108310297
0.0443738960
0.0129876705
0.0190092977
0.1424575895
0.0666399300
0.0954549313
0.0318805873
-0.0106354002
0.0071003609
0.1280861050
0.0182147156
0.0618755743
0.0079050539
-0.0043140319
0.0678714365
0.0555730574
-0.0521403663
-0.0621410571
0.0502231605
-0.0684759021
-0.0358525254
-0.0320470296
0.0298046563
0.0480363630
-0.0855663642
-0.0087500578
-0.0810064599
0.0447189473
0.0541795567
-0.0015695705
-0.0239669513
0.0062815300
0.0172933098
-0.0106679155
0.0198681746
-0.0363028906
-0.0279699229
-0.0208531786
0.0631721839
-0.0235747267
-0.0416417792
-0.0289395824
-0.0398559496
-0.0859838277
-0.0925125033
-0.0294692609
-0.0315574892
0.0126004731
-0.0455128103
0.0229356531
-0.0477206819
0.0316310003
0.0564618893
-0.0624539107
-0.0599725693
-0.0510227904
0.0103825089
0.0311269294
-0.0358700193
-0.0158714969
0.0041832658
0.0528106578
-0.0447337814
-0.0588651635
-0.0074535049
0.0470457673
0.0261880998
0.0425643884
0.0588149652
0.0635020509
0.0534352697
0.0351882577
0.0001703836
-0.0418414250
0.0910974145
0.0929708555
-0.0741828531
-0.0511317067
-0.0560105108
0.0546831861
0.1110062674
-0.0372388437
-0.0936020389
0.0167798307
0.0094183469
0.1082570776
0.0161723364
-0.0077359919
0.0041692769
-0.0136370566
0.0119660301
-0.1228621453
-0.0766516179
0.0654865801
-0.0299027190
-0.1409108341
-0.0170985684
-0.0100277886
0.1522778571
-0.0084961457
-0.0063783587
0.0338036604
0.0611107685
-0.0511277989
0.0101792933
-0.0804209188
-0.0833841041
0.0629627407
0.0419302732
-0.0041696173
-0.0353477411
0.0170761626
-0.0578691028
0.0075599221
-0.0042556622
-0.0062881359
0.0089664264
-0.0637853667
-0.0608784594
0.1021221727
-0.0184498113
0.0384809412
-0.0269548409
-0.0792553574
0.0047199628
0.0396903977
0.0458735414
0.1197493151
0.0639581382
0.0248862263
-0.0260909386
-0.0212635081
0.0031225902
-0.0192637034
0.0446492806
-0.0496858358
0.1093905494
0.0373115055
-0.0317839198
0.0163870864
-0.0735104382
-0.0857634395
0.0217950195
-0.0667949766
-0.0076303701
-0.0141912131
0.0063576996
-0.0697798878
0.1314238906
0.0826635212
0.1036627963
0.0413063541
-0.0245797001
0.0322497748
0.0897242352
-0.0012063576
-0.1454125643
0.0319727026
-0.0753306150
-0.0299428869
0.0495338552
-0.0294872615
0.0256120320
0.0755180493
0.0305435732
-0.0433705859
-0.0051641841
0.0196019486
0.0417314172
-0.0676035285
0.0459678620
0.0468879119
0.0501265414
0.0054005426
-0.1265231073
-0.1182680875
-0.0358849131
-0.0653200671
-0.0263923183
-0.0480013303
-0.1014743596
-0.0269198865
0.0063218451
-0.0568163134
-0.0701901168
-0.0723009929
-0.0630225614
0.0247272439
0.0279928502
-0.0175598096
-0.1122086793
-0.0693314597
-0.1009998024
-0.0797659829
-0.0770421326
-0.1033705547
-0.0725750774
-0.0313478224
0.0252580028
-0.1234494373
-0.0430452600
-0.0511771291
0.0182257723
0.0227815453
-0.0536283292
-0.0997182056
0.0022226484
0.0541824438
-0.0075927000
-0.0392362848
-0.0593335964
-0.0178125203
0.0127236899
0.0436092280
0.0436337404
0.0618599989
0.0459231250
0.0159598999
0.0599753484
0.0469763391
0.0539625809
-0.0017413436
-0.0077719614
-0.0347158425
0.0343174562
-0.0122800646
-0.0671369508
-0.0701120794
-0.0180741772
0.0660254732
0.0475455634
0.0148127973
0.0360414796
0.0176737029
0.0500130057
0.0406005532
0.0140463347
0.0462591648
0.0240319334
0.0941324160
0.0373821221
0.0329325646
0.0541732870
0.0470824242
-0.0574315451
0.0236869063
0.0674397871
0.1064923853
0.1335772425
0.0156668089
0.0296690967
-0.0931214914
0.0868566483
0.0036882358
0.0948819295
0.0769689977
0.0811156109
0.0747831687
0.0178531818
0.0441553779
0.0742884651
-0.0033646349
0.0088871857
0.0426061191
-0.0602505729
-0.0278110579
0.0404529609
-0.0085245445
0.0098647177
-0.0804102495
0.0015154043
0.0599007532
-0.0515299328
-0.0506190360
-0.0860357285
-0.0253350642
0.0062843426
0.0469219796
-0.1569740027
-0.0742524713
-0.1374680549
-0.0535117760
-0.0987017974
0.0393440090
-0.0884193107
-0.0597605482
-0.0136577385
-0.0284435581
0.0668553934
-0.0082834819
-0.0673630461
0.0008052144
0.0491179414
0.0844056010
-0.0325740799
-0.0528210588
0.0577698797
0.0855488852
0.0629226491
-0.0468476042
0.0224071499
-0.0698564649
-0.0064345635
0.0312842019
-0.0394769199
0.0081727970
-0.0415176563
0.1483095884
0.0000139967
-0.0410053134
0.0500081182
0.0788954794
0.0747062340
0.0202215649
-0.0229370985
-0.0133687127
-0.0525345914
-0.0011479050
0.0760563314
0.0757253990
0.0557000004
-0.0106203053
-0.0238424353
-0.0374177620
0.0815138742
0.0351429731
-0.0586670190
-0.0849752575
-0.0212720316
-0.0410002023
0.0704851747
0.0122813648
-0.0506934784
0.0214509089
-0.0951875821
-0.1220958531
-0.1184237823
-0.1073986888
0.0015325632
-0.0610591434
-0.0506757163
-0.0250349063
0.0129942950
-0.0295617841
0.0221615508
0.0324226655
0.0445337929
0.0527319610
-0.0554070733
-0.0320009440
0.0520363860
0.0009291085
0.0416845307
0.0578791536
-0.0352827795
0.0480908938
0.0119294198
0.0826065168
-0.0480030626
-0.0650152043
-0.0506183989
-0.1059342995
-0.0244537275
-0.0084207589
-0.0691098049
-0.0241068844
0.0536988080
0.0138085298
-0.0153957941
0.0375195071
0.1239396185
-0.0044615045
0.0430568904
0.1055888832
0.1162607893
0.1328128576
-0.0058639087
0.0477124490
0.0848920867
-0.0014981910
0.0470331870
-0.1272186637
-0.1084036008
-0.0297725387
-0.1627094448
-0.0979995355
-0.2173239738
-0.0608265847
0.0305772107
-0.0696320087
0.0217880215
-0.0216911118
0.0267118569
-0.0203575082
-0.0101935174
0.1286788583
0.1673758179
0.0812199488
0.0457914062
0.0737180561
0.1203454807
0.1536554098
0.0038674213
0.0531649441
0.1596717834
0.1309637278
0.0428842977
-0.1112689599
-0.0954567790
-0.0875046700
0.0395422578
-0.0623694174
-0.0777620301
-0.0348283276
0.0425284505
0.0364463739
-0.0049370788
-0.0281599741
-0.0072854799
-0.1042195037
-0.1357733607
-0.1170149446
-0.0719046593
-0.0544751547
-0.0505939536
-0.0780884176
-0.0682395771
-0.0262476876
-0.0516330823
0.0049844608
-0.0508355945
-0.0418775529
-0.0304878224
0.0095151253
-0.0035398006
0.0395603925
0.0494967625
0.0138717582
0.0777273253
-0.0252899099
0.0124017000
-0.0010616333
-0.0275676940
-0.0417490937
0.0954802707
0.0838091150
0.0561791621
0.0969539210
0.0226438213
0.0817137212
0.0758111775
-0.0047249193
0.0483336858
0.0637183562
0.0422504134
0.0173093528
-0.0131046642
0.1414455026
0.0210808143
-0.1063472778
-0.1013498381
-0.0661847666
-0.0165378395
0.0141031193
0.0738772750
0.0659996346
-0.0068504070
-0.0497171059
-0.0191393867
0.0052519063
-0.0515530966
0.0488948263
-0.0670443252
-0.0365623049
0.0036800862
0.0638965815
0.0495036915
-0.0701120421
-0.1158017516
0.0511469059
0.0923014283
-0.0234168768
-0.0022794316
0.0173116028
0.0682364777
0.0775291547
0.0093546631
-0.0200091209
0.0001344620
0.0256517809
0.0238006432
0.0542007834
0.0317277275
-0.0706815124
0.0517582372
0.1293711066
0.0964048877
0.0562062450
0.0082270158
0.0283997022
0.0052131484
0.0252517741
-0.0234942101
-0.0750375614
-0.0599922873
-0.0742046833
-0.0060842736
-0.0822299197
-0.0551012158
-0.0253233146
-0.0051320652
-0.1201461852
0.0008226704
0.0502183177
-0.0289752465
-0.0575199686
0.0514102168
0.1228991598
0.0413657315
0.0726758912
0.0640357360
0.1214769110
0.0776820853
0.0512457006
0.0472123586
0.0274135694
-0.0197807234
0.0434988551
0.0833151788
-0.0554252826
-0.0323148817
-0.0488325767
0.0010773018
0.0270653162
0.0794190243
-0.0095395688
-0.0605853163
-0.0490960889
-0.0438333079
-0.0301481765
0.1211362481
0.0757519752
0.0757393986
0.0660265237
-0.0312143676
0.0997352898
0.1070860699
-0.0581287369
0.0566879585
0.0232304391
-0.0291099995
-0.0336829238
-0.0532564968
-0.0265337639
-0.0540357269
-0.0120015014
0.0313599147
-0.0224040542
0.0148975169
-0.0579976626
0.0613764860
0.0312541276
0.0610645898
0.0360426232
0.0766464621
-0.0479513332
-0.0637472868
-0.0051886537
0.0550536402
-0.0423565619
-0.0572664216
-0.0932092741
-0.0524679124
-0.1518032998
-0.0922052711
-0.0340024754
-0.0061045461
-0.0214120224
-0.0097347964
-0.0018023615
-0.0770485699
0.0689705983
0.1021760702
0.0091003301
0.1568365097
0.0802122056
0.0802367106
0.0097523844
-0.1183978170
-0.0085873185
-0.0061949068
-0.0603443049
-0.0328975804
0.0107719181
0.0305770505
0.0036446245
-0.0387439206
0.0252853371
-0.0182441827
0.0158062186
-0.0173565913
0.0223462842
-0.0012884811
0.1026497260
-0.0781766549
-0.0885761902
0.0225276612
-0.0429219566
0.0252119321
-0.0369456634
-0.0364468656
0.0885223150
0.0512282550
-0.0146071659
-0.0104289120
-0.0365792923
-0.0751652420
-0.1229879633
-0.1174616218
-0.0024341182
-0.0012656944
-0.0911403820
-0.0526138395
0.0362367034
0.0316335298
-0.0124898246
0.0060163373
-0.0298067499
-0.0118634263
0.0323456861
0.0454919823
0.0049275332
-0.0694945529
0.0584326647
0.0511529557
0.0356407948
-0.0330369622
0.0276489258
0.0094661517
-0.0572929569
-0.0393612199
-0.0326311290
-0.0564135946
-0.0203380361
-0.0494164266
-0.0236821081
-0.0739085898
-0.0566127487
-0.0443529226
-0.0289989635
0.0486308038
-0.0135618187
-0.0488838293
-0.0261064414
0.0623819046
0.0570686683
0.0035407392
-0.0363693945
-0.0385221243
-0.0568765812
-0.0354420207
-0.0272645727
0.0075056632
0.0761216953
0.0600697249
0.0844283402
0.0669884682
0.0733603165
0.0470897332
0.0676822364
0.0572090372
-0.0204324909
0.0666006505
0.0160900801
-0.1099776775
-0.0676759332
-0.0391099863
0.0597427599
-0.0957339406
-0.1413400471
0.0787338614
-0.0249984134
-0.0122956028
0.0965857729
0.0188156869
0.0542078651
0.0389085375
0.1203369796
0.1465048492
-0.0608285181
-0.1154171377
-0.1156034991
-0.1494916379
-0.0873914585
-0.0813625380
-0.0565664843
-0.1045445576
-0.0746145099
-0.0527436733
-0.0216612257
-0.0238880068
-0.0652800202
-0.0941813141
-0.0601827241
-0.0506836288
-0.0798865855
-0.0820985138
-0.0718897060
0.0252920259
-0.0929762572
-0.0205272716
-0.1587628275
-0.0511983633
0.0110763684
0.0084341541
-0.0079980455
-0.0486522466
0.0247845855
0.0610359348
-0.0093042692
0.0643161386
-0.0633510351
0.0136191007
0.0076269256
-0.0781308338
-0.0687223598
-0.0618095808
0.0039782911
-0.0154709481
-0.1473085284
-0.0717900246
-0.0840359703
-0.0294867866
-0.0532223471
-0.1544042677
0.0712454766
0.0463511944
0.0520345196
-0.0129143037
0.0421307012
0.0622972101
0.0489725135
-0.0058452198
0.0426988751
0.0379706509
0.0518053845
0.0092053851
0.0292809885
0.0325166658
0.0410636105
-0.0142085189
0.0534145646
-0.0019793408
-0.0704157203
0.0523086190
-0.0694874525
-0.0691722259
0.0217262208
0.0389091969
0.0744616017
-0.0123697417
0.0671747997
0.1504602581
0.0550093874
0.0205172077
0.0385866091
-0.0294540673
0.0556160510
0.0996950939
-0.0248735268
0.0588232949
0.0364185534
-0.0150168901
-0.0016418474
-0.1236072481
0.0033767680
-0.0254090969
-0.0351399854
-0.1243719086
-0.1615214497
-0.0925871953
-0.0738451555
-0.0933336169
-0.0087882383
-0.0182546843
-0.0419125296
-0.0718180984
0.0057352064
-0.0423189476
0.0296918228
0.0356538706
0.0138121936
0.0164187271
0.0281161498
-0.0235805623
-0.0099027473
-0.0773603469
-0.0739595443
0.0884556845
-0.0254746471
0.1065388545
0.0062454394
-0.0111243930
0.0061440305
-0.1705326140
-0.0047355695
0.0438206829
-0.0980190411
-0.0252360962
-0.0946296677
-0.0408522896
-0.0946170539
-0.0683942959
0.0396246575
-0.0748751462
0.0082165925
0.0253896341
0.0078429105
-0.0440547019
0.0418457687
0.0023089044
0.0078768302
-0.0074955840
0.0330014303
0.0547283255
0.0379677899
0.0054118834
-0.0254106931
-0.0262722019
0.0310979467
0.0532453842
0.0271755923
-0.0165040717
0.0067694634
0.0078380369
0.0211560801
-0.0247348566
-0.1126270443
-0.0951856151
0.0033657157
0.0259150844
0.0686241984
0.0270849671
0.0392597690
-0.0365318842
0.0572831705
0.0340317562
-0.0432759747
-0.0128180822
0.0030456504
0.1219157800
0.0437495597
-0.0101190722
-0.0754342079
-0.0619443916
-0.0638540238
-0.1190894321
0.0339122042
-0.0213976763
0.0122555457
0.0037517350
-0.0910710022
0.0534785017
0.0188476350
0.0071476027
-0.0071924878
-0.0711133108
-0.0341123492
0.0197981298
0.0221322067
0.0400184914
-0.0471489355
-0.0042214054
0.0655607730
0.0121125877
0.0393113717
0.0645305961
0.0136007881
0.0509072319
-0.0080714291
-0.0615418032
-0.0505104400
0.0032108696
-0.0618309453
-0.0688954070
-0.1467672884
-0.0536424704
-0.0539074875
-0.0339343920
-0.0207868591
0.0078755617
0.0371721387
0.0555861965
-0.1071905717
-0.0252409931
-0.0305545721
0.0206556208
0.0133503219
-0.1705144942
-0.0609730743
0.0207921844
0.0107203089
-0.0121563682
-0.0876209736
-0.0828619078
0.0457633547
0.0004578547
-0.0030111719
0.0330522619
0.0670602024
0.0025208115
-0.0057787159
0.0460487865
0.0168737024
-0.0230543315
0.0560571365
0.0258417074
0.0458194725
0.0370315015
-0.0415987298
-0.0005215030
-0.0105867051
0.0739196688
-0.0133350762
-0.1110683754
-0.0571850240
0.0095657408
-0.0088250246
-0.0772202164
-0.0068744179
0.0011465405
-0.0325820558
-0.0823236778
0.0856951177
0.0141334264
-0.0618850999
-0.0635889694
0.0229804404
0.1679983437
0.0154195512
-0.0147513235
-0.0292057265
0.0206176154
0.0127592739
0.0289056860
0.0348545723
0.0161989201
-0.0172568522
-0.0233381670
-0.0876774341
-0.0563827567
-0.0072111771
0.0286813155
-0.0024152526
-0.0837385952
-0.0526429564
-0.0261442177
-0.0333485603
0.0110742273
0.0389769450
0.0211041886
0.0031795250
-0.0024672484
0.0260179117
-0.0272676740
0.0215843972
0.0169024970
-0.0432852954
-0.0307887644
-0.0618399978
-0.0430440530
-0.0370027646
0.0124557838
0.0352903530
0.0848546624
0.0207229946
-0.0413781442
-0.0353162102
0.1131340638
0.1466829777
0.1852246374
0.0943525359
0.0407729223
0.0909842551
-0.0055073593
0.0496484265
0.0571937002
-0.0265897773
0.0834598914
-0.0243919361
0.0097836442
0.1134716794
0.0800020546
0.0617323071
0.0112025160
-0.0020231225
0.0574151017
0.0193023905
-0.0079610795
0.0510004796
-0.0126958946
0.0110683236
-0.0988426059
-0.1063171551
-0.0030250284
0.0223923791
0.0352874175
-0.0139546301
-0.0166111477
0.0433361009
0.1022153199
0.1121794209
0.0130013796
0.0635466874
0.0513363779
0.0282559525
-0.0156309530
0.0023293567
-0.0125809470
0.1163594201
0.0423102938
-0.0390066989
0.0206604507
0.0376201756
0.0032220976
-0.0189463291
0.0351465866
0.0069070235
0.0194535162
-0.0596790314
0.0181523934
0.0386830233
0.0264814626
-0.0554724820
-0.0695007890
-0.0047512455
-0.0121793887
0.0192808900
-0.1175659373
0.0514511093
0.0363889560
-0.0175613165
-0.0470582396
0.0341851078
0.0850990266
-0.0406044424
-0.0097090025
0.0285196546
0.0765608177
0.0744258538
0.0658092946
0.0506450944
-0.0734231398
-0.0722317845
0.0013713808
-0.0346859246
-0.0063513499
-0.0229828972
-0.0411208309
-0.0889491811
-0.1012129784
-0.0551140606
-0.0952259377
-0.1415918916
-0.0622533076
-0.0671882704
0.0029408985
0.0068706502
0.1225322261
-0.0913774520
0.0646349564
0.0740082636
0.0004204550
-0.0005822985
-0.0639271364
0.0141545385
0.0138024986
-0.0593304709
0.0179181490
-0.0011514579
0.0564451739
0.0272715166
0.0615914688
-0.0450487696
0.0988649800
0.0246210266
0.0356857628
0.0572195426
-0.0409883261
0.0160345677
0.0143663194
-0.0340384953
0.0253303610
0.0748698339
0.0783732384
0.0794940293
-0.0254066475
0.0180419032
0.0071316403
0.0436162315
0.0433375649
0.0576758273
0.0470013842
0.0431785733
0.0942544937
0.0065522976
0.0963106677
-0.0399768464
-0.0113386866
0.0000384809
-0.0486296229
0.0691032484
-0.0882648230
-0.0923594683
0.0746682659
0.0415873863
0.0326712579
-0.0352251790
0.0856061578
0.1167527959
0.1095743477
0.0906581953
-0.0257298779
-0.0150838401
-0.0516766645
-0.0434494019
0.0210008938
0.0064337263
-0.0158658326
0.0151394196
-0.0746031329
0.0043830499
0.0040989914
-0.0380348675
0.1055515707
0.1145688817
0.1017969698
0.0424626879
0.0280860681
0.0353920683
0.0285835396
0.0504683331
-0.0156762470
0.1364005059
0.0258054081
0.0531049222
-0.0321440659
-0.0640230998
0.0164844934
-0.1189552918
-0.0611616559
-0.0879008546
0.0182154495
-0.0767103806
0.0188294109
0.0104810540
0.0170191675
-0.0713722333
-0.0225390512
-0.0562512986
-0.0346729308
0.0539916046
0.1600212902
0.0318456441
0.0273148902
0.1518386006
0.0203758646
0.0264072549
0.2035282105
0.0974860787
0.0068564867
0.0618899763
0.0322614573
0.0820289552
-0.0047690561
-0.0565730445
0.0637647286
0.0186371300
-0.0263972599
-0.0541326404
-0.0837016851
0.0582195520
0.0039851321
-0.0383657292
0.0268341023
0.0591497235
0.0391294993
0.0640795752
0.0029926589
0.0536926575
0.0296571106
0.0791930482
0.1259056479
0.1237045750
0.1047911346
0.0611195117
0.0108426902
0.0796394870
0.0278230887
0.0717410967
-0.0148499329
-0.1552757621
0.0151739223
-0.0182501078
-0.0307618324
-0.0212972555
-0.0379203930
0.0224088579
0.0304592159
-0.0598350242
-0.0669806004
-0.1478391886
-0.0991900265
-0.0221710987
-0.0625282302
-0.0541557036
-0.0627701059
0.0236603078
-0.0034869146
0.0019976557
-0.0045571658
-0.0670434311
0.1555981040
0.0305500496
0.0544149131
-0.0071032522
-0.0194421168
0.0741287842
0.0161388461
0.0721210092
0.0190338455
-0.1033749059
-0.0027328604
-0.0206823070
-0.0004308453
-0.0236310046
-0.0453723185
-0.0448019505
-0.0628381819
0.0868341103
0.0771038905
0.0208188519
0.0629153252
0.0767024159
0.0350977257
-0.0224541593
0.0353426300
-0.0892261043
-0.0953659043
-0.0448958240
-0.0875160396
0.0356594212
-0.0980109945
-0.1197583079
-0.0394046344
0.0387114696
0.1069044322
-0.0050490792
0.0129023707
0.0360238403
-0.0066349581
-0.0683216602
0.0390527844
0.0670094565
0.0421439968
-0.0093163354
0.0210909061
-0.0325979143
0.0029056896
0.0788820162
0.0619429164
0.0291813370
0.0492961071
0.0131747341
0.0876284093
0.1385760158
-0.0166791193
-0.0111685088
0.0774943382
0.0248546526
0.0249331724
-0.0271002986
-0.0062818411
0.0468692854
-0.1136967987
-0.0285698008
-0.0483672768
-0.0159239490
-0.0524832904
0.0154660093
-0.0040228674
-0.0220385082
0.1227078959
0.0275454726
-0.0055295350
-0.0834571347
-0.1414004266
-0.0015305515
-0.0432757400
-0.0890123844
-0.0152047966
-0.0436999053
0.0025734361
-0.0736723170
-0.0474022552
-0.0049212934
-0.0235492270
-0.0129143326
-0.0090485550
0.0357274674
0.0191621035
0.0091833547
0.0777693242
0.0786254331
0.0112549672
0.0362013131
-0.0021666896
-0.0016009739
0.0432983376
-0.0282567050
-0.0356592685
-0.0742665976
-0.0508115776
-0.0696391538
-0.0600555465
-0.0511066690
0.0289908610
0.0390524790
-0.0884260014
-0.0269605275
-0.0620617233
0.0608453639
0.0159139112
0.0692379102
0.0404583365
-0.0495657548
-0.0477892086
0.0875607505
0.1507691294
0.0020505341
-0.0851675794
-0.0326861292
-0.0729967803
-0.0607525147
0.0565583557
-0.0179976281
-0.1167149842
0.0088192979
-0.0364527404
0.0317318998
-0.0021055732
-0.0123431291
0.0520571060
-0.0124209393
0.0178103354
0.0382962972
-0.1299744844
0.0351151414
0.0601591691
0.0889133960
0.1003330797
0.0108962245
0.0481331833
-0.0015740418
-0.0544480160
-0.0902960449
-0.0655782446
-0.0207393393
-0.1375255138
-0.1047915518
-0.0782232508
0.0145971701
0.0336307772
-0.0020087017
-0.0187655352
-0.0322366655
0.0441018082
-0.0463526025
0.0370492972
0.0461270586
0.0309457909
-0.0324921608
0.0253568795
-0.0025967760
-0.0573163256
-0.0052836728
-0.0842073113
0.0348491259
-0.0210019555
-0.0058123781
-0.0179167222
0.0472703949
-0.0204882398
-0.0673490763
-0.0699627101
-0.0452897847
-0.0002548995
0.0328247771
-0.0627982244
-0.0724052861
-0.0617745221
0.0129727973
-0.0156729426
-0.0829944834
0.0155099798
0.0653420165
0.0881350636
-0.0420704670
-0.0379458405
0.0896934941
0.0906109363
0.1431892067
0.0090159941
0.0143656880
-0.0366101637
0.0246503223
0.0236049183
0.0514006764
0.1137774959
0.0452244133
0.0762086660
0.0585929230
0.0536816567
0.0694029853
0.0801126063
0.0195361711
-0.0792850330
-0.0358364433
-0.0283414163
-0.0608674586
-0.0170992501
-0.0228212290
-0.0231498424
-0.0234962124
-0.0959478319
0.0582052842
-0.0114791673
-0.0180573408
0.0362441987
0.0390668735
0.0183748119
0.0448442213
0.0746009946
0.0598452352
-0.0029670203
0.0476382785
-0.0319525376
0.0867563710
0.0203428455
0.0282670278
-0.0155237736
-0.0560557693
0.0147138126
-0.0589841083
0.0465785190
-0.0369137861
-0.0211443901
-0.0374327712
-0.0266221035
-0.0305686984
-0.0176855139
0.0119829290
-0.0313814357
-0.0801870078
-0.0171105247
-0.0274254046
-0.0832051933
0.0177111067
-0.1058175713
-0.0759323984
-0.0225515012
-0.0129205119
-0.0423564650
-0.0081010601
-0.0476936288
-0.0326604396
0.1108781397
0.0152454553
0.0522239916
0.0514825806
-0.0515012182
-0.0271736737
0.0215414483
-0.0080525409
0.0722652525
0.0374494791
0.0899692103
-0.0723823979
-0.0283024069
0.1011212245
0.0288163293
0.0637898594
0.0971526578
0.1161006689
-0.0229831766
-0.0502353907
-0.0701852366
-0.0031352288
-0.0002586510
-0.0759987161
-0.0307730269
-0.0762591213
-0.0620888509
-0.0297775753
-0.0456831045
0.0315469764
-0.0276941024
-0.0108475853
0.0085287252
-0.0083393883
0.0185849126
-0.0165905226
-0.0306622554
-0.0241611917
0.0210486464
-0.0135426903
-0.1359869540
-0.0007498895
-0.0524062216
-0.1011107042
-0.0819742009
-0.0845536068
-0.0292302240
0.0000191524
-0.0634531230
0.0387081802
-0.0602389127
-0.0642937496
0.0274542496
-0.0229376163
-0.0305573568
-0.0124025010
-0.0022606952
-0.0462267548
0.0070238966
-0.0460355990
-0.0935012624
-0.0123851188
-0.0147349192
0.0088297036
-0.1074895561
-0.0060804868
0.0378615968
0.0231197625
0.0441424176
-0.0280044135
0.0735690966
0.0413920768
-0.0436578058
0.0101863891
0.0040680580
-0.0149040427
-0.0686337426
-0.0038379119
0.0592453815
-0.0326401703
-0.0000888880
0.0849468186
0.0418034606
0.0371552408
0.1142270193
0.1387726218
0.0339275524
0.1103289351
-0.0025083218
-0.0398254097
-0.0970302746
-0.0065883207
-0.0220835805
-0.0278851483
-0.0476939715
0.0808403343
0.0347357355
0.0314166173
-0.0798970461
0.0894001573
-0.0050628362
-0.0976725295
-0.0639960095
-0.0312214252
0.0151702687
-0.0423577540
0.0549628697
0.0358879641
0.0603835657
0.0389119983
0.0570028313
0.0720301419
0.0202400349
0.0324888341
-0.0212269071
-0.0389868282
-0.0434186906
-0.0008294117
-0.1091037393
-0.0507554077
0.0519299358
-0.0216624606
-0.0533863120
-0.1317064613
0.0246288814
0.0022026207
-0.0614710636
-0.1236439273
-0.1053704545
-0.0842741281
-0.0580609180
-0.0669741035
0.0139361648
-0.0412344933
0.0344527178
0.0462788828
0.0735546499
0.0776899830
-0.0693537295
0.0976796448
0.1363979429
0.1067986414
0.0556281842
-0.0556375086
-0.0564947240
0.0971172154
-0.0969031081
-0.0938795134
-0.0122438148
0.0651864782
0.0830553398
-0.0325135961
-0.0334078670
-0.0775826871
0.0201014318
0.0050449199
0.0171854403
0.0399294309
-0.0081016375
0.0182522964
0.0510247983
-0.0083172945
-0.0126036797
-0.0532388836
-0.0348549113
-0.0998862982
0.0221817084
0.0377283730
-0.0418327413
-0.0116103468
-0.0241837781
0.0997533500
-0.0337448940
0.0124724926
0.0252442453
-0.0910717249
-0.0111958617
0.0178937800
0.0405352265
-0.0355300307
-0.0375315510
0.0453246497
0.0249649230
0.0858383253
0.1211477146
0.0381433479
0.0026554810
-0.0216012746
-0.0116860038
-0.0043102433
0.0285677314
0.0812714621
0.0099128792
0.0002901704
-0.0811332166
0.0221513677
0.0044037416
-0.0622986332
-0.0068874070
-0.0613609701
0.0677014887
0.0089931162
0.0152864112
-0.0448653363
0.0042542424
-0.0227609482
-0.0416479520
-0.0052462243
0.0081116129
-0.0688723400
0.0383751802
-0.0611929707
0.0109761031
-0.1111052483
-0.0529301204
0.0741422847
-0.0615830347
-0.0089143170
0.0253484882
0.0765148550
0.0240874141
-0.0672210082
-0.0442058854
0.0617499277
0.0697615966
-0.0597026870
0.0125062075
0.0659946054
-0.0207603369
0.0269515086
0.0796875134
0.0239236001
0.0079204524
-0.0412676707
-0.0543110333
0.0164271016
-0.0348623618
-0.0420444794
-0.0066855638
-0.0848190337
-0.1445029378
-0.0407225378
0.0322656371
-0.0288137924
0.0271216519
-0.0635689273
0.0782113895
0.0371275060
0.0030319649
0.0495163612
0.0469711199
-0.0907796174
0.0017679125
-0.0000433433
0.0699625462
0.0662610680
0.0041048145
-0.0286550876
-0.1058508903
-0.0435345657
-0.0363337174
0.0060411771
-0.0249186885
0.0044705644
-0.0150530897
0.0452402532
0.0067098229
0.0640236065
-0.0358337238
0.0423270911
0.0374025553
-0.0968165174
-0.0231570657
0.0030611306
-0.0646595359
0.0139492378
-0.0109887281
0.0302157290
-0.0244119521
-0.0387153588
0.0994759724
0.0081334999
-0.0722995996
-0.1270883381
-0.0590794608
-0.0305126980
-0.0243589077
-0.0198685676
0.0168821830
0.1334838420
0.0138815707
-0.0159524381
0.0815993324
0.0298220310
0.0154632647
-0.0389318652
-0.1156467348
0.0519077517
0.0414277650
-0.0459063090
0.0472788401
0.0661078095
0.0170762930
0.0651229396
0.0706067085
0.0113867391
-0.0162829105
0.0638173521
-0.0117985653
-0.0497845262
-0.0133856153
-0.0794747844
0.0310716256
-0.0646589994
0.0256633665
0.0259117167
-0.0735204369
0.0557979010
-0.0603852496
0.1325689703
0.0409016460
-0.0346330591
0.0195428878
0.0528642051
0.0270732082
-0.0151906321
-0.0609247088
0.0348752476
0.0128791835
0.0462649427
0.0482810959
0.0066644875
0.0277239513
0.0098834019
0.0231593009
0.0251828954
0.0267986879
0.0391325317
0.0273322333
0.0133287692
0.0159097519
0.0445389412
-0.0022235957
-0.0411722362
-0.0749815404
-0.0497042872
-0.0458825938
-0.0332183763
-0.0632945448
-0.0700973794
0.0453187153
-0.0513241440
0.0451683886
0.0060286289
0.0127659459
-0.0217074715
-0.0537066124
0.0590690225
0.0156016927
-0.0341478027
0.0338832326
-0.0045763077
0.0073236255
-0.0560841337
0.0005475970
0.0496807322
-0.0356296301
-0.0346012563
0.0471461937
-0.0270307269
-0.0025032260
-0.0531647541
-0.0477024205
-0.0284145754
0.0168421399
0.0890560895
0.0295449719
0.0362603441
-0.0408224724
-0.0096680894
-0.0825833008
-0.0140716750
-0.0018822518
0.0036607184
-0.0193566363
0.0484923795
-0.0301090423
0.0130136665
-0.0838439539
0.0344355144
0.0499979518
0.0256076530
0.0979024693
0.0691196844
0.1041136682
-0.0618180707
0.1447671652
0.0519398376
-0.0075526787
-0.0342585295
-0.0072078984
0.1110208258
0.0558107868
0.0387232155
0.1055728197
0.0776601210
0.1363173425
-0.0704679787
-0.0233015940
0.0545335561
-0.0256645307
0.0065714088
0.0199951343
-0.0687895939
-0.0469279326
0.0093391482
-0.1326374114
-0.0576093234
-0.0895143449
0.0487294346
0.0484815240
-0.0866586789
-0.0114990454
-0.0234304089
-0.0296339318
-0.0301708113
0.0061840964
0.0654407963
0.0721333474
0.0338918269
0.0586963519
0.0410293750
0.0349336937
0.1102349684
0.0159520283
0.0313056782
0.0200033411
-0.0465974621
-0.0183455981
-0.0450516827
-0.0279169753
-0.0178035107
-0.0194515549
-0.0657881498
0.0000089578
-0.0362352729
-0.0554762855
-0.1457920223
0.0527031980
0.0554409623
-0.0167210661
0.0023252876
-0.0055624018
0.1126640514
-0.0057760580
0.0776722655
-0.0742023736
-0.0602923967
0.0531272106
-0.0636261627
0.0300275553
0.0244140550
0.0261316448
0.0653266162
-0.0289635193
0.0924732015
0.1106002182
0.0431474224
-0.0072621242
0.0055436823
-0.0039363327
-0.1121587828
0.1600376815
0.0228458364
0.0372331589
0.0063844938
-0.0639804676
0.0278968439
-0.0155326603
0.0405146405
0.0220091213
-0.0069586155
-0.0139662893
-0.0079992563
0.0600433908
-0.0568029247
-0.0351141840
-0.1272024512
0.0177503601
-0.0011637947
-0.0836112425
-0.0093968175
0.0513729490
-0.0252699312
-0.0587916449
-0.0798537806
-0.1773939282
-0.0158780627
0.0071744183
-0.0435744412
0.0807801113
0.0053019854
-0.0472115017
-0.0005006466
0.0652158111
-0.0249386765
-0.0089369724
-0.0839372948
-0.0052030850
0.0374583825
0.0030867872
-0.0647726133
-0.0505054854
-0.0961412862
-0.1001024768
-0.0878758878
-0.0212690867
0.0278561898
0.0264016408
-0.0260259509
-0.1189824119
-0.1282372773
0.0256144684
0.0423566848
0.0540884063
0.0264449809
-0.0562123097
-0.0140643204
0.1319269091
-0.0046446663
-0.0486664549
-0.0638045892
-0.1070176214
-0.0079020504
0.0149471797
-0.0162887387
-0.1049496308
-0.1427484155
0.0029366422
-0.0283274632
-0.0455494337
0.0353048332
0.0594506264
-0.0106261820
0.0085165538
0.0344481803
0.1017161235
0.0160773993
0.0167559627
0.0308969095
0.0670675337
-0.0056513641
0.0917825624
0.0500309654
-0.0980489552
-0.0488886386
-0.0122183794
-0.0032065366
-0.0034641731
-0.0394426025
-0.0097999694
-0.0887103900
0.0339345038
0.0408653393
-0.0487535372
0.0420863889
0.0274319127
0.0235438570
0.0308142658
0.0295201205
-0.0840262100
-0.1345851272
0.0462575890
-0.0220308863
-0.0673788860
-0.0015569214
0.0288003460
-0.0473944135
-0.0001106606
0.0627398863
-0.0228920188
-0.0672915280
-0.0563428514
-0.0207082238
0.0324093848
-0.0117303468
0.0018494866
-0.0257254690
-0.0154953906
0.0173034742
-0.1466770768
-0.0941943154
0.0472472608
0.0519134998
-0.0420005806
-0.1372317672
0.0258537792
-0.0472853594
0.0466023088
-0.0511703603
-0.0061939810
0.0020533372
-0.0231021661
0.0334552750
-0.0499188304
-0.0320533887
-0.0499286056
0.0268545821
0.0372625776
0.0272055473
0.0563088506
0.0302525219
-0.0512792282
-0.0544025339
-0.0527842343
-0.0274048280
0.0219597798
0.1094214618
-0.0885527804
-0.0537217222
-0.1325235814
-0.0404589251
0.1013891697
-0.0030394702
-0.0802925080
-0.0478388369
-0.0275761001
-0.0772319734
-0.0055769053
0.0378284752
-0.0156473611
0.0036252518
-0.1448076814
-0.0643028989
0.0891233087
0.0344544388
-0.0209142603
0.1038905382
0.0061112181
-0.0419416130
-0.0986463279
-0.0862643942
-0.0001227379
-0.0385969356
0.0458149873
-0.0381920934
-0.1650409549
-0.1192467883
-0.0457307100
-0.0238394048
-0.0791594535
-0.0201050378
-0.0101459371
-0.0231689047
-0.0172475055
0.0984612703
0.0333064459
-0.0024528941
0.0878021196
0.0463226922
0.0118060661
0.0271069873
-0.0178109650
-0.0068010446
-0.0362747423
-0.0159288608
-0.0567641892
-0.1496801525
-0.0749196187
-0.0059154974
0.0100368522
-0.0091384882
-0.0248394366
0.0313159451
-0.0264155697
-0.0306734908
-0.0113358144
-0.0553989485
0.0361220352
0.0365661681
-0.0089525599
-0.0303820800
-0.0297804438
0.0032889084
0.0542234443
0.0338422582
0.0267519224
0.0571105927
0.0382893272
-0.0002385066
0.0231677294
0.0679612979
-0.0654630810
0.0332182385
-0.0049722409
0.0975493267
0.2238898724
0.0084003936
-0.0631526932
0.0273382328
0.0392885953
0.0247952342
0.0619979687
0.0019449112
-0.0173862483
-0.0232198145
0.0726218298
0.1343970746
-0.0120219877
0.0158102848
-0.0099188071
0.0248174518
-0.0010964168
-0.0304187220
0.0419432744
0.0383625403
0.0542109348
-0.0951139033
-0.0404873155
0.0405928753
0.0512644686
0.0258224122
0.0020634127
-0.0584605858
0.0363432318
0.0619944595
0.0638633817
0.0890819579
0.0636855885
0.0375854000
0.0742338598
0.0625956580
0.0619993545
-0.0307543948
-0.0077181612
-0.0403897762
-0.0425721817
0.0528037660
0.0626149178
0.0094700772
0.0847441554
0.1143860593
0.0713514537
0.0267612971
-0.0797789618
0.0315859728
0.0262591206
0.0303159989
0.0118188132
-0.0433581397
-0.0758163258
-0.0408777185
0.0679676905
-0.0147008905
-0.0618839934
-0.0830716789
-0.0143910013
-0.0093716690
0.0598972179
0.0090694660
-0.0001965049
0.0132679269
-0.0573610738
-0.0008579451
-0.0234020911
0.0426181220
0.0457146801
0.0425871462
0.0310872197
-0.0301025193
0.0448510349
0.0372769125
0.1185208037
0.0249297973
-0.0046020183
-0.0056822808
0.0474428758
0.0656178445
0.0104037207
-0.0023673645
0.0294989496
-0.0349895060
-0.0576019138
-0.0032198320
0.0386950858
0.0606800131
-0.1188673601
-0.0281250924
0.0427821539
0.1615767628
0.0328121223
-0.0922735855
-0.0759576783
0.0719111711
0.0124132251
0.0236785095
0.0257596187
-0.1161596701
0.0941511467
-0.0021220224
-0.0045054443
0.0446017273
-0.0042511309
-0.0793167800
-0.0621851385
0.0305403322
-0.0268563759
0.1540488750
-0.0327993594
-0.0379218981
0.0072424714
0.0100548817
0.1277429909
-0.0197893828
0.0215248708
0.1387235969
0.2054474056
0.0698518679
-0.0337401479
0.0230666958
0.0826195702
0.0331384689
0.0169834923
-0.0679917485
-0.0285808537
-0.0050808154
-0.0135186408
0.0366775766
-0.0157924499
0.0045687775
-0.0470386669
-0.0723227635
0.0324387811
0.0083238250
-0.0444312319
-0.0220625587
-0.0984156206
-0.0492152236
0.0433273502
-0.0057419818
-0.0801080242
0.0083002420
0.1040948480
0.0602049790
-0.0361086577
-0.0287762266
0.0177467093
0.1046919674
-0.1683197767
0.0338382721
0.0713976026
-0.0001994265
0.0071095247
-0.0369414203
0.0349512622
-0.0752752349
-0.1086667031
-0.0394060612
-0.0532383323
-0.0324643441
0.0080547053
0.0346201770
0.0734422430
0.0125119705
-0.0547025502
0.0942564607
-0.0096863816
0.0394533686
-0.0655876771
-0.1470205784
-0.0337248333
-0.0577005111
-0.0422710665
0.0239018444
-0.0352744684
0.0485714190
0.0224021804
-0.1120446250
-0.0110367015
0.0243562087
-0.0185871627
-0.0712448210
-0.0176069029
-0.0531685948
-0.0083344085
0.0390437692
0.0400441810
0.0270178691
0.0973575711
0.0538137108
-0.0437139422
-0.0848161653
-0.0577631444
-0.0087216338
-0.0278256685
-0.0372299179
-0.1257438809
-0.0968973935
-0.1094194725
0.0397583619
0.0637920946
-0.0321368538
-0.0807488114
-0.0407073125
0.0588218011
-0.0125852628
-0.0350027569
0.0828163773
-0.0397587158
-0.0529543497
0.0348659419
0.1738517880
0.0553336367
0.0764268488
-0.0197123215
-0.0292505026
-0.1314549744
-0.1888641566
0.0749514699
0.0507796258
-0.0703829750
-0.1119290069
-0.0694667697
-0.1222437546
-0.0116241500
-0.0114809852
0.0170825683
-0.0339689627
-0.0301216282
0.0998235941
0.1462487578
-0.0177088659
0.0214255583
0.0833972991
-0.0069750240
0.0054396233
-0.0150939962
0.1588906795
0.0308809187
-0.0804174691
-0.0880222768
-0.0378171019
-0.0464104116
-0.0246919673
-0.1266105324
-0.0050638746
-0.0482046679
0.0454717055
-0.0400379449
0.0002638499
0.0819488689
0.0055441512
0.1064526960
0.0403651968
0.0563477762
0.0517404601
-0.0153702497
0.0609183572
0.0717413947
-0.0099425791
0.0218492430
-0.0221138280
-0.0812733322
-0.0069512236
0.0077110706
0.0458059907
0.0016003539
0.0281305034
-0.0791653171
0.0352607965
-0.0566326380
-0.0244385414
-0.0381173156
-0.0757857710
0.0290805474
-0.1005212665
-0.0043513593
-0.1187192351
0.0695755929
-0.0562074073
-0.0970265344
0.0026485757
-0.0611482449
-0.0083194599
-0.0217524134
0.0456457920
0.0720778704
0.0255639870
0.0223206095
-0.0327472612
0.0384028628
0.0297187865
-0.0095038218
0.0141614312
0.0102897976
0.1701807678
0.0352419913
-0.0218509156
-0.0135976924
0.0337297358
0.0858152881
-0.0254628677
0.0374974720
-0.0727721080
0.0124299144
0.0230347626
-0.0113833072
-0.1194590107
-0.0208691023
0.0469264686
0.0164574087
-0.1056258976
-0.0953656361
0.1166843846
-0.0177314505
-0.0564434677
-0.1221634671
-0.0548914857
-0.0854495019
-0.0886083618
-0.0996825099
-0.0633111447
-0.0971237943
0.0226416904
0.0879703313
0.1371269822
0.0336955152
-0.0385430828
0.1045571342
0.0400644653
-0.0253893826
-0.0441529565
0.1921182722
-0.0751487017
-0.0838100240
0.0090752756
0.0383147374
0.0398747809
0.0258762166
0.0237659831
0.0156957395
0.0490823351
-0.0427101403
-0.0095188012
-0.0556289665
-0.1119130775
-0.0380547978
0.0119834263
-0.0457579419
0.0327541903
-0.0247423053
0.0448521189
-0.0440406241
-0.0385509543
0.0078856014
-0.0713470653
0.0151606239
-0.0320742205
-0.1240532026
-0.0547922142
0.0259053633
0.0831643119
0.0885470510
0.0082930038
0.0058306628
-0.0478190556
0.0400968194
0.0659436509
-0.0729370564
-0.0379715264
0.0165047105
0.1087417752
0.0111643961
0.0881084129
0.1338619292
0.1516953558
-0.0688249320
0.0128015894
0.0806996599
-0.0485005416
-0.0243838709
-0.0505162403
0.0497862734
-0.0431557521
-0.0157169886
0.0760806948
0.0357788689
0.0467001610
-0.0108341910
-0.0665493160
-0.0112193488
0.0419704728
0.0584904812
0.0264887623
0.0771909654
0.0484061800
0.0999065489
0.0998366550
0.0378837287
-0.0252920985
-0.0309053008
0.0454848744
-0.0126934694
0.0273924172
0.0107469857
0.0432896242
-0.0127810873
-0.0608833916
0.0187286399
-0.0220936798
-0.0973191932
-0.0724234730
-0.0920257196
0.0374946110
-0.0722367689
-0.0640066862
0.0215578731
0.0475097336
0.0324415490
-0.0929892957
-0.1516983509
-0.0796439350
-0.0770239383
0.0333972611
-0.0177949872
-0.0209385268
-0.1133571342
-0.1165317595
0.0480589382
-0.0489756912
-0.1401684731
-0.0359167084
-0.0136767346
0.0624806695
-0.0598360486
-0.0290010683
0.0708133802
0.0472757630
-0.0611647293
0.0889261067
-0.0071425028
0.0253733806
0.0137027893
0.0037298470
0.0479828082
0.0092711560
0.0170649085
-0.0086008236
-0.0050545456
0.0160309635
-0.0056023826
0.0214057714
0.0556283183
0.0253352243
0.0266477484
-0.0346221775
-0.0626477003
-0.0839176625
-0.0312607177
0.0418491699
-0.0246602464
-0.0809963048
-0.0511600785
0.0590412393
-0.0028248413
-0.0117326099
0.0447493494
0.0410077870
0.0078240074
0.0594855323
0.0464483984
-0.0251790583
0.1438687444
0.0450010262
-0.0565548502
0.0066187736
-0.0858266279
0.0126801301
-0.0174049772
0.0482759364
0.0418219939
-0.0271481629
-0.0100892838
-0.0105916588
-0.0186705925
-0.0147887878
0.0174183883
-0.0097600278
-0.0691658556
-0.0088067111
0.0814031884
0.1196004525
0.0931259915
-0.1739345342
0.0432061590
0.0604683757
0.0922755599
0.0319789834
0.0404726043
0.1540102512
0.0197658110
0.0275483914
0.0694312006
-0.0332554504
-0.0097982436
-0.0438173302
0.0691359639
-0.0191769246
-0.0694294721
-0.0331959240
0.0599571057
0.0493272096
-0.0809601173
-0.0543041751
-0.0154254744
0.0649545640
0.0505517535
0.0672721639
0.0169512462
0.0877626762
0.0502367020
0.0944285393
0.0454398617
0.1263285279
0.0437244810
0.0360503010
0.0849876180
0.0258571226
0.0713697374
-0.0542692393
-0.0429937877
-0.0169879794
0.0011280103
0.0198827758
-0.0238562692
-0.0020830317
-0.0130251870
0.0000486937
0.0258368552
-0.0680372193
0.0168533102
0.0113612050
0.0340912528
-0.0414224677
-0.0707367882
-0.0527042001
0.0608499274
0.0016793122
0.0246177819
0.0596716702
-0.0268958453
0.0197337512
0.0788443610
-0.0896944553
-0.0572594628
-0.0455727428
-0.0152502442
-0.0075511816
-0.1610597819
-0.0211073924
-0.0124188447
-0.0374837406
-0.0872749239
-0.0193004627
0.0378604531
-0.0187396947
0.0413060859
0.1267713755
0.0086799543
-0.0531717837
0.0502849147
0.0026166488
-0.0390331894
0.0481517948
-0.0629082248
0.0053473595
-0.0258821044
-0.0678241402
0.0446819253
0.0769184530
-0.0055570966
0.0267427061
0.0799340382
0.0996837690
0.1365997493
0.0378820263
0.1136262193
0.0185185224
-0.0160245001
-0.0423826501
-0.0262938272
0.0139219845
0.1213002875
-0.1145758554
-0.0043307296
0.0626288280
0.0429270491
-0.0760915056
-0.1011217013
-0.0536037125
-0.1014520079
-0.0865368247
0.0042082304
-0.0145315258
-0.0683756769
-0.0011190432
0.0023451652
-0.0043458971
0.0167775005
0.0361722782
-0.0811690763
-0.0172653962
-0.1042574719
0.1008815691
0.1072317585
0.0597147755
0.0253188889
0.0540165119
-0.0751357824
0.0329656452
0.0810815617
-0.0434405021
-0.0977700278
0.0200483128
0.0708821490
-0.0039405748
-0.0612259433
-0.0886758417
-0.1477276236
-0.0678487569
-0.0290265568
-0.0061120354
0.0319416001
-0.0888923928
-0.0183903240
-0.0166594759
-0.0003988494
0.0647174567
-0.0828267559
-0.0249391366
-0.0294776112
0.0075133964
-0.0300688744
0.0878705755
0.0147111835
0.0392119177
-0.0393249393
-0.0190093983
0.0470543541
0.0244655833
0.0894014761
0.0320487730
0.0047750701
-0.0677810907
-0.0296598338
0.0635305718
0.0881052241
0.0430173539
0.0462014489
-0.1015086994
0.0240295343
-0.0249214377
-0.0665082335
0.0778754950
0.0658048987
0.0643593594
0.0707060322
0.0858328938
-0.0437790193
-0.0139532089
0.0258112140
0.0072851963
-0.0960817635
-0.0532457642
0.0328431390
-0.1033143103
0.0247775838
0.0131200328
-0.0152837038
-0.0158498809
-0.0935582519
-0.0276053492
0.0494134165
0.0698665455
0.0467502624
-0.0737946555
-0.0387354530
-0.0821962729
-0.0596021898
-0.0198389720
-0.0555685274
-0.0702183545
-0.0418325514
-0.0469756164
-0.0055826451
0.0458871238
0.0296695270
0.1122985259
-0.0992595553
-0.0004808106
0.0166848600
0.0577712208
0.0725398287
-0.0577553511
-0.0445862003
-0.0843538865
-0.0172262173
0.0046320888
0.0213602632
-0.0319834203
-0.0656961203
0.0013170030
0.0135806892
0.0147571256
0.0388930403
0.0393262468
0.0450411141
-0.1106757000
0.0219896026
0.0301654134
0.0396661386
-0.0650818646
-0.1800058633
0.0059157303
-0.0445029065
-0.0744020119
0.0282032080
0.0577304885
0.0421596766
0.0433609188
0.0240627136
0.0287923329
0.0122739915
0.0278967321
0.0956273153
0.0163174029
-0.0390341170
-0.0962793753
0.0023209197
0.0288530868
0.0160548352
0.0879780054
0.0002755568
-0.0517188497
-0.0647749230
-0.0073459749
-0.0147923483
0.0148977796
-0.0020740265
0.0121634128
-0.0582524575
-0.0509339571
-0.0222344715
0.0182321928
0.0398256890
-0.0050643291
-0.0797009766
-0.0108425487
-0.1166022792
0.0205285251
0.0151980035
0.0050925263
0.0257829744
0.0298205521
0.0205001179
0.0510949381
0.0227509234
0.0652936995
0.0571872443
-0.0224688407
-0.0082282322
-0.0305132437
-0.0497576483
-0.0081296796
-0.0741828606
0.0273660831
-0.0090196598
-0.0262383576
-0.0351637825
0.0219533946
0.0944030657
0.0282740705
0.0144391768
0.0471987315
-0.0426319279
-0.0253722575
0.0116798505
-0.0176946037
0.0118403863
0.0322106145
-0.0304750297
0.0054304581
-0.0382625386
0.1102616191
-0.0432858430
-0.0504479744
-0.0429992117
0.0080203163
0.0547682345
0.0203712694
0.0999700353
-0.0119883260
0.0149558838
-0.0080588786
0.1272856891
0.0637966394
0.0086683296
0.0547695123
0.0075160740
-0.0429541767
0.0539990216
0.0610233881
0.1282691061
0.0993618518
0.0893004164
0.1126494557
0.0683792979
0.1003749296
0.0476260632
0.0170602389
0.0135006495
-0.0815601721
-0.0015534121
0.0882490501
0.0358324796
-0.0165323596
-0.0448870659
-0.0338298455
0.0151776457
0.0818075761
0.1019544527
0.0720316172
-0.0431319475
0.0046738931
0.0859790742
0.1274112016
0.0028903179
0.0118290428
-0.0349201784
-0.1170932353
-0.1025398150
-0.0356774405
0.0407157354
-0.0253034458
0.0421562865
-0.0155287730
0.0332313143
0.0544015989
-0.0881090835
0.0201089475
0.0594026186
0.1163375974
0.1144627780
-0.0088754855
-0.0059910771
0.0112400223
0.0254482999
-0.0131769069
-0.0210006610
-0.0513041355
-0.0487058237
-0.0434374847
0.0516828261
-0.0545064658
-0.0544550344
-0.0143469619
-0.0306075290
0.0449003093
0.0251963791
-0.0130286543
-0.0144352773
-0.0238990113
0.0040654880
-0.0203697477
0.0414570458
0.0606829114
-0.0228409637
-0.0161115043
-0.0884951651
-0.1014922187
-0.0986310542
-0.0129570821
-0.0285348836
-0.0163191166
-0.0906898156
-0.0865040049
-0.0733073503
-0.0509322658
-0.0952666253
-0.0726378784
-0.0539590269
0.0428500175
0.0568565391
-0.0484456979
0.0313649252
0.0019511050
0.1109457314
0.1114986762
-0.0142108351
-0.0449686088
0.0779195949
0.0962395519
0.0320341103
0.0583757237
0.1434357315
0.0675045997
0.0415000804
-0.0903927311
0.1598461419
0.0854902938
-0.0405947603
0.0212679729
-0.0507781170
0.0274231452
-0.0040347134
-0.0622877665
-0.0613631979
0.0450649671
0.0186436251
0.0724881738
-0.0274442025
-0.0333508663
-0.0330535583
0.0076265684
-0.0447950922
0.0672050789
0.0204259306
-0.0501300432
0.0952269509
0.0517542697
0.0142142614
-0.0474484935
-0.0306761023
0.0909009874
-0.0422032140
-0.0139537761
-0.1012125984
-0.1057409868
-0.0106573729
0.0017444292
-0.0199622735
-0.0284732208
0.0029430317
-0.0560615994
-0.0593094677
0.1500908732
0.0032679846
0.0365938246
0.0423278101
0.0028824024
-0.0332111567
0.0360786170
0.0464669056
0.0570181422
-0.0055185556
-0.0663114116
-0.0441974141
0.0229257699
-0.1407823563
0.0026336377
-0.0704779848
-0.0376896635
0.0298487227
-0.0228361264
0.0495011806
-0.1308541298
-0.1167241260
-0.0227221753
-0.0162356105
-0.0212624837
-0.0372345075
-0.0543443747
-0.1232833341
0.0527175181
0.0288510285
0.1199905351
-0.0201947540
-0.0120775113
0.0472674258
0.0248352848
0.0322635062
0.0636157021
-0.0507828295
-0.0054341094
-0.0427273214
-0.0846111253
-0.0524934866
0.0102082742
0.0066299620
0.0465397686
0.0272207707
0.0017091322
-0.0004577475
0.0242992211
0.0203967821
0.0777464733
0.0939447135
-0.0258876234
0.0441454388
0.0308591165
-0.0347507186
0.0060808342
0.0500284247
0.0431418084
-0.0170857497
-0.0359113328
-0.0418237150
-0.0192652699
-0.0377553888
-0.0852967352
-0.0955929309
-0.0818239674
-0.0343638286
0.0738235563
0.1590757072
0.1016882658
0.0815639049
0.0128028924
-0.0952506289
0.0195563063
0.0846951827
0.1059702337
-0.0987890288
0.0170162935
0.0828011557
0.0757548958
-0.0064058923
0.0455364063
0.0046050530
0.0265612453
-0.0111957006
0.0604004301
0.0744901597
-0.0153659871
-0.0318204947
-0.0106737977
-0.0563895404
-0.0484626591
0.0131442016
0.0939528868
0.0546064116
0.0627458915
0.0675431415
-0.0265995488
-0.0955948308
-0.1048162803
-0.0546907447
0.0621949397
-0.0686837956
-0.0297858231
-0.1273269057
-0.0309587251
-0.0103284102
0.0297640581
-0.0051746774
0.0172676723
0.0805374980
0.0103312386
-0.0207044929
0.0370071121
0.0195839107
0.0908180028
0.0715925023
-0.0077999434
-0.0773342624
-0.0069308481
-0.0306939259
0.0304965768
-0.0192140490
0.0239736699
0.0931874141
-0.0262789000
-0.0696986020
0.1197128594
0.0786870569
0.0922446400
-0.0520326421
0.0111127589
-0.0591965243
-0.0145587558
-0.0035349550
0.1053975597
0.0052484008
-0.0469935834
-0.0116458815
0.0018416177
-0.0682170987
-0.0896253884
0.0194107797
0.0114635974
0.0878541470
0.0169831887
-0.0338495933
-0.0093910489
0.0096791359
-0.0573386028
-0.0919864476
-0.0089035435
-0.0445881598
0.0357253477
0.0491745472
-0.0426752120
-0.0121137323
0.0651225150
0.0267853495
-0.0226538759
-0.0219132081
0.0096193338
0.0482404679
0.0530902632
-0.0084452536
0.0297351368
0.0204311982
-0.0086352630
0.0777916983
0.0757031366
0.0775343627
-0.1555052996
0.0516836941
0.1136023998
0.1259655058
0.0396760143
-0.1159632951
-0.0019491017
0.0449292399
-0.0219917428
0.0557447672
0.0976366997
-0.0757983029
-0.1004230529
-0.0157523211
-0.1015823781
-0.0502061099
-0.0055694329
-0.0182405803
-0.1325018257
0.0043647718
-0.0184981599
-0.0312942266
0.0275781713
0.0523553304
0.0807460621
-0.0039880513
0.0026481401
0.0197578408
0.1949974298
0.1326100677
0.0090229232
0.1167145520
0.0544662364
0.1084793285
-0.0093565388
0.0006161524
-0.0271811895
-0.0124474410
-0.0348087065
-0.0241964143
-0.0729711726
-0.0977474153
-0.0418135375
-0.0605625510
-0.0149864592
-0.0906438455
0.0288429912
0.0871223733
0.0855837986
0.1297987252
0.0737679228
0.0808055028
0.0247038659
0.0045079170
0.1243859306
0.0250203926
-0.0318403021
-0.1370485425
-0.0861035734
0.0420743003
0.0049664094
-0.0263959616
0.0249791835
-0.0716330111
-0.0469986722
0.0326985456
-0.0447508246
-0.0414407179
-0.0059914100
0.0248236787
0.0027692046
0.0499283597
-0.0509173423
-0.0248809289
-0.0423025526
0.0435228422
0.0511605106
-0.0518204011
-0.1073363274
-0.1127268597
0.0429167822
-0.0756663531
0.0081020985
-0.0364185646
-0.0076487511
-0.0841874629
0.0294942893
0.0136686703
0.0473049916
0.0275528003
-0.0251319353
0.0869826227
-0.0109541155
0.1288513541
0.0645789802
0.0187359490
0.0217424352
-0.0169470645
0.0174322817
0.0091783246
0.0179274809
0.0760129690
-0.0264600925
0.0016147150
-0.0115835983
0.0214343593
0.0294245742
-0.0416614786
-0.0317658707
0.0116732707
0.0252467562
-0.0322091356
-0.0447230749
-0.0014161487
-0.0031284224
-0.0336160585
-0.0808586404
-0.0440584905
-0.0130316271
-0.0465477444
0.0017647326
0.0123789255
-0.1612981707
-0.1464282870
-0.1137430444
-0.0681140646
-0.0779580772
0.0085817613
-0.0208760016
-0.0106001822
-0.0481571481
0.0502051450
0.0666252598
-0.0234583113
-0.0194659308
-0.0538125560
0.1152145639
0.0093686497
0.0147317154
0.0249111783
0.0005858773
-0.0256623589
-0.0417378917
-0.0223901216
-0.0285649244
0.0522707999
-0.0023875944
-0.0177430864
-0.0158841740
0.0128862476
-0.0118643725
-0.0201871973
-0.1187072545
-0.1532121599
-0.0165739562
-0.0945756659
-0.0319177173
0.0110371793
-0.0212289635
-0.1057224199
-0.0583036914
0.0102814240
0.0327823423
-0.0147116501
0.0267281681
0.0304740258
-0.0097345449
-0.0917120650
-0.0654052347
-0.0215365514
0.0172632076
-0.0666438639
-0.1566769779
0.0565201938
0.0273432434
0.0365745798
0.0054990221
-0.0204388369
0.0588437244
0.0112705650
0.1275837868
-0.0397504233
-0.0460171998
-0.0065806918
-0.0105089946
-0.0612420067
-0.0148259997
0.0208382420
-0.0555747040
-0.1240095794
-0.1068004668
0.0313287489
0.0557439253
0.0684343204
0.0334458202
0.0019482806
0.0148823550
-0.1171240732
-0.2597519457
-0.2188508809
0.0049125832
0.0053331666
-0.0013010328
-0.1232787818
-0.1209179685
-0.0244086888
0.0098441858
0.0553102568
-0.0380703658
0.0216454510
0.0198111795
-0.0152761415
-0.0284633636
-0.0077552437
-0.0000260457
-0.0467731170
-0.0200153142
0.0008283673
-0.0945229009
0.0454407819
-0.0514034145
-0.0144684268
0.0325190611
-0.0793796629
-0.0800365433
-0.0736054406
-0.0438697673
0.0474090874
-0.0073036142
0.0330805928
0.0000398038
-0.0002894014
0.0107583925
-0.0455919690
-0.0289378371
-0.0723590627
-0.0053180279
0.0919558182
-0.0507786758
-0.0165888313
0.0192747265
-0.0383329317
0.0974050313
-0.0739402175
-0.0167750064
0.0200746078
0.0295361374
0.0741764158
-0.0581618808
0.0284706131
0.0130446032
0.0387113020
-0.1049622521
-0.0376837179
0.0661623031
0.0492688902
0.0307378750
-0.0624234788
0.0236590970
-0.0536731221
-0.0026759780
0.0610062592
0.0402189158
-0.0747030452
0.0406615175
0.0185644850
0.0888349637
0.0601365305
-0.0338875167
0.0386370048
0.0536821969
-0.0488854088
0.0890239477
0.0055448022
0.0501230471
0.0936814398
-0.0416601636
0.0085788369
0.1304549873
0.2216893882
0.1229224727
0.0503201410
0.0856872946
0.0612715520
0.1003242284
0.0071073729
0.0725921914
0.0366759114
-0.0890697613
-0.0257249195
0.0184032917
0.0366873667
0.0510149822
-0.0554100685
-0.0624169707
0.0258513894
-0.0309875272
0.1711885035
0.1526245475
0.1427048296
0.1051719561
-0.0201380495
0.0624807104
0.0290021598
0.0786574185
0.0797192454
0.0270523019
0.0799989551
0.1151549518
0.0912401304
-0.0100575425
0.0121993795
0.0514597557
-0.0146398991
-0.0882696509
-0.0342660695
0.0156917255
0.0295504294
-0.0377097055
-0.0538350567
0.1131328270
0.0518965870
0.1525587887
0.0698746368
0.1043191850
0.0775835216
0.0345491841
-0.0491665043
0.0833134651
-0.0322765410
-0.0835136473
-0.0292933397
-0.1007650048
0.0074711116
-0.0850946233
-0.0744613037
-0.0559177846
-0.0708854571
0.0138651514
-0.0144026605
0.0109583447
-0.0716596991
-0.0256357640
0.0024116812
0.0142171215
0.0843442380
0.0243186131
-0.0064212903
0.0294916593
0.0374234430
-0.0027628541
-0.0154481074
-0.0513651446
0.0161306150
0.0734082460
0.0808529258
0.0717907995
0.1384865940
-0.0062906970
0.0552815013
0.0429012813
-0.0137965670
0.0870233104
-0.0370533355
0.0535695814
-0.0179040972
0.0315047354
-0.0149918394
0.0244876724
0.0790524408
0.0479955599
0.0554102510
0.0318455435
0.1079886332
0.1072531790
0.0564182140
0.0442833491
-0.0094587486
-0.0851722658
-0.0334392041
0.0020205453
-0.0450965688
-0.0511489995
-0.1154189110
0.0617074221
0.0972900242
0.0525776446
-0.0424216799
-0.0570677035
0.0182216540
0.0239340998
0.1030431390
0.0410572626
-0.0295117944
0.0478056408
0.0037375491
-0.0835129544
-0.0639421642
-0.0267508943
0.1240548939
-0.0174669586
0.0309051182
0.0330803916
0.0176238958
0.0764223561
-0.0578974932
-0.0101111261
0.0355584398
0.0651471093
-0.0721447691
-0.0664920509
0.0261772275
-0.0833535045
-0.0950032622
-0.0451713391
0.0738606453
0.0709830150
-0.0032882805
-0.1102831140
0.0403699502
-0.0207754206
0.0094789136
-0.0236060601
-0.0438094623
0.0125088803
0.0820619240
-0.0217245817
-0.0577165075
-0.0551835559
0.1349063367
0.0919168815
0.0040521426
0.1194363683
0.0784294382
0.0866482705
-0.0274016466
0.0146090658
0.0316414721
-0.0762352049
-0.0000690094
-0.0096897557
0.0400376879
-0.0019982057
-0.0342086777
-0.0078710252
-0.0338493921
-0.0248697661
-0.0150147025
-0.0499847382
-0.1187565476
-0.0232409406
0.0044553909
0.0325803459
0.0733292475
0.0488662161
-0.0620684177
0.0780172125
-0.0077540642
0.0147699909
-0.0646784753
0.0107211638
0.0111273583
-0.0167511515
-0.0446805283
-0.0200564638
-0.0017589440
-0.0030340266
-0.0814819559
-0.0522715412
-0.0981821492
-0.0475257635
-0.0074940985
-0.0712091550
-0.0030803087
-0.0925910249
-0.0071458397
0.0016942536
-0.0308117867
-0.1505541056
-0.2042260617
-0.0685133263
-0.0538087636
-0.0091921976
-0.0186582059
-0.0627326593
0.0271139760
-0.0085748816
-0.0655479133
0.0386995524
0.0124421874
-0.0246300083
-0.0394420065
0.0056431880
0.1011383757
0.0246525388
0.0016697012
-0.0227723047
0.0105406446
-0.0139383245
-0.0319385827
0.0039339536
0.0181509536
0.0321438573
0.1158368737
0.1550202817
0.0866547823
-0.0047442052
-0.0128010893
0.1367100328
-0.0492414907
0.0166901555
-0.0155820912
-0.0109696817
0.0971298218
-0.0558342561
-0.0387283973
-0.0564587563
0.0196631663
0.0954230055
0.0339698493
-0.0887436867
-0.0056852009
0.0060735978
0.0696089268
-0.0500700958
-0.0169880651
-0.0198421925
-0.0524097122
0.0159609057
-0.0397675037
-0.0645295680
-0.0161102973
0.0185596328
-0.0447117761
0.0129751340
0.0086959181
0.1027663276
-0.0419470668
0.0560960248
0.0257620588
-0.0567353554
0.0228282847
0.0603992604
0.1386731565
0.1120236441
0.0243001431
-0.0042653754
0.0951862335
0.0658378974
0.0736081824
0.0216950830
-0.0321512520
-0.0386031643
0.0550235137
-0.1071560979
-0.1584154367
0.0043316577
-0.0673418790
0.0319412425
-0.0221507121
-0.0441371650
-0.0223893076
-0.0328626819
0.0188767016
0.0243093967
0.0209138524
0.0157070514
0.0523824990
-0.0277559869
-0.0111119933
-0.0078554312
0.0363415591
-0.1072147563
-0.0556684956
-0.0128174182
-0.0272310767
-0.0620266907
0.0673718303
0.0225824229
0.0019497740
-0.0331385955
-0.0214603096
-0.0410801135
-0.0413753353
-0.0521579087
0.0178731605
-0.0505854338
0.0130445398
-0.0294785779
0.1164443791
0.0218391605
0.0921927691
-0.0439482406
0.0112953568
-0.0482239649
-0.0559397638
-0.0658682734
0.0171480384
-0.0180053338
-0.2408919930
-0.0767385736
-0.0629960895
-0.0577850528
-0.0600606427
-0.2030285299
-0.0684287846
0.0398218147
-0.0782288015
0.0312604830
-0.1274790913
-0.0457413681
-0.0099917911
-0.0476706289
0.0504893139
-0.1000772268
-0.0008833744
0.0529267974
-0.0630671978
-0.0173608009
-0.0021152105
0.0072576832
-0.0311323144
-0.0243074168
0.0372731388
0.0910367295
-0.0425853990
-0.0519717261
-0.1295477599
-0.1439280957
-0.0683017299
-0.1408886164
0.0719109327
0.0366407633
0.0668023303
-0.0945950374
-0.0803705081
0.0684004948
0.0690174401
-0.0481822565
0.0493585989
0.0680117011
0.0352860093
0.0186805148
-0.0931203738
-0.0609861873
0.0871624798
-0.0083813295
0.0155030768
0.0821745768
0.0793103650
-0.0661574155
0.0369050242
0.0118329758
0.0648561716
0.1468242407
0.0066010617
0.0807788298
-0.0095350994
0.0828649849
-0.0255726688
0.0763717443
0.0464941487
-0.0685864240
-0.0352512300
-0.0253700316
-0.0191229079
0.0945532620
0.0133920824
-0.0347958207
-0.0009760628
-0.0446217693
0.0468717404
-0.0449993536
0.0221778341
0.0674920902
-0.0529111363
-0.0079504745
-0.0009773134
0.0057724817
0.0370134674
0.0579114743
-0.0493062027
0.0150901172
-0.0603508353
-0.0334023535
-0.0939372703
0.0324221924
0.0128494669
-0.1264941096
-0.0501884073
-0.0995936245
0.0696563795
-0.0704487786
-0.1410323083
-0.0304156020
0.1032545120
-0.0019557949
0.0230437722
0.0454574041
0.0106565673
0.0263624955
-0.0529337935
-0.0726842359
0.0491507202
0.0039380137
0.0198546089
-0.0904709920
0.0133944461
0.0327049680
-0.0804129168
-0.0859781355
0.0268124752
0.0680305734
-0.0048751915
-0.0832200199
-0.1668121070
-0.0010145920
-0.0346335769
-0.1143942624
0.0134038115
0.0580779389
0.0001313805
-0.0164766442
0.0245861411
0.0527903102
-0.0301927701
0.0477161817
0.0341819972
0.0415832214
0.0167372338
-0.0767676607
-0.0000652432
-0.0586262047
0.0922957957
-0.1024651825
-0.1059621945
-0.0421642996
0.0423661023
-0.0939326286
-0.0265852977
0.0273954123
-0.0470248647
-0.0075624618
-0.0011278975
0.0867740810
0.0450864844
0.0508456305
0.0704948381
0.0134172682
-0.0554247275
-0.0653856397
0.0843172520
0.0077609550
0.0001566722
0.0622158013
0.0141438795
0.0618688427
-0.0037415333
-0.0599084496
-0.0170487184
0.1251423359
-0.0015855997
0.0226523485
-0.0511630960
0.0698995590
0.0095350128
0.0312753394
-0.0705673769
0.0450992957
0.0812773630
-0.0105407527
0.0703440085
0.0004566094
0.0441740267
-0.0302446950
-0.0953248739
0.0098374756
-0.0376919396
0.0013420098
-0.0011558372
-0.0417516567
-0.0447663628
-0.1024968475
0.0109252213
0.0363993570
0.0345414020
-0.0171387140
-0.0197611954
0.1033814549
0.0438016430
-0.0043375245
0.0556108132
0.0517942719
-0.0136378715
0.0382691547
0.0509667844
-0.0914743841
-0.0503495559
0.0393126011
0.0296673495
-0.0683498085
-0.0810639337
0.0258962866
0.0544617064
0.1185418665
-0.0941525400
0.0331799537
0.0240001287
-0.0169409923
-0.0304331146
-0.0707491413
0.0569600016
-0.0053905980
-0.0493374094
-0.0138017340
0.0367280021
0.0565358922
-0.0508435406
-0.0892573893
0.0854863077
-0.0590380281
0.0088016121
-0.0126274610
-0.0886163488
0.0058433968
0.0291988105
-0.0524828844
0.0343995579
-0.0641017854
-0.0379834063
0.0207965802
0.0352454185
0.1002741456
0.0280501116
-0.0278154444
0.0864572898
0.0944627747
-0.0390836224
-0.0281480122
0.0277885720
-0.0011780655
0.0919398889
0.0190610904
-0.0094230967
-0.0775071755
-0.0597120933
-0.0735158399
-0.0125546465
0.0945015028
-0.0281750765
0.0189320222
-0.0772479773
0.0699774623
-0.0080946367
-0.0327120237
-0.0032776657
0.0355875120
0.0629695058
0.0141031239
0.0082525704
-0.0278959367
-0.0317229405
0.0062834262
0.1077140793
0.0780985653
0.1369754970
-0.0767805576
-0.0233104099
0.0618531294
0.0881523862
-0.0194579922
-0.0027378711
0.0400871336
0.0244604070
-0.0337125994
0.0615651459
-0.0070322049
0.0509258993
-0.0071165622
-0.0692930296
0.0598440729
-0.0270035490
0.0457065366
0.0128294434
0.1185462251
0.0191990528
-0.0479555912
-0.0227875318
-0.0090211090
0.0045602815
-0.0017557432
0.0115180574
0.1101529673
0.1270649582
-0.0860072523
-0.1789751798
0.0314097926
0.0267749783
-0.0034911039
0.0126109123
0.0290700309
-0.0566367805
0.0466829389
-0.0364469029
0.0583168902
0.0365363210
-0.0397180021
0.0378730893
0.0942868292
-0.0096513638
0.1010710150
0.0644265637
-0.0404435955
0.0127485516
-0.1065497771
0.0649709627
-0.0715169162
-0.0692809075
-0.0146702435
-0.0374458022
-0.1493849903
0.0487701781
0.0163000263
0.0148024242
-0.0242058318
-0.0194817837
-0.0044179983
-0.0156678744
0.0039219097
-0.0154082105
-0.0519347452
-0.0666173548
-0.0799469873
-0.0049076197
-0.0238249283
-0.0736311823
-0.0089262677
-0.0717881545
-0.0637134016
-0.0711675361
-0.0602577552
-0.0323618837
-0.0627284572
0.0288878437
0.0239572152
-0.0029273157
0.0074747782
0.0140105933
-0.0128384400
-0.1104648933
-0.0594837442
0.0003045424
0.0032535135
0.0216830913
-0.0944822431
-0.1085865423
0.0235134922
-0.0299605187
0.0473138094
-0.1019929275
0.0024166540
-0.0434303805
0.0252648499
-0.0810045898
-0.0638359338
0.0050042672
-0.0463075303
-0.0001207211
0.0063489992
0.0232390519
0.0822563693
-0.0314610526
-0.0272113737
0.0230056550
-0.0170746371
-0.0619586632
0.0746833608
0.1210864708
0.0033886437
0.0057262988
0.0731328800
0.1474785954
0.0309259426
0.0393360704
-0.0348632485
0.0915320143
-0.0000936243
-0.0000560242
-0.0071407859
0.2045861781
0.1767895222
-0.0366717838
0.0511369519
0.0394930318
0.0842164159
-0.1340767890
0.0725463331
0.0043436000
0.0009359716
-0.1081748530
-0.0351254866
0.0054808496
0.0604389943
-0.0588514395
-0.0877211913
-0.1079601422
-0.0573572814
-0.0052019795
0.0076765404
-0.0979149863
-0.1187858656
0.0200457498
-0.0752937347
-0.0696000755
-0.1745650172
-0.0225821380
-0.0645760000
-0.0882308185
-0.0770349503
0.0225189589
0.0636234879
0.0152243087
0.0095409127
0.0066244183
0.0024432000
0.1211342737
0.0860969722
0.0343300961
0.0163674001
0.0352205597
0.0161842499
-0.1331449896
-0.0155046219
-0.0282867681
0.0863313228
-0.0418535396
-0.0860925168
-0.1198759153
-0.1732917577
-0.1119211614
-0.0846973211
0.0445625782
0.0708358660
-0.0114341993
0.0161383525
-0.0556939095
0.0143746613
0.0500496887
0.0535446703
0.0141723156
0.0388849452
-0.0493466742
-0.0142590953
0.0464754701
-0.0082998630
-0.0123489834
-0.0055374103
-0.0784796700
0.0966548771
0.0124445027
-0.1311436743
0.0001096932
-0.0066782935
-0.1108849645
0.0213519521
0.0106373774
0.0159450173
-0.0457376577
0.0305895153
0.0855370387
-0.0495554805
0.0728053749
0.0411115177
0.0392219201
0.0393221080
0.0123470780
0.0084615164
-0.0269496087
0.0271844063
-0.0028066656
0.0215475932
-0.0902335271
0.0213187989
0.0514304936
0.0009121001
-0.0682578757
-0.1059621051
-0.1552059501
-0.0641633794
-0.0481405519
-0.1143190935
0.0703930557
-0.0383435190
-0.0113193011
-0.0037661991
-0.0003214256
0.0181055292
0.0357826389
-0.0530930385
-0.0256103370
-0.0004660637
0.0214561913
0.0582138523
-0.0250050928
0.0085668564
0.0868285224
0.0933543518
0.0573341846
0.0487581268
0.0169494003
0.0311804991
-0.1195319667
-0.0169501379
0.0581899658
-0.0119818384
0.0407675356
-0.1229966208
-0.0370921455
-0.0759693235
-0.1630968899
0.0436373353
-0.0606394559
-0.0327088498
-0.0977275670
-0.0473236330
-0.0332181640
0.0414539985
-0.0922479406
-0.0408645943
-0.0774888918
0.0157312490
0.0902667493
-0.0204287153
-0.0343789309
-0.0573512800
0.0449544191
0.0671776459
0.1882012933
0.0535544455
0.0654180944
0.1321137398
-0.0046689156
0.0090872357
0.0308734886
-0.0372224264
0.0028236294
0.0800182000
0.0757729411
0.0453937910
-0.0270372797
0.0195221677
-0.0350842364
0.0340973400
0.0351597182
-0.0031922872
-0.0147175491
-0.0029935185
0.0767999366
0.0206050333
0.0748919025
-0.0584265441
-0.1223824397
-0.0989652649
-0.0771216974
0.0262540337
-0.0559082069
0.0326942056
-0.0740601346
-0.1156898141
-0.0291019473
-0.0834524706
-0.0554870851
0.0346450172
0.0000420887
-0.0807948858
0.0183634236
-0.0250183754
0.0924529582
0.0735854208
0.0222008377
0.0235873498
-0.0289147645
0.0949394181
0.0924780667
0.0547875129
0.0284004789
-0.0656091124
-0.0248276629
0.0988203883
0.0420797318
-0.0794933364
-0.1844219714
-0.1311999559
-0.0159447864
-0.0384403132
-0.1815337092
0.0744807050
-0.0106475549
0.0065377913
0.0234756358
-0.0676659793
0.0001699836
0.0416305102
-0.0121608898
-0.0135095920
-0.0398117714
-0.0716134310
-0.0470672548
0.0956693366
-0.0037238868
-0.0828461051
-0.0631497130
-0.0319673195
-0.1033250093
-0.0608418211
0.0294912308
0.1020028591
-0.0072538448
0.0172426123
0.0672623366
0.0296860114
0.0209828131
-0.0159132443
0.0787319764
0.0042367321
0.0183436945
-0.0619004071
0.0279186144
-0.0213476848
-0.0002575083
0.0214822926
-0.0658676699
-0.0441894494
0.0697586387
0.0747644156
-0.0005175905
0.0068208999
-0.1203535199
-0.0988063142
-0.0742196515
-0.0327680483
0.0210729726
0.0153952474
-0.0236972515
0.1442281306
0.1649306566
-0.0172277652
0.0111658964
0.0060561113
0.0477993935
0.0791829303
0.0567943230
-0.0123773357
0.0472062677
0.0595360957
-0.0152449468
-0.0461242087
0.0594903864
0.0877892971
-0.0769226998
-0.0165854637
0.0672005415
-0.0170209277
-0.0245124623
-0.1287200451
0.0851492286
0.1455634832
0.0388141237
0.0270803627
0.0364947841
0.0959905609
-0.0139218448
-0.0908268169
0.0160875153
-0.0647726953
-0.0524261668
-0.0152134728
-0.0264586788
0.0132464422
-0.0232859459
0.0231463481
0.0217540562
-0.0834855884
-0.0450388715
-0.0618970841
0.0935153514
0.1012811586
0.1113689765
0.1316987127
0.0958556980
0.0602852367
-0.0231023636
-0.0210985783
-0.0145163285
0.0491280593
0.0819203481
-0.0222084932
0.0514574908
0.0768083781
0.0542637631
-0.0050504594
0.0049535674
-0.0069604069
0.0010297773
0.0089947786
0.0236411206
0.0185500532
-0.0154737616
-0.0871654823
-0.0588442795
-0.0359414555
0.0325689763
0.1003589034
0.0052640247
-0.0332866013
-0.0413929299
0.0686951727
0.1031925827
0.0361566320
0.0198399629
0.1012204885
0.0408828259
0.0296629220
-0.0000791710
-0.0395598784
0.0067623653
0.0926930755
0.0204957221
0.0746814385
-0.0187947880
0.0279866289
0.0038907176
0.0109736063
0.0383176617
-0.0230391398
0.0117215281
-0.0425973125
0.0454832390
0.0254789274
0.0094867023
-0.0841139629
-0.1301602125
-0.0274553206
-0.0179863609
-0.0898384750
-0.1241824105
-0.0329354964
0.0284512751
-0.0082544796
-0.0312673524
0.0537524335
0.0473438390
0.0060753184
0.0374527462
-0.0460465066
0.1191028729
0.0580201186
0.0146313980
-0.0063748471
-0.0689923763
-0.0329223424
-0.0341383889
0.0007753723
0.0138035221
0.0164796133
-0.0053142300
-0.1214690134
-0.1445739567
-0.0944276750
-0.1157435849
-0.1705127358
-0.0478512645
0.0386849754
-0.0276421271
0.0463149510
0.0771980360
-0.1172012910
0.0163709167
-0.0435178466
0.0616309755
-0.0224596541
-0.0970151424
0.0249027740
-0.0431705378
-0.0401717685
-0.0292576142
0.0872252658
0.0179893505
-0.0748071671
0.0633064806
-0.0748752877
0.0454025753
0.0438542552
0.0197872575
-0.0015404583
-0.0015598841
0.0256948806
0.0517482385
0.0025731004
0.0580507889
0.0704861358
-0.0283858329
0.0584078208
0.0736730918
-0.0411102697
0.0397677235
-0.0048621208
0.0768459812
0.0413843393
-0.0454074256
0.0848625898
0.0815256834
0.0589766093
0.0849581584
0.0061013312
-0.0215108953
0.0162153300
0.0379026718
-0.0033664117
-0.0989666954
-0.1413086802
0.0124592297
-0.0342966728
0.0612223595
-0.0028370637
0.0465760455
0.0087333154
0.0743311793
0.0308971480
-0.0707648247
0.0573336370
-0.0041485000
-0.0950750709
-0.0307184979
0.0794706270
-0.0126279881
0.0180111229
0.0192723777
0.0995151773
0.0399048366
-0.0376201719
0.0454821773
0.1453383565
0.0817978829
-0.0479948148
0.0945409015
0.0534783565
0.0619438179
-0.0502574183
-0.0659979135
-0.0361805111
0.0317041464
0.0537686534
-0.0546361245
-0.0547756553
0.1083823219
0.0014124657
-0.0735270530
-0.0676993504
0.0453937352
0.0851613581
-0.0825531036
0.0177694000
0.0924024656
-0.1395456046
-0.0797809437
-0.0532351285
-0.0919480547
-0.1716314107
-0.0816043839
-0.1202287003
0.0370456316
0.0611997023
-0.0144831073
-0.0178606026
0.0429770499
0.1104224026
-0.0497858040
-0.0418272763
-0.0430042259
0.0609540679
0.0309725516
-0.1027175784
-0.0213852264
-0.0176784825
0.0580770187
0.0201537199
0.0277238395
0.0198930223
0.0339996107
-0.1391539127
0.0162015110
0.0090836231
-0.0110637071
-0.1052452028
-0.0511526763
-0.0269882828
-0.0438093841
0.0864269510
0.0293068364
0.0849381387
0.0274916291
-0.0021236928
0.0048714532
0.0063269241
-0.0109219095
0.1262453049
-0.0285370145
-0.1020130143
0.0141159538
0.1679179221
0.0730642155
-0.0371491313
-0.0184783563
0.0729545578
-0.0335690826
0.0524085648
0.0870856941
0.0534570329
-0.1074376032
-0.0411181897
0.0246282592
0.0083053987
0.0128268581
0.0103151342
0.0212778710
-0.0030987749
-0.0408378467
-0.0009495710
0.0071751471
-0.0566280298
0.0190085787
-0.0711139813
-0.0126492018
0.0171560366
-0.0573655106
0.0991359502
-0.0049546002
-0.0687098578
-0.0133415768
0.0477933884
-0.0081872707
0.0294495467
-0.0436599106
-0.0775055215
0.0186601914
0.0629492104
-0.0312410221
0.0364476666
-0.0374266058
-0.0339331403
-0.0173091013
-0.0545123704
0.0076507633
0.0296413749
0.0294373930
0.0138404705
-0.0093002347
0.0175164565
0.0071935211
0.0671690628
-0.1038181260
0.0153688109
0.0146951191
-0.0949255675
-0.1013813764
-0.0861836076
-0.0298586600
-0.0572311357
0.0388979055
0.0030025449
-0.0192645751
-0.0159392003
-0.0247124135
0.0726802871
-0.0591817908
-0.0147991898
0.0764653534
-0.0818947107
-0.0738961771
0.0027372001
0.0122725293
0.0094058514
-0.1012608558
-0.0489758030
0.0399954729
0.1132602319
0.0964918435
-0.0025362112
0.0077584125
0.1106168255
0.0465513617
0.0214805324
0.0838916972
0.0259445813
-0.0101731475
0.0331701972
0.0155843515
-0.0261506289
0.0792966411
0.1289843917
0.0504075475
0.0139062032
-0.0661971495
0.0928460807
0.1689187139
-0.0236486774
-0.1186445951
-0.0279000551
0.0968260020
-0.0956803858
-0.0616196990
-0.0818249360
-0.0354006737
-0.0871414542
-0.1778548211
0.0384095758
0.1058459356
-0.0947997943
-0.0346162170
0.0476884134
-0.0217076428
0.0064802463
-0.0297476016
-0.0355388187
0.0409513786
-0.0673169419
0.0434666313
0.0279586483
-0.0525648333
0.0478493869
-0.0020130158
-0.0020826017
0.0025544120
-0.0037788006
-0.0052902186
-0.0506002232
-0.0243746694
0.0569779873
-0.0076579028
-0.1198412254
0.1136109233
0.0712712482
-0.0408273935
-0.0597034171
-0.0124862129
-0.0089465817
-0.0308236983
-0.0790946111
0.0366801918
-0.0114667192
0.0188536085
0.0379963405
-0.0651780814
0.0212727580
0.0476063751
0.0581102967
-0.0263198577
-0.0132992379
0.1108210534
-0.1026770398
0.0565170944
0.0881386027
-0.0117218560
-0.0969695374
0.0198535547
0.0842374414
0.0630661994
-0.0161329843
0.0561309122
0.0246113520
-0.0212045778
-0.0848029181
-0.0204125587
-0.0438691080
-0.0963995755
-0.0120264785
-0.0693531409
0.0481643528
0.0678244159
-0.0802588314
-0.0743984804
0.0196364615
0.0122022536
-0.0146980435
-0.0215535294
0.0269041620
-0.0428566970
-0.0477141887
-0.0050990358
0.0703468174
0.0132200830
-0.0096485689
0.0708825588
0.0722072050
0.0013971184
0.0415217057
-0.0197225306
-0.0173499323
-0.0401507467
-0.0346395075
0.0020767821
-0.0255941711
0.0192699060
0.0115230251
0.0296392422
-0.0379915684
-0.1226100102
0.1026230603
0.1067576781
0.0631156862
-0.0902096778
-0.0080818553
0.1338674128
-0.0197225921
0.0077832094
-0.0456874594
0.0261780787
-0.0373210385
-0.0452981144
0.0477831066
-0.0203399286
0.0687900707
0.0001980235
-0.0326599255
-0.0211134180
0.0371374227
0.0109172743
0.0030886063
-0.0363310985
-0.0135451583
0.0623674430
0.0467705131
-0.0144825447
-0.0830070004
0.0897772908
0.0584370717
-0.0858011395
-0.0316689089
0.0723615810
0.0049045440
-0.0240752306
0.0445555001
0.0427940413
-0.0696569383
-0.0340068340
-0.0055711712
-0.0388549156
0.0719354600
0.0446953364
0.0331827812
0.0352656841
-0.0740873590
-0.0895845965
0.0455894396
-0.0413375422
0.1089564189
-0.1360891163
0.0299656708
0.0435756072
0.0175876990
-0.0287303776
-0.0275735054
0.0211602952
-0.0275231209
-0.0115068192
-0.0422855355
0.0918537080
-0.0689155385
-0.0597403720
-0.0346032269
-0.0032083576
-0.0428063720
0.0076080542
-0.0415710174
-0.0771045312
-0.0039836150
-0.0271517728
-0.0024100023
-0.0712548420
-0.0670244321
-0.0394374765
0.0192751419
0.0596138202
-0.0988868549
-0.0997808203
0.0565099232
0.0822738409
-0.0505598672
-0.0960949734
0.0898650810
-0.0253762212
0.0051067029
0.0038935717
0.1260389090
0.0628352538
-0.0017701125
-0.0332923681
-0.0112335375
0.0502996445
-0.0223160479
0.0609847493
-0.0746528879
-0.0458407514
0.0418206081
-0.0054536313
0.0410579666
0.0181635320
-0.0520142466
-0.0022549336
0.0192871355
-0.0920834988
-0.1442177743
-0.0776809454
-0.0446607023
-0.0648285151
-0.0464702994
-0.1289399415
-0.0799319148
-0.0540418066
0.0445874669
0.0082549145
0.0715789944
0.0080123600
0.0553822555
-0.0842131898
-0.0350399837
0.0298809726
-0.0807259455
-0.0208344292
-0.1471239924
-0.0903466269
-0.0382568426
0.0239468981
-0.1023667753
-0.1290927231
0.0647492409
0.0392751992
0.0416721366
-0.0180391278
0.0603037812
0.0676860660
0.0454187244
-0.0113578243
0.0259704031
0.0533741601
0.0083305221
-0.0384111069
0.0631788000
0.0410502329
-0.0611246899
0.0474130362
-0.0043912795
0.0035392018
0.0803788006
0.0370943695
0.0352574773
0.0860430375
-0.0233292785
-0.0149050634
0.0915524736
0.0129658878
0.0050141541
-0.0196909830
0.0203070994
0.0122210030
-0.0197798889
-0.1965093315
-0.0513480082
-0.0169842523
-0.0080607859
-0.0326586515
-0.0333052985
-0.0041811098
-0.0050795279
-0.0071036452
0.0599180348
-0.0184851736
-0.0262884796
-0.0533660688
-0.0011611144
-0.0470298752
-0.0863793045
-0.0132256625
-0.0127754090
-0.1094860658
0.0127059510
-0.0157669578
-0.0165780094
0.0118302908
0.0340031162
0.0109253759
-0.0602921657
-0.0433783084
0.0268229544
0.1049360186
-0.0871485174
-0.1019345671
-0.0565041266
-0.0106339362
-0.0004357544
0.0675975606
-0.0020424831
-0.0716321990
0.0047624679
0.0762818679
-0.1011037380
-0.0621609576
0.0254556946
-0.0389688313
-0.0727854818
0.0625331998
0.0764740184
-0.0281341691
-0.1106922477
-0.0985258296
0.0487207733
0.0412923992
0.0151768951
-0.0432966761
0.0278742500
-0.0026844149
-0.0516623221
0.0126831774
-0.0015700700
0.0622859448
-0.0340949222
0.0092639737
0.0418902077
-0.0098193754
-0.1221904382
-0.0520052426
0.0166612044
0.0424320139
-0.0973479971
-0.0378593989
0.0096478611
0.0620411523
0.0232823081
-0.0838382095
-0.0744694769
-0.0300235860
0.0812249333
-0.0245598108
-0.0297017191
-0.0857709199
0.0343325473
0.0871491060
0.0416634567
0.0069961008
-0.1447533369
0.0821523666
0.0165898446
0.0143520199
0.0621909238
0.1120844036
0.0037442399
0.0097698951
-0.1151614189
-0.0401527397
0.0904789418
-0.0119018508
-0.0623173490
-0.0143454382
0.0445090048
0.0217745434
-0.0826450065
-0.1748929322
0.0351529233
0.0573458485
0.0929266587
-0.0055435365
-0.0454787351
-0.0662754700
-0.0616973415
-0.0623591021
0.0560126826
-0.0347862616
-0.1060886234
-0.0256245285
-0.0353681482
-0.0201645996
-0.0562135950
-0.0397228971
0.0450160988
0.0014390865
-0.0515266024
-0.0089914063
-0.0075777946
0.1286938637
0.0484039560
0.0289657321
0.0508659333
0.0518066287
0.0648856014
-0.0567901321
-0.0727894753
0.0260546599
0.0160307046
0.0438306332
0.0159818865
-0.0715801418
-0.0397920944
-0.0012894805
0.0410383828
-0.0561663434
-0.0169087294
0.0499176718
0.0261668153
0.0089313919
-0.0556659847
-0.0783313364
0.0125336479
-0.0525642745
0.0449868739
0.0815435871
0.0258515757
-0.0295545030
-0.0079833800
0.0424465351
-0.0372589193
-0.0643267930
-0.0488177501
-0.0408950038
-0.0544563457
-0.0303716566
-0.0223864391
