-0.0481469519
-0.0281746835
-0.0141982846
0.0804263204
-0.0374861956
0.0490239449
0.0451584794
0.0639112741
0.0623924956
0.1556945145
0.0363377891
0.0645140558
0.0609012954
0.0530755855
0.0483176783
0.0620148107
0.0084287049
0.0063279863
-0.0259450357
0.1392692775
-0.0683378726
0.0629508644
0.0556115247
-0.0708924681
0.0944450423
0.0514545105
0.0720128492
-0.0498145148
-0.0339979902
-0.0901857913
0.0069635520
0.0083948355
0.0764103308
0.0850402117
-0.0004192906
-0.0125546129
-0.0524857603
0.0321107581
0.0299623106
-0.0101833576
-0.0455031581
-0.0370184071
-0.0340589769
0.0084762014
-0.0331930518
0.0142798666
-0.0019430120
0.0287536588
0.0575022437
-0.0433419719
-0.0230603311
-0.0833777487
0.0405388176
0.0114324102
0.0845643580
0.0322755314
0.1212213635
0.0782062411
-0.0171217062
0.0165021308
-0.0270103626
0.1019709334
0.0045193695
-0.1293956935
-0.0294734929
0.0434898175
-0.0531596951
-0.0445499904
0.0684250891
-0.0517334640
0.0061300476
0.0173758548
-0.0879745334
0.0618995465
0.0415709130
-0.0109325293
0.0925854594
0.0782426968
-0.0665956065
0.0558150113
0.0694442168
0.0716665164
-0.1038626581
0.0019413028
