0.1225766316
-0.0001274772
-0.1116576493
-0.0606200770
0.0311349090
-0.0078157419
0.0072898017
-0.0198360123
-0.1029016450
0.1287802607
-0.1103858948
0.0178103261
-0.0338760242
-0.0168424994
-0.0348953530
-0.1287687421
-0.0229921285
-0.0223147012
-0.0791181773
-0.0845891088
0.0643034875
0.0098357815
-0.1804023534
0.0852410197
0.0388195403
-0.0471948348
0.0592922606
-0.1575012207
-0.1345115304
0.0889680758
-0.0653597862
-0.0365075469
0.0617304742
0.0723443478
0.1265805960
-0.0348973796
-0.0188029651
-0.0771851987
-0.0623730496
-0.0505384430
-0.0683160797
0.0243143905
-0.0799562559
-0.0124239475
-0.1272393763
0.0263612289
0.1452496499
-0.0800513700
-0.0159453154
-0.1034876257
-0.1114358455
-0.1345119774
0.0815332755
0.0887334570
-0.0082109608
0.0388043299
-0.0581507534
0.0098840147
-0.1641892642
0.0898349136
0.2104707062
-0.0111582708
0.0907323509
0.0811100975
-0.0607421100
-0.0991615653
-0.0711031482
-0.1007598862
0.0883732289
0.0269365702
-0.1520724744
-0.1357888877
0.0159386266
-0.1254151314
-0.1240258217
-0.1641184539
0.1405733526
-0.1279919893
0.0954473615
-0.0457504913
-0.0056029828
0.0457101129
-0.0337822251
-0.1872834861
0.0337836370
0.1341218501
-0.0120006306
-0.1044833809
-0.0978378877
0.0547510758
0.0959153920
-0.0951680541
-0.0014377323
0.0825397447
-0.0938640311
0.1046897769
-0.1409679353
-0.0395173058
0.0537960865
0.1043197364
0.1795391142
0.0528555885
0.0185973216
-0.1151221246
0.1177671179
0.0769556835
0.0050143534
0.0099707684
-0.0387272276
0.0970719382
0.0195671115
0.0342676900
0.1792594045
0.0891840309
0.0242745057
0.0541355461
-0.0361524262
0.1198856682
-0.0563323535
0.0152872344
0.1377613246
0.1204385310
0.0155328130
0.1088541821
-0.0475066863
-0.1117008701
0.1861559451
0.1009582207
0.1285724044
-0.0797035322
0.0704980046
0.0146667259
0.1481504142
0.1213471666
0.1002535746
0.1461187005
0.0165115781
0.0736913010
0.0899690762
0.0681787282
0.1671122909
0.1172413900
0.1785298139
0.0725133047
0.0608492345
0.1483524293
0.1307762861
0.1553139687
0.0164859369
-0.1302318871
-0.0423357114
-0.0638122112
-0.0503813885
-0.1201107427
-0.0314000100
-0.0151090836
0.0489695631
-0.1629067957
0.1075019985
-0.0104520470
-0.0785709023
0.0682893768
0.0445208214
-0.0159633867
0.0919172913
-0.0260603782
-0.1429868490
-0.2014806271
-0.1868364811
0.0189010389
-0.0252124704
0.0571544766
-0.1431008428
0.0576460250
-0.1441340894
-0.1522826403
0.1403566003
-0.0559891723
0.0705399886
0.0465709791
-0.1107830927
0.0017987024
0.0071561164
0.0435561575
-0.0066035572
-0.0721188486
0.0409960635
0.1379842907
-0.0379140824
-0.1266491264
0.0986338481
0.0573208109
0.0843515024
0.0479811765
0.0372900255
0.0561134927
0.0639144257
-0.0270884577
0.0679922998
-0.0345837697
0.1067384183
-0.0229386408
-0.0876004249
0.0987249538
0.0205447599
0.0833994672
0.1471465528
-0.0044437163
-0.0887072533
0.0302985385
-0.1230362058
0.0356926434
0.0823611841
-0.1381401569
-0.0464458503
-0.1151796207
0.0556328148
-0.0094081759
-0.0819630176
-0.1470745206
0.0089295320
-0.0732542202
0.1074391454
-0.0101889297
0.0525954179
0.0298293568
-0.1517065316
-0.0115356231
0.0963085890
0.0674243048
-0.0156794898
0.0753961951
0.0054219267
-0.0841753110
-0.0897421688
-0.0431990027
0.1859821975
0.0546301864
-0.0326359980
0.0711819604
-0.0550382286
0.0180567149
-0.1294082105
-0.0260312706
0.0458902381
-0.1341199279
-0.0582800396
0.0374296829
0.1007581204
-0.1301830560
0.0539881438
-0.0664787292
0.1576984972
0.0949557349
0.1412599385
0.0645042658
0.0271319356
-0.0483758040
0.0253954716
-0.0458634570
-0.0250178799
0.1252825558
-0.0673853680
0.0772302076
0.0430438630
0.0684006512
0.1684900075
0.1355945915
-0.0849141553
-0.0553145371
-0.0366980061
-0.0945776850
-0.1010448486
-0.0772117749
0.0352529697
0.1527886689
-0.0916429311
-0.0058201980
0.0910382122
0.0315304510
-0.0401500985
0.1312157363
-0.0647318214
0.1073921397
-0.0094752600
0.0531369969
-0.0410254374
-0.1379071176
-0.0389241017
0.0044245445
-0.0282629915
-0.0655736774
-0.1084950939
-0.1899405569
0.1132615283
-0.0483776927
-0.0277125165
-0.1644934714
-0.1346656531
-0.0368307345
-0.0358306766
-0.0493803099
-0.1757401079
-0.0185026638
-0.1004470810
0.0308510978
-0.0970376953
-0.0142300520
0.1561584026
-0.0942056999
0.1364684701
0.0323301889
0.0271160696
-0.0379652642
0.1747006476
-0.1646853685
0.1301448792
0.0016218453
0.0347181894
0.0262467805
0.0493743606
-0.0263827629
-0.0161378235
-0.0019219405
0.0216678735
-0.0727848411
-0.0923203453
0.1136047915
0.0562544651
0.0977335721
-0.0567654707
-0.0063797776
0.0230316445
0.0068050940
0.1374589503
0.0197123829
0.0811562538
0.1458340883
-0.1656230390
-0.0313370563
0.0698543191
0.0596659370
0.0476989932
0.1670570523
0.0260770507
-0.0066321809
-0.0997578800
-0.1153420582
-0.0299953111
-0.0581643581
-0.2785928547
-0.0593671724
-0.0190467946
-0.1177833676
0.0291135535
0.0139635801
-0.0115210628
-0.1253689677
0.2164539844
0.1017858982
0.0089857271
-0.0111668827
0.0872592106
-0.0150728794
-0.0493522808
-0.0012264651
0.0435924083
-0.0861961395
-0.1226027310
-0.0527971089
-0.1319017708
0.0083337473
0.0713796765
0.1686237156
-0.0049484172
-0.0980339199
-0.0601973645
0.1262797266
-0.0512280799
-0.0096978387
0.1053436697
-0.0280096270
0.0620666966
-0.0365108401
0.0424168855
-0.2078996748
0.0273718834
0.0558490083
0.0623041354
0.1507569700
0.0064375820
0.0440618284
0.0085337302
-0.0078020552
-0.1709686369
-0.0584473126
-0.1078833863
0.1009843275
-0.1514743865
-0.0478992090
0.1472241580
-0.0834453553
-0.0426375642
0.0769513622
0.1155704558
-0.0290519763
0.1251507401
0.1760512143
0.0546631925
-0.1644778550
0.0374931395
0.0320378318
0.0878674611
0.0307040382
0.2419417948
0.2246692181
0.0060208715
0.0508946367
0.1149628460
0.0300314855
-0.0513893813
-0.0070280624
0.0621938892
0.0934595615
-0.0666924790
0.0813066065
-0.0841886848
0.0239956435
-0.0945494473
0.0612333827
-0.0379035883
0.0420787111
-0.0762697011
-0.1069085523
0.0125039695
-0.0513116792
0.0663015842
-0.0768139958
0.0026955751
0.1846909970
0.0515662283
0.0237032343
0.0821092725
-0.1221876442
-0.0160077363
-0.1319231838
0.1310646385
-0.0658768713
-0.0910911113
0.0036059644
0.0056786779
0.0015601495
0.0827645063
0.0766121149
0.0176361315
-0.0642124042
0.0298427474
0.0788870007
0.0577312112
0.1936230063
0.0106530273
-0.0328693949
0.0630679876
-0.0548764095
-0.0489809886
-0.0446054675
-0.0015630908
-0.0359175019
-0.2073623687
-0.1535694301
-0.0390224569
0.0520921983
0.0622240640
0.0135005079
0.0476620607
0.1562033594
-0.0602561347
-0.0128983688
-0.0624795817
-0.0734737143
0.0039510988
-0.0213025995
0.1164390370
0.1557403654
-0.0059699803
-0.0082385736
-0.0255254116
-0.1369373202
0.0245055575
-0.1249346659
-0.0213331524
-0.1013721004
-0.0235297475
0.0994170681
0.0627222508
-0.0014442712
0.0259885378
0.1020215228
-0.0653056055
0.0979415700
0.0943765193
0.0122171193
-0.0768714249
0.0011644313
0.0624975972
-0.1448103637
-0.0101907738
-0.0203508697
0.0405837148
0.0886249915
-0.1079565138
-0.0138186580
0.0986045226
-0.0284081381
0.0506752469
-0.1725045592
0.0503666513
0.0194237698
-0.1707403213
-0.1681372970
0.0394064449
-0.0486429520
-0.1504506469
0.1609535366
-0.1167058498
0.0195087660
-0.1252233386
0.0194742475
-0.0481740199
0.1185346767
-0.0604239367
0.0367795378
-0.0729881376
0.0644231215
-0.0011222190
-0.0124772517
0.0428893231
0.0182868931
0.0111580826
0.0874869451
0.1462522596
-0.1175433844
0.1515594572
0.1535459906
0.0279052909
0.1519542634
0.0842126459
0.0929175168
0.0747082531
-0.1076360643
-0.0650123879
0.0706925765
-0.1419609636
-0.1718061864
-0.0064905738
0.0961816013
-0.0321169235
-0.0340367369
0.0752296969
-0.1102364808
0.0124829113
-0.0028590497
0.1568599492
0.0806695148
0.0209832862
-0.0099575846
-0.1260010600
-0.1916331202
0.1835201383
0.0675567091
-0.1117081046
-0.0989158079
0.0786193311
-0.0224526189
-0.0194250159
0.1609145701
-0.0611967593
-0.1478781849
0.1125951335
-0.1093724817
0.0376531631
0.1264520586
-0.1202905104
-0.0721963122
-0.0373598263
0.0054697096
0.0355642587
-0.0030201252
0.0790025368
-0.0643474013
0.1915093660
0.0035085948
0.0623244345
-0.0276564676
-0.0220670346
0.0918063521
-0.0649999455
0.0973922014
-0.0009735018
-0.1856682450
0.1325979084
0.0881002769
-0.0674191937
-0.1645595729
0.0561144873
0.1112389639
0.0601629093
-0.1214613467
-0.0329531580
0.0032158822
0.0755705982
-0.0348155834
-0.1625369489
-0.1153103784
-0.0530750193
0.0053285370
-0.0452963598
0.0628469288
0.0634772107
0.0635418445
-0.0969264805
-0.1151144803
0.1616693288
-0.1491009146
0.0824397951
-0.0260595027
-0.0950735435
-0.0777702257
-0.0818859637
0.0782141238
-0.0803159103
0.1174356043
0.0801997334
-0.0753023326
0.0271133892
0.0185792278
0.0370846279
0.0732536912
0.0570433959
0.0454170667
0.0328653045
-0.0373818018
-0.1535470337
0.1007526070
0.0566396005
0.0445772484
0.2676990330
-0.0558131821
0.0552415960
-0.1830477566
-0.0403024815
0.0026148299
-0.0041445587
0.1573220044
-0.0797618702
0.1350277811
0.0790539682
0.0498221368
0.1527760178
0.0308995936
-0.0209431034
0.0322667435
0.0413564555
0.0127950795
0.1249183044
0.0807501897
-0.0843087658
-0.1023624986
-0.0646851957
0.2189387828
-0.1613211930
0.0308771972
0.0076573570
0.0941739455
-0.0253379866
0.0990228355
0.0684836358
-0.0136809368
0.1467816383
0.0890132710
-0.1089756414
-0.0436330400
-0.0248471741
-0.1045290381
0.0743265525
0.0776845515
-0.0825301781
-0.0885429680
-0.1018906832
-0.0731055886
-0.0661086962
-0.0391919985
0.1148510501
-0.0713550001
-0.0697210357
0.0700185299
-0.0156425796
0.0408248045
0.0225203000
0.0030579544
-0.1390607059
0.0156157725
0.1576320529
0.0415005796
0.0012247884
-0.0314753242
0.0665262714
0.1859160662
0.0387075134
-0.0098856408
0.1333233863
0.1503361166
0.0929570347
-0.0072390297
-0.1125990450
-0.0076865205
0.0132294241
0.0655902326
-0.1257723272
0.0146677531
-0.0450076424
-0.0752457827
0.1045585200
-0.0062391832
-0.1209279001
0.0475983173
0.1074947417
-0.0619636849
-0.1116982177
0.0375768766
-0.0725269616
0.0993577689
0.0244428050
0.0395336933
-0.0161504038
0.0345031396
-0.0575854070
0.0116349822
0.0220543016
-0.1596961319
-0.1239887327
-0.0956822634
0.0380908214
-0.1125722006
0.0521057434
-0.0234732181
-0.1312663853
-0.0596156418
0.0829801336
0.1467686743
-0.0188805889
-0.1170431152
0.0427665748
0.0068778079
0.0084445598
0.0076258304
0.0654117018
0.0412105247
-0.0460512154
-0.1360014826
-0.0249027554
0.0038623665
0.1059461311
0.1022197083
-0.0237956960
-0.1646778882
-0.1224425882
0.0387037247
-0.0526782982
0.1609211713
-0.0761188939
0.0494096242
0.0096576978
-0.0606042780
0.1533041745
-0.0614177175
-0.0028609892
0.0942823663
-0.0284344237
0.0707764998
-0.0344924480
-0.2012570649
0.0774878114
0.0257134475
0.0590883866
-0.0146993203
-0.0497222431
-0.1989432573
0.0755631328
0.0289374385
0.0226076338
-0.0011428489
0.0136928968
0.0056520482
0.0489043556
0.0022168832
0.0026168115
0.0244180541
0.0370937437
0.0892082080
0.0897524506
-0.1696077138
0.1161414981
0.0756911486
0.1451038420
0.0149627384
-0.0597424507
0.0633702725
-0.1978252232
0.0527681597
-0.1006977856
0.0815886632
0.0611885004
0.1654736996
-0.0768429935
0.0802583992
0.0590471327
-0.0476811491
0.2360494584
0.1401481777
0.0807366297
0.0402377248
-0.0143767819
0.0684636086
-0.0211776011
-0.1751156896
0.0183899142
-0.0707926750
0.1524596363
0.0632257238
0.1169783622
-0.1029909030
0.0007971827
-0.1281316429
0.1365979612
0.0799433440
-0.0663150102
0.0224576704
-0.0345504060
-0.1155091077
-0.0178559385
-0.0167344380
-0.0482231155
0.1424480826
-0.1257288456
-0.1226584911
-0.0070869927
-0.1033445895
-0.0221519489
-0.0808674917
0.0237028170
-0.0781133249
0.1067030504
0.0515078790
0.0243257098
0.0602602400
-0.1204270497
0.0105061559
-0.0150092011
0.1117677018
-0.0159274861
0.1837600470
-0.0395347513
0.1021201760
-0.0013560416
0.0861273259
-0.0057885139
0.0956253707
-0.0465545245
-0.1130285040
0.1260618716
-0.0575675443
-0.1621789485
0.0898625702
0.0299263243
0.1279900968
0.0681221634
0.0381408818
0.0360204242
0.0738412589
0.0682519898
0.0779110640
-0.1238744855
-0.0483609661
-0.1393626034
0.0109178806
-0.0915626809
0.0998208299
-0.0521297306
0.0587592274
0.1154002771
0.1543909609
0.0433627181
0.0026873315
0.0437859632
0.0404206179
-0.1736743748
-0.1827958077
-0.1490952820
0.0344953910
-0.0440958776
0.0268110912
0.0640906096
-0.1646603644
-0.1394966245
0.0972128958
0.1109427363
0.0943701863
-0.0103641618
0.0271542873
0.1595279723
0.0986447483
0.0391246378
-0.0117662456
-0.0319987573
0.0414834023
-0.1558358967
0.1063951254
-0.0452759117
-0.1278325319
0.0631676465
0.0644171983
0.1283054203
-0.0794289559
0.0435645394
-0.1246500388
0.0474401526
0.1101308465
0.0730189532
0.0442648456
-0.1521979868
0.0384841710
-0.0363242738
-0.0660672858
0.1556861699
-0.0581355840
0.1243006736
-0.0834609643
-0.0172987208
0.0493276119
-0.0269512311
0.1047788411
0.0602920204
0.0897106975
0.0188157093
-0.0629712045
-0.0630807206
-0.1240140200
0.1136673018
0.0256500244
-0.1004447788
-0.1151461303
-0.1028723568
-0.0544941463
0.0727698356
0.1282657385
0.1069057435
-0.1208525971
0.1744399369
0.0505199507
0.1225433424
-0.0042409739
-0.1504085362
0.0835693106
-0.0322297327
0.0095412517
0.0946527496
-0.1254474074
0.0432139263
-0.0734628513
-0.0164836440
-0.0942984447
-0.0793715641
-0.0067913551
0.0782335475
-0.1266584694
-0.1596298963
-0.1178036556
-0.1161849871
0.0786878690
0.0360315479
-0.0288415235
0.0650956705
0.0529698804
-0.0841881111
-0.0575254261
-0.0516541488
-0.0054510999
-0.0321966112
0.1222551689
0.0929608047
0.0539636984
0.0356467701
-0.1086061224
0.1666991115
-0.0886386409
-0.1219187975
-0.0887903422
-0.0364798009
0.0478969328
-0.0570410341
0.0311464909
-0.1087405458
0.1734043956
-0.1297705323
0.0160462651
0.1752004176
-0.0864279866
0.0484594479
-0.1731507033
-0.0121156126
-0.1881708950
0.0183570571
0.1964928955
0.1129349172
0.1540616304
-0.0757225603
-0.0152547890
0.0138479834
0.0689841211
0.1174881533
0.0707069784
0.0172099229
0.0305652823
-0.0574002601
0.0907157212
-0.0204041377
-0.0003953314
0.1387206167
0.1045306996
-0.0425319038
0.0962901935
-0.0752249435
0.1067148000
-0.0507454053
0.0092995306
0.0985578299
-0.1483207345
0.1353078485
-0.0282783918
-0.0709587261
0.1052714437
-0.0226672199
-0.1337997615
0.1530160159
-0.0218250137
-0.0658788234
0.0520813316
-0.0216587670
0.1353549212
-0.0883269757
-0.0848685205
-0.0790276453
-0.0149151338
0.0929420441
0.1782659739
-0.2070085108
0.0691090897
-0.1028127298
0.1020706221
-0.0478301197
0.0253039096
0.0038644532
0.0832180008
-0.0818423480
-0.0273351278
-0.0567910522
0.0174058937
0.1116521060
-0.0023697705
-0.0073548411
-0.0225038528
0.1801008731
0.0779735148
-0.0848263726
0.0279029682
0.0167085081
-0.0252323188
0.1583746374
0.1023257002
-0.1369743198
0.1463984847
0.1693081856
0.0600386597
-0.0788642094
-0.1257133335
0.0026426918
-0.0646162331
-0.0750470832
-0.0905694962
-0.0454370342
-0.0107593052
0.1040433049
0.0627044663
0.0209391359
0.0622369610
-0.1108890474
0.0954045057
0.0392805301
-0.1290051788
-0.0967701450
0.0249193553
0.1730795354
-0.0200764891
0.1666072905
0.0376296453
0.0384001955
0.1693066806
0.1160675511
-0.1330078840
-0.0710047036
-0.0472401567
-0.1262723953
-0.1050972492
-0.0897914618
-0.0729935691
0.1270544678
-0.1381888688
-0.1042863503
-0.0160345286
0.1638849974
0.0417108238
0.0181174353
-0.0707937926
0.0742121935
-0.0660608187
-0.1154899076
-0.0859461427
-0.1086549759
0.0923239812
-0.0769684762
0.1748909056
-0.0265375748
-0.1718005091
0.1239597350
-0.2011720687
0.0396251865
0.0319793001
0.0965699479
-0.1132443920
-0.0344863869
-0.0206207000
0.1363272965
-0.1667809337
0.0366689339
0.0535728633
0.0543567538
0.1147437766
-0.1009159461
-0.1073333248
0.0722821802
-0.0357579552
0.0617346913
-0.0251080766
-0.1512091905
0.1635556966
-0.1826244891
0.0244287420
-0.0090141166
0.1229418740
0.0038203872
-0.0220819805
-0.0757275894
0.1647611409
0.0872917622
-0.0237785317
0.0451585539
-0.0862841010
0.0091196438
0.1271193624
-0.0236432292
0.1807946712
0.1265772283
0.0553748645
0.1359972656
-0.0853884667
0.1974437535
-0.0375086069
0.0320354402
-0.1298814565
0.0601757243
0.0311673079
-0.0812457129
0.0545708463
-0.0131119937
-0.0072294804
-0.0805901438
-0.1487654895
0.0661401227
-0.1222176850
-0.1042829454
-0.0527518764
-0.0561957769
0.0037822230
0.0358684026
-0.0731628388
0.0595991984
-0.1018157378
0.0427204929
-0.0712681785
0.1372484714
0.0574057475
0.0122253057
-0.0892284289
0.0216410514
0.0027932329
0.0042169057
0.0951904655
0.0224956740
0.1676080823
-0.0316229761
0.0631272420
0.0989605635
0.0647204444
0.1463269442
-0.0204368439
0.1985261589
-0.1705695540
-0.1095780507
0.0348734111
0.0000180320
-0.1214234531
-0.1009613052
0.1617068499
-0.1776858419
0.0502650551
0.0477008782
-0.0608156472
-0.0505741909
-0.0840225965
-0.0474057123
-0.0363510996
0.0240880754
0.0613288023
-0.0630949438
0.0448392630
-0.1178914607
-0.0085833892
0.1303616166
0.0444259010
0.0279956087
0.1690664738
-0.0715554431
-0.1554106325
0.0639943704
0.1647887975
0.0124353375
-0.0340836309
-0.1225592196
-0.0770735517
0.0489826985
-0.0139966737
-0.0109533574
-0.0924598053
-0.0125236567
0.0930853784
-0.0970451534
-0.0107380226
-0.0670893863
-0.1121540070
0.0335456021
0.1025523543
-0.0832342058
-0.1634359956
-0.0202373080
-0.1066758633
-0.0975020677
0.0196959544
-0.2030619383
-0.0297974572
-0.1218146011
-0.1161570773
-0.0239489619
0.0645545274
0.0171404220
-0.0433008187
0.1860122085
0.1468977183
-0.0666489378
-0.0782195926
-0.0452368446
0.0621629357
-0.0331994519
0.0681813657
-0.0285248496
0.0419649892
0.2045833021
0.0484506860
-0.1012822688
0.1020502299
0.0537967533
-0.1435877085
0.1206508279
0.0552972555
-0.0674302578
0.0232131537
-0.0946655422
-0.0991981775
0.0369783081
0.0877376944
0.0380274393
-0.0211625434
0.0695465803
0.0356264822
-0.0033624833
0.1232876927
0.0159251019
-0.0329811536
-0.0348944515
-0.0531691276
0.0210617837
0.0378396958
-0.1359610707
0.0396897309
0.1901612282
0.0384275801
-0.0963866264
0.0704622120
-0.0972859412
0.0831305757
0.0036730797
0.0405067503
0.0820614845
0.0922282040
-0.1097855195
-0.1158172563
-0.0205647182
0.0041707363
0.0911399871
0.0856408775
-0.1238543019
-0.0318904482
0.1988240033
0.0504486039
0.0464704372
0.0328787826
0.0388371423
0.0234720837
-0.0535883605
-0.0237902161
0.1662526727
0.0561989024
-0.0498033911
0.1384947598
0.0877839625
0.0941156819
-0.0358678885
0.0769916400
-0.0823459998
-0.0460122898
0.0477023534
0.0305913407
-0.1186203659
-0.0243724901
-0.1149968132
0.1093042269
-0.0098053059
-0.1476065814
-0.0810833424
-0.0563508235
0.0644265562
-0.0134634739
0.0192645174
0.0153948758
-0.0589827932
0.0152023090
-0.2072161138
-0.1127518117
-0.0657977834
0.2188522369
-0.0779579505
0.1255915314
-0.0322241485
-0.0831171870
0.1038275212
-0.1308627576
-0.0020797520
-0.1397501677
-0.1229780018
0.0027350138
-0.0636521280
0.0494843759
-0.0348205715
-0.0149239646
-0.1192860380
0.0580516644
0.0779067948
0.0841216519
-0.0240301955
-0.2593970001
0.1233458072
-0.0349325836
0.2174563855
-0.0063772309
-0.0776081905
-0.1082529575
0.0002554325
0.1163037047
0.0082776053
-0.0565618575
-0.0165765211
0.0046689510
0.0896469355
0.2460771203
0.0128801055
-0.0943613425
0.0913282856
-0.0419596545
-0.0573759414
0.0947510228
-0.0710792765
0.0456821807
0.0766583607
0.0838948190
-0.0190515276
-0.0944509134
0.0588406995
-0.0651274845
0.0184200015
-0.0387846194
0.0284354426
-0.0335995667
-0.0406212993
0.1384258717
0.0932178274
-0.0797786266
-0.0810899585
-0.0845652893
0.0966790393
-0.0969123542
-0.0090657277
-0.1177189723
-0.1883194149
-0.1818600148
0.1559274644
-0.0881637186
0.0224008597
-0.1039384902
0.0077296342
0.0694178343
-0.0465721525
-0.0263156518
-0.2069445103
0.0690342486
-0.0640212968
-0.1262233257
-0.0631010383
-0.0177032240
-0.0115384497
0.0040476522
-0.0384767763
0.0086147999
-0.0005245682
0.0055625099
0.0240256544
-0.0884623155
-0.0606860779
0.0168879051
-0.1035313234
-0.0649739206
0.0855686963
0.1095524356
-0.0627846047
0.0151902577
-0.0791376308
-0.1489025056
0.0686335117
0.0960211083
0.0290095769
0.0421460271
-0.0299428403
-0.2090319395
-0.0594609641
-0.1791037172
0.1029001996
0.1863680780
-0.0751807913
-0.0613405444
0.0951225609
0.0959607586
-0.0475828536
0.1262204200
0.0280008521
-0.0241452325
-0.0853739157
0.1751112938
0.0832185075
-0.0428334475
-0.0236654337
-0.0205916911
0.0773354098
-0.1101435572
-0.1383524239
-0.1106556132
0.0093100015
0.0707154572
-0.0619448051
0.0588669777
-0.0374162793
-0.1092590690
-0.0024047710
0.0972714499
-0.1187915280
0.0529785119
-0.1804821938
-0.0434706323
-0.0825146288
0.0365087986
0.0923732966
0.0542165339
-0.0551247858
0.0463982187
-0.0387645438
0.0041191918
0.0499647483
-0.1199521944
0.1792605370
-0.0181545448
-0.0966288000
0.0209036283
-0.1017272398
0.0412257500
-0.1205545440
-0.0484582819
0.0439787135
0.0596627109
-0.0991881266
0.1354899108
-0.0215815585
0.0567418709
-0.0611001030
0.0071154139
-0.1568803489
-0.1081328988
0.0564865507
0.0008248533
0.0590023659
0.0304512698
-0.2581444979
0.0909954384
0.1466920376
-0.0285989642
0.1130652353
-0.0631283298
0.0934477746
0.0145624634
-0.0519211739
-0.1375087947
-0.0001624146
-0.0140414340
-0.1680864543
-0.0666432232
0.0603710636
0.0414720476
0.1037755907
0.0789371431
-0.1062762812
0.0054047452
0.2152640969
0.1495822519
-0.1330260783
0.0386841409
0.1300039440
0.2436979264
-0.0627835765
-0.0704200119
-0.0042835786
0.0282949470
-0.0117906909
-0.0381996930
0.0943550766
-0.1081573963
0.0338396244
0.1468395591
-0.0064632283
0.0195903052
-0.1186601073
0.2069154531
0.0784525275
-0.0617247187
0.0520946644
0.1848626435
0.0320800245
-0.0649509504
0.1833247691
0.0698259398
0.0829221681
0.0172564723
0.1299619824
0.0077070561
0.0253081452
0.0869244039
-0.0100525180
-0.0697947592
-0.0905705467
-0.0396621414
0.0973219052
0.0802406892
0.0245202780
-0.1221834198
0.1280668527
-0.0273572560
0.0017965827
-0.0707862526
-0.0935262367
-0.1709231734
-0.1107920259
0.0017078026
0.0185644291
0.1001149416
0.0676271841
0.1190290973
-0.0385164693
-0.1235710680
0.0773975253
-0.1763259470
-0.0058974265
-0.0706522539
0.0686973780
0.0933673903
-0.0712930039
-0.0169901326
0.0626310185
-0.1217956841
0.0499314442
0.0352340899
0.1740713567
0.0937831029
0.0085524563
-0.1252151728
0.1874133945
0.1269271523
0.1019360572
0.0695722178
-0.0363393649
0.0017067670
-0.1897409111
0.1709255427
0.0707935318
-0.1125286967
0.1358763874
-0.0658574700
0.0449779183
0.1129224673
0.0811872408
0.1062049121
-0.0027663852
-0.0283712409
-0.0011501474
-0.0095432587
-0.0867567733
0.0985094905
0.0425825715
-0.0655673817
0.0425263382
0.0060439929
0.0349157788
-0.1202878952
-0.1144720092
0.0856600404
-0.1101960540
0.0072467225
-0.0934797227
-0.0552936941
-0.1351302862
-0.1049313918
-0.0866752267
0.0055068233
-0.0056817047
0.0136229480
-0.0221414696
-0.1238061264
-0.1971629113
-0.0610771514
-0.0651778132
0.0661733970
0.1827219278
-0.0374327935
0.0115649970
-0.0871046633
0.1004526839
-0.0063171284
0.0422918685
-0.0003740026
0.1110062301
-0.0278472826
0.0432546921
0.1479354352
0.1589847505
0.0748927295
-0.0637414157
0.0066110720
0.0358407311
-0.1436457336
0.0871438161
0.0149640050
0.1223032549
-0.0283695236
0.0542849153
0.0249478351
0.1068693250
0.0808314160
-0.1094473153
0.1006188616
0.0980377421
0.1158097535
0.1280236989
0.1324040592
-0.0219058450
-0.0730066597
-0.1712482572
0.0494448766
0.0762316883
-0.0456073135
-0.0358958654
0.0294976309
0.0666868016
0.0642178580
0.0075345645
0.0444408096
-0.1689980030
-0.1090777069
0.0746205077
-0.0323510282
-0.0809185207
-0.0338082053
-0.0228050873
-0.1765399873
-0.0739050806
0.1700048745
-0.1120239869
0.0824217945
-0.1056608781
-0.0195829999
-0.2262874097
-0.1075820699
0.1437551528
-0.0537441596
0.0311126262
0.0771873593
-0.1183345839
-0.0212866459
0.0672514662
0.1232078299
0.1567361355
-0.0872951597
-0.0040924205
0.0170223117
-0.0033194739
-0.1010374501
-0.0361749455
-0.0108184461
0.0709460750
0.0385869220
-0.0594641529
0.1060181782
-0.0209858641
-0.0682699531
0.1451363266
-0.1231657267
0.0426530242
-0.0246598460
-0.0283298474
0.1382235140
-0.0846548006
0.1717315465
-0.0660122558
-0.0535492413
0.0569726564
-0.1254891455
-0.0550551191
0.0082109598
0.0760804489
-0.1672083437
-0.1648912877
-0.1545292288
0.0667257980
-0.0295849666
-0.0927961692
-0.1152306125
-0.0515505224
0.0210157353
-0.1462937146
-0.0167434812
-0.0160965435
0.0953911915
-0.1011881083
-0.0399040356
0.0689606220
0.1348229796
-0.0763277858
-0.1223437563
0.0715449974
-0.1566666961
-0.1492906213
-0.1600639969
0.1401098371
0.0955445766
-0.0135134207
-0.0517300963
0.1431512833
0.0574562997
-0.1073147580
-0.2502934337
-0.0478873737
-0.0353769101
-0.0063530910
0.0802802294
0.0636045560
0.0935815126
-0.0813056156
0.0037639181
0.1488558948
0.0076471884
0.1515464336
0.0368484557
0.0529999807
-0.1720990390
-0.1005424783
-0.0857603997
0.1020082980
-0.0845654011
0.0741301104
0.0100262072
-0.0237870496
-0.0279184114
-0.0122266039
0.0961306915
-0.0505065098
-0.0654994249
0.0972475708
0.0685131773
0.0416980311
-0.0144790327
-0.0027617728
0.1647730470
-0.0341074951
-0.0827347338
0.1429023892
0.0702748522
-0.0695076883
0.1285249889
0.0024233246
-0.0644285828
0.1185135320
-0.0145100206
-0.0711179078
0.0575578958
-0.0564009771
-0.1108181477
-0.0693823695
-0.1375983804
-0.1416316032
-0.1441707015
0.0745336041
0.0055684908
-0.0929884985
0.0137917353
0.0617928207
-0.0674891695
-0.0596913397
0.0940007418
-0.1050322726
-0.0876683295
-0.0373554304
-0.0060021183
-0.0276103429
0.0752213746
0.0457741283
-0.0068435054
0.0395619385
-0.0385144129
0.1254257858
0.1092354283
-0.0581676885
-0.2036479563
0.2224057168
0.0388742648
-0.1561554074
-0.0200649016
0.0625413358
-0.0592557713
-0.0770706832
-0.0619553216
-0.1017679274
0.0044919001
0.1230227649
0.0974348933
-0.1125690043
-0.0042965868
0.1384439319
-0.0124009131
0.0745642111
0.0194261298
0.0526876189
-0.0429370590
-0.0449578390
0.0546674915
0.0176736955
0.1020758972
0.0558595434
-0.0996577740
0.1639200151
0.1167250350
0.0227034092
0.1095910966
-0.0330761559
0.1046900004
-0.1004040018
-0.1241977736
-0.1435217857
-0.0074098287
0.0044343621
-0.1292306781
0.0254405998
0.0044425195
-0.1166086420
0.1030308008
0.1460978836
0.0798476636
-0.0502092652
-0.1392200142
0.0913980082
0.0609151162
-0.1526195854
0.0264075343
0.0981359258
-0.0708947107
-0.1445414573
-0.0514250137
0.0956050307
-0.0124365659
-0.0593461841
-0.0369402356
-0.0944009423
0.0659780651
0.0287178978
0.0858923644
0.2001856714
-0.1293203831
-0.0674424469
0.0131486859
-0.1271033585
-0.0596113354
-0.0069118878
0.0590742752
0.0581787676
0.0544018932
0.1971168965
-0.0132112354
-0.0635502487
-0.1728555411
-0.0284388606
-0.0374792330
0.0288387239
-0.0590509623
0.1738938242
-0.0338600650
-0.0076100919
-0.1063797623
-0.0600636937
-0.0818692148
0.2302635610
-0.0892528147
-0.0247889329
-0.1782959998
-0.1299517006
-0.0203013793
0.0302557647
0.2149830610
0.0320208408
0.0935052112
-0.1071165949
-0.0525956862
0.1237589493
-0.1705651879
0.0275402851
-0.0725676045
-0.0225167125
0.0428928286
-0.0511993319
-0.1455848515
0.0422806442
-0.1224356443
-0.0370624326
0.0659931302
0.0328011997
-0.1527471989
0.1407300681
0.0086764442
0.1061719656
-0.0654195026
0.1337563843
0.0326023586
0.0009226114
0.1278191358
-0.0447105840
-0.0089517189
-0.0777653530
-0.0132601196
0.1967830658
-0.1027250364
0.0456515588
0.1362911314
0.0631130189
0.1286652237
-0.0645827353
0.0715760216
-0.1117632985
0.0229982045
-0.0929248929
0.1035701036
0.1283068657
0.1156364754
-0.0299056973
-0.0820033774
0.1269732416
-0.1206299514
0.2286408395
0.0330321006
0.0948003680
-0.0331635699
-0.0340905711
0.0876307935
-0.0582238697
-0.1290442795
0.0424605161
-0.0094649615
0.1287255138
0.0841230452
-0.0843258426
-0.0599890575
-0.0106598409
-0.1644321084
0.0817282274
-0.0407917798
0.0436082333
-0.0745594203
0.0344465934
0.0131039722
-0.1061727554
-0.1161030978
0.0220812764
0.1487011611
-0.0041155303
0.0745160431
-0.0694626346
0.0316791162
0.0975879729
0.0162946060
0.0331244282
-0.1497037411
-0.1687248051
-0.0399777107
0.1610794365
-0.0155665362
-0.0718315691
0.1780423522
0.0264089126
0.0051975618
0.0348190963
0.2112092972
-0.0953493118
-0.0113721900
0.0793221593
0.0016076881
0.1394791901
0.0541877039
0.0019466690
0.0355495661
0.0573253185
-0.0006646750
-0.1497394592
-0.0490679070
0.0742724836
0.0539511479
0.1192706302
0.0409640037
0.0462789983
0.0150626842
0.1215130910
-0.0790209994
-0.1129388213
0.1048776060
-0.2041091174
-0.0766115934
-0.0613299794
0.0207424350
-0.0358850844
0.0272271000
-0.0305153355
0.0422765724
-0.1293251067
0.1066734940
-0.0444322452
-0.1426572353
0.0228148326
-0.1007272378
0.0341397785
0.0116675477
0.1087763682
0.0154596064
0.0220518969
0.0429502279
0.0408910736
0.1089105010
0.1767142564
-0.0155381681
0.2177003175
-0.0814956352
0.0864449814
0.0808203667
0.0238410886
-0.0427540578
0.1289716661
0.0993920937
0.0032778690
-0.0667121112
0.0413275957
-0.0588277429
-0.1123253629
0.0212440938
0.0838974491
-0.0599413738
0.0188790411
0.0463571735
-0.1759164482
-0.0905057341
0.2019662112
0.0714917183
-0.0839984789
0.0850191861
-0.0285034664
-0.0299117919
0.0698027238
0.1479541957
-0.0063132485
0.0673523247
-0.0620469265
-0.1758483201
-0.1243740544
0.1169489846
-0.0962109119
0.0297569130
-0.0766696557
-0.0989328772
0.0148949707
-0.1344593167
0.0815642402
0.0453656912
-0.0395430438
-0.1654147357
-0.0738162547
0.0168595966
-0.0108115692
0.0905030593
0.0388365090
0.0118177105
-0.0068128062
-0.0667659417
0.1120661646
0.1452097744
0.0441300608
-0.0568421111
-0.1274200380
-0.0375898741
0.1758639961
0.0806842744
0.0033746269
-0.0668851882
0.0215634517
-0.1346361786
0.0094023189
0.0735475793
0.0423903950
0.1109208167
-0.0170333814
-0.0580040105
0.0175575875
-0.0597547218
-0.0308035072
-0.0138101066
0.2327041924
-0.0146077508
0.1132190675
-0.0251825880
0.0799332410
0.1207943484
0.0591836609
-0.0142181627
-0.1123216152
-0.0668987408
0.0419725738
-0.0204535872
0.0571746081
0.0957643017
-0.0929535702
-0.1364644915
-0.1189540476
0.1756273955
-0.0677021593
-0.0244986452
0.0873818547
0.0944035724
0.0764918625
-0.0234044548
-0.1266632229
-0.1297986209
-0.0627987310
0.1627437174
-0.1612240076
-0.0223968681
-0.1396189779
0.0612182841
-0.1617224962
-0.1018725857
0.0478273816
0.1515435427
0.0166859198
0.1225877330
-0.1153884530
0.0295245647
0.0427347533
0.1108025461
0.1059562266
-0.0767602101
0.0076773237
-0.0225033164
0.0039831488
0.0619471781
-0.0531349629
-0.0654584765
0.1471140385
0.0779753104
-0.0622258820
0.0943804458
0.1063257158
-0.1661340147
0.0854353309
-0.0235417988
-0.0365106165
0.0109884944
-0.0972656310
0.1819974780
0.0241166577
-0.0210706573
-0.0867939815
0.1038098186
-0.0491098501
0.0536908619
0.0223297793
0.0454575494
0.0299879927
-0.1699750423
0.0404242985
-0.1005469710
0.0426092558
0.0085721686
-0.0299711674
-0.1794633269
0.0596596487
-0.0609717593
-0.0898577645
-0.0207218621
-0.1044191867
-0.0000321576
-0.0748959631
-0.0356731340
0.0543159619
0.0790651217
-0.1305174232
0.0078432085
0.0590021163
-0.2315186560
-0.0457979478
-0.1169492826
0.1502512842
0.0548061132
-0.0514529347
-0.0052036475
-0.0008658845
-0.0222031176
0.2082663029
0.0649885386
-0.1309082657
0.1024272367
0.1691002846
0.0130682858
-0.0796486139
-0.0417441651
-0.0818257853
0.0408332795
-0.1105444059
0.1846000105
-0.0568729863
0.0900413841
-0.0751442537
0.0677673966
-0.0039167600
-0.1261606514
-0.0272291005
-0.0182591956
-0.0684941784
0.0067638895
0.1125821993
-0.1533611715
-0.1887824088
-0.0876315013
0.0198125914
0.1356746405
0.0438526012
0.0144545110
-0.0091221994
0.0952487141
0.0785492286
-0.0585537739
0.0776684210
-0.0074857650
-0.0196815748
-0.1111878008
0.0377152264
-0.0272416826
-0.0162334349
0.0489076115
0.1235587299
-0.2499147207
0.0302414559
0.0451181903
-0.0244674180
0.0301019941
-0.0960796773
0.1552649289
0.1460251361
-0.0224477481
0.1275267303
0.0271873083
0.0210303646
0.0732868984
-0.0213578492
-0.0224138014
0.1608857810
-0.1227222830
0.0803338066
-0.0188018661
0.1330776960
-0.0251694527
0.0494368672
-0.0976641998
-0.0694660023
-0.0195858236
0.0555611514
-0.0386993177
-0.0726436824
-0.0545248911
-0.1814151406
0.1169483662
0.0025037418
0.0106929736
0.0819247290
0.0659561232
0.1079105139
-0.1325675845
0.0265093204
0.0145385722
0.2060302794
0.0146779213
-0.0409637801
0.0139387622
-0.0846444145
0.1932417154
0.0132832117
-0.0908611044
0.0582334250
0.0384866521
0.0278194640
-0.0470417887
0.0376647376
-0.0697865710
0.0640800968
0.1249284148
0.1222090125
0.0814139470
0.0384651721
-0.1284084469
-0.0426746160
-0.0292934254
-0.0917136297
-0.0513873957
0.0436886400
-0.0477754027
0.1376273036
0.0836031586
-0.0894594118
-0.0182392299
0.0884868056
0.0922904909
0.1421114206
0.0248563867
0.0546354353
-0.1051307544
-0.0144381914
-0.0540431067
-0.0257170834
-0.0460257120
0.0743543953
-0.0737903714
-0.0766444877
0.1052725315
-0.1282009035
0.1371733695
-0.0685394555
0.1706007421
-0.0174985174
-0.1029001996
-0.1185063496
-0.0500088111
0.1899039447
-0.0788041130
-0.0419072770
-0.0805501416
-0.0615796745
-0.0779572651
-0.0963653475
0.0413743146
-0.0501171052
-0.0305433981
-0.1708715260
-0.0521183088
-0.1174498200
0.1008963585
0.0723610744
0.0019138247
0.1490628123
0.0100596566
-0.0715389401
-0.0133639369
0.0227361899
0.0656909347
0.0224717371
-0.0396107100
-0.0379923247
0.0056930371
-0.0829278678
-0.1045382544
0.1192699224
0.0078222798
-0.0096093686
0.1605484933
0.0448719189
-0.1431417763
-0.0120482426
0.0320338868
0.2166572809
-0.0334395766
-0.0009495538
0.1567949802
0.0579672121
-0.0533178709
0.0291969534
-0.0148538295
0.0916932076
-0.0845388770
0.0394475386
-0.0879362226
0.0846300051
-0.0669896379
0.0824866816
-0.0648596063
-0.0250002947
0.1375671625
-0.0109060127
-0.1580175608
-0.0694200471
0.0370329954
-0.1331600249
0.0596162863
-0.2133605182
0.0908253193
-0.1408459544
0.0971832201
-0.1204205975
-0.0756156221
0.0709040239
-0.0154529102
-0.0779340342
0.0368694142
0.1682901978
-0.0819066167
-0.1178790256
-0.0185099617
0.1072944850
-0.0718025491
-0.0086707743
0.1191990823
0.0412629098
0.0853204131
0.0102417832
-0.0315071084
0.1557839215
0.1572059840
-0.0103002349
-0.1124214008
0.0276652575
-0.0130512975
-0.0249909330
0.0905700848
0.0854175538
0.0031962206
-0.0697349533
-0.1241590008
0.0225261599
0.1265180856
-0.0865146443
0.1469215453
0.0290602855
0.1246240661
-0.0213508531
0.1304557621
-0.1727104187
-0.1039348021
0.0756387636
0.0457454957
-0.0358717628
-0.0839752108
-0.0153548894
0.0756631270
0.0591900572
-0.0284300279
-0.0590906367
-0.0218964107
-0.1891656667
-0.1622373462
0.1138491333
0.2196824104
-0.0273264628
-0.0250057243
-0.1744061708
0.0141959507
-0.1680773646
0.1153817996
0.1641623229
-0.0369821154
0.1234418154
0.0734582543
-0.0137900747
-0.1845302284
-0.0473599732
-0.0334492065
0.0511277728
0.0083972588
0.0443130024
0.1367857158
0.0931872800
-0.0129202781
-0.0808079615
-0.0584062748
-0.1817907393
-0.1144460067
-0.0402324833
-0.0067107459
0.0712727532
-0.0170081779
-0.1777650863
0.1231643856
0.0424760953
-0.0461338013
0.0340589173
0.0291121323
0.0723491684
-0.0951976776
0.0483947992
-0.0024249861
-0.1007640436
0.0899305567
0.1288370341
0.0357632414
0.0830497220
0.0880825594
0.1148002520
-0.1001654789
0.0378174335
0.1140333712
-0.0295189582
0.0814408958
-0.0929046273
0.1706577986
0.0189964492
0.0194084886
0.0363800824
-0.0994394049
-0.0900571495
0.0945533589
-0.0721688718
-0.0458846986
-0.1973783076
0.0438472740
0.0502737835
-0.1422974765
0.0360150784
0.0826993138
-0.1062923148
-0.0127368178
-0.0838578641
0.0575213209
-0.0171261188
-0.1154132858
0.1146261543
-0.1419101804
-0.0227028523
0.2145292759
-0.0234802216
-0.0895960405
0.0899579972
0.0543168932
-0.0320433788
-0.0179642346
-0.0384373255
-0.0915034041
-0.0715034008
0.1405142397
0.0171978418
0.0605187491
-0.0035671219
-0.0595253743
-0.0742257312
0.0388519019
-0.0853215978
0.0216696281
-0.0361603387
-0.0862358958
-0.0020021070
0.1209621802
0.0683948323
0.0153436689
0.1570733190
0.0116560152
-0.0286877528
0.1019767597
0.0978109539
-0.0028128736
-0.0290831923
0.0426082946
0.0445821881
-0.1294725686
0.1333336681
0.0714676082
0.0052726856
-0.0418738425
0.1210846677
-0.0343454592
0.1051671132
-0.1607761085
-0.0798176527
-0.1658894420
-0.0225629192
0.1235558465
-0.1134935394
0.0759904012
0.0757104307
0.0534961075
-0.0462835319
-0.0372230485
0.1666828841
-0.0370861813
0.0034634694
-0.0437870063
0.0830869079
0.0291364416
0.0424479730
-0.1196524948
-0.0045944345
0.0652246922
-0.0882391408
-0.1555710733
-0.1047734097
0.1342125535
0.0391241722
0.0836407915
0.0562759861
-0.0049878871
-0.0807556659
0.0811587200
0.0631856844
-0.0441214219
0.0580401346
-0.0154743763
-0.0230062306
-0.0874067768
-0.0428431630
0.0942900032
0.0009497671
0.0279531814
-0.0960987061
-0.0688431934
-0.0187519304
-0.0869733393
-0.0208363179
-0.0276561379
0.1353336424
-0.0871239603
-0.1475728750
-0.0026973463
0.0039087832
-0.0441433974
0.1565413922
-0.0634336472
0.1010765284
0.0156764388
-0.1174571440
-0.0521243513
0.0124807982
0.0670247078
-0.0192472842
0.1312772185
-0.0303383898
0.0711963847
-0.0568116382
0.1147130430
0.0892756954
-0.0483251512
-0.0500528514
0.1054891646
-0.0824100152
0.1057523489
0.0709799156
-0.0212617181
-0.0734519511
0.0362462886
0.0218143705
-0.0722373649
0.0698300228
0.0545052551
-0.0737930164
-0.0593199581
-0.0294935051
-0.0561941862
0.1558637023
0.0790961683
-0.1253633350
-0.1372604221
-0.2058484852
-0.0442800894
0.1441567242
-0.0303140488
-0.1395188868
0.0247192699
0.0687781125
0.0308630001
-0.0656911060
0.0826939344
-0.1689343899
-0.0155127430
0.0461081676
-0.1416362524
-0.0393318161
-0.0994686335
0.1483888328
-0.1298803091
-0.0230085868
-0.0104385400
0.0652575195
-0.0227654763
-0.0673737600
-0.1033448279
-0.0542303622
-0.0731202289
0.0134650143
0.0815650746
-0.0988738239
0.0785786510
-0.0066293986
0.0681605339
0.0911703929
-0.0655333251
-0.0361288413
-0.0190104917
0.0947815552
-0.1520408690
-0.0801633969
0.0358781517
0.0408149175
-0.1566641778
-0.0718440488
0.0550638027
-0.0597570203
-0.0055158515
0.0588154830
-0.0280172341
-0.0634912997
0.0031518657
0.0711500794
-0.0175894797
-0.0353680141
0.0632614791
-0.0494867861
0.1849620938
-0.0368679799
-0.0255297702
0.0182758085
-0.0485234112
0.0677787587
0.0862679705
0.0366372392
-0.1371909678
0.1762535423
0.0485898480
-0.1038202122
0.1367303580
-0.0329122953
-0.0233096182
0.1094533950
-0.0192610063
0.0712071285
-0.1009982824
0.1055332124
0.0823054984
-0.1377037764
-0.0714510977
-0.0738069117
-0.2002853453
-0.0999010652
0.1006752923
-0.1345731616
-0.0634189323
-0.0803785697
-0.0990407765
-0.1204969734
0.0169037431
-0.1749756038
0.0815292075
-0.0798389614
-0.1567954719
0.1287771463
0.0768220723
-0.0775936991
-0.0970452577
0.0426223502
0.1073791087
-0.2067131847
0.0877161622
-0.0807513148
0.0510287881
-0.0539235398
-0.0682714805
-0.0971540958
-0.0716023743
0.0653207898
0.0325133726
-0.0881814733
0.0603274554
0.1080946177
0.0617813356
0.0855788663
0.1057337075
0.0730593726
-0.1609745920
0.0428625718
-0.0077488762
0.1223505810
0.0479465351
0.0944932699
-0.0390677601
-0.0197859555
0.0788765252
0.0890761092
0.0211729258
-0.0083372109
0.0136025734
-0.0667911395
-0.0408990346
-0.0786525831
0.0973680094
-0.1317121089
-0.0456364006
0.2091254294
-0.0943690464
-0.2036603242
0.0371836424
-0.0016772153
0.0481939241
-0.1682193726
-0.1646790057
0.0388130359
0.1446268409
-0.0268240441
-0.0691886544
-0.0105825607
-0.0573388040
-0.0549638495
-0.0632127672
0.0649647936
-0.1675992161
0.0861694813
-0.0295595042
-0.1530287266
0.0539477617
-0.1000755876
0.0416004807
0.0413212739
-0.0826401561
-0.1257807016
0.1423615217
-0.0464623906
0.0283270404
-0.1103044972
0.0326432511
-0.0144365886
-0.0510472134
0.1329720765
-0.0707862675
0.1727230549
-0.0723088533
-0.0721197426
0.0046292255
0.0227884371
0.0409105271
0.1069094166
-0.0215980634
0.0014354446
0.0335739926
0.0030235690
-0.0105446680
0.0351274572
0.0618242770
-0.0672576874
-0.0945741236
-0.0262369402
0.1014474556
0.0566095226
0.0470224135
0.0958289057
0.1062851548
0.0022686194
-0.1080787554
0.1858855188
-0.1023894772
-0.2197181880
-0.0780870616
-0.1056504175
0.0100201443
-0.0920286551
-0.0122147510
0.1378309131
-0.0235490110
-0.0583656095
0.1613591760
0.1330559701
-0.0442822501
0.0486277491
0.0022445153
0.2414785177
0.0133754499
-0.0504028648
0.1092496738
0.0488329977
-0.0530643910
0.0123071717
0.1926669031
-0.0648692325
-0.0709729046
0.0447801352
-0.0181151778
-0.0015969019
-0.1724336296
0.0615381896
0.0251759253
0.0126839466
0.0458590761
0.0373844244
-0.0149317868
-0.1000307873
0.1461261362
-0.0416447669
-0.0828437731
0.1242556497
-0.0479056016
0.1176290289
-0.0510909334
-0.1495944411
0.1413427144
0.0026455191
-0.0172618609
0.0911001712
0.0468040630
0.0850161985
-0.1109555215
-0.0458395742
-0.1687903404
0.0286755282
0.0100158080
-0.0219409335
-0.1594051868
-0.1310639381
0.0095909219
0.0022790330
0.1675607413
0.0964174792
-0.1713546962
0.1974587590
0.0340654887
0.0480119139
-0.1050424948
-0.1068713143
-0.1681955606
-0.0231723618
-0.0298271254
0.0665144026
-0.0020284450
-0.0558762327
0.1083012521
0.1537538618
-0.0573656112
0.0986620337
-0.1451254189
0.1432462037
-0.0228382386
0.0594523735
0.0391346738
-0.0594865307
0.0201854780
-0.1536838114
-0.0496092327
0.0045403000
0.1124353483
-0.1459125727
0.1221607998
0.1063149944
0.0535362475
-0.0317485519
-0.0883407071
0.0956414938
-0.1829506308
-0.1511877775
-0.1547901630
0.1005004793
0.0626205578
-0.0182851832
-0.0011673057
0.0516505241
0.2074851841
-0.0994547755
0.0348870046
0.0993043259
0.1297022253
0.0519828983
0.1932907850
-0.0719897002
0.0652762353
0.1218405217
0.0516057685
0.1309982836
-0.1971867234
-0.0059486385
0.0271669868
0.0025917534
-0.0865925625
-0.1245062277
-0.0961495414
-0.0204828400
-0.0079269409
-0.0635637119
0.0211642645
0.0197215360
-0.1188998222
0.0075764670
-0.0078512626
-0.1127863973
-0.0476898775
0.1323216259
0.0602835827
-0.0977398828
0.0463086739
0.1148286462
0.0919268876
0.1781418771
-0.0630514175
-0.0346304402
-0.0157734063
-0.0059014536
-0.0070314370
-0.0764645487
0.0982501954
-0.1264839768
0.0910654292
0.0266816951
-0.1114848554
-0.1592935473
0.2041244507
0.0739642084
-0.0392286405
0.0475557633
0.0779873431
-0.1502237469
-0.0700861067
0.1237108558
0.0854058564
0.1007419825
0.2074920833
-0.0802388638
-0.1186304167
0.0212605856
-0.1173067763
0.0696393177
0.1806374937
-0.0365791917
-0.0056714346
0.0102730738
-0.0898589119
0.0015468453
0.0055567948
-0.0396245271
-0.0550958961
0.1113230959
0.0245506987
-0.0738690868
-0.1464725584
-0.0559241995
-0.0085007008
0.1708719283
0.0452972651
0.0092245070
-0.0803792998
0.0903474763
0.2503739893
-0.0587968007
0.0366340391
0.1079614908
-0.1354272366
0.0808169097
-0.0661532730
-0.0547469519
-0.0430463403
-0.1174838096
0.1359738410
0.0559879839
-0.0026449685
-0.1770573109
0.0977414623
0.0308416672
0.0513040200
0.0772429556
0.0782951713
0.1038781330
-0.0282651577
0.0915905163
-0.0753587261
0.0591551103
-0.0311899651
0.1280097514
0.0897834897
0.0442852005
-0.0147859985
-0.0788841471
-0.0952692628
0.0143882828
0.0546597987
0.1095364168
-0.1205610707
-0.1685066819
-0.0471825674
-0.0068236915
-0.0667695552
-0.0505270883
0.1645024419
-0.1449724734
-0.0772662610
-0.0557595752
0.0561001673
0.0082355170
0.0548530854
-0.0322939865
-0.0182802994
0.0261572301
0.0345612317
0.1135789305
-0.0337900184
0.0332854502
0.0213766750
0.0389383063
0.0089362329
-0.0286152158
-0.1340714246
0.1009822115
-0.0932958648
0.0020472552
0.1635914892
0.0535965823
0.0615053512
0.1118881628
-0.0421920158
0.0321376175
0.1752624214
-0.0201831441
-0.0076530124
-0.0234163068
0.1491854936
-0.1304774284
0.0794508010
0.0585168228
-0.0420477651
0.1101934239
-0.0421411693
0.0592159927
0.0963897556
0.1450401843
-0.0213793721
0.0295137521
-0.0984161273
-0.0188856833
0.0803543329
-0.0542746745
-0.0200137515
0.0910246819
-0.0170743987
0.0801228359
0.0513745472
-0.0446424745
-0.0778528228
-0.0161143355
0.0372940525
0.0014521090
0.1852589697
-0.1532052606
-0.0853046179
-0.1495651454
-0.0435004644
-0.0293805804
-0.1576773971
0.1322831810
-0.0515947007
-0.0491933934
-0.1371135563
0.0543370023
0.0510718152
-0.1052291095
-0.0328676067
0.0767836943
-0.0855526626
0.0095807444
-0.0707036629
0.1260015517
0.0573900081
-0.1191430688
-0.1155255288
0.1182838827
0.0323541760
0.1062409058
-0.0204096567
0.1273692399
-0.0143538434
0.0720014423
-0.0616127700
-0.0505301766
-0.0341023542
0.0083955638
0.0593561903
-0.0216522776
0.0048880437
0.0458005816
-0.0856613591
-0.1587938964
-0.1652670801
0.2093703896
0.0783651993
0.0583559610
-0.0553644337
0.0243038256
-0.0812903866
-0.0345583856
-0.0363458842
0.0573274940
-0.0003158566
-0.0252985898
-0.0574463233
0.0280221570
-0.0267640278
-0.0776167288
-0.0745310336
-0.0619103611
0.2532542050
-0.0412236154
0.0015036135
0.0046093613
0.1819020361
0.1566115916
0.0173935927
0.0132871429
-0.0111161461
0.0074021467
-0.0886842236
0.0396865122
-0.0362237431
0.0707393065
0.1310837418
-0.0632773489
-0.0042978418
0.0783791319
0.1688226610
0.0125984782
0.0648007095
0.1167772487
0.1642320156
0.0347425342
0.0577296987
0.1870806217
0.0162913054
-0.0157551244
-0.0816620067
-0.1049788818
0.2495356649
-0.1432541311
0.1305386871
-0.0341886953
0.2188884914
-0.1184106246
-0.0013321179
0.0907076895
-0.1440838426
0.1767334193
-0.0500109382
-0.0361250825
0.0096514644
-0.1729184091
-0.0456446782
0.0764531642
-0.0095532620
0.0741822869
0.0586063080
0.0034488693
-0.0275074057
-0.0538643301
-0.0160285011
0.0736755058
-0.0564165488
0.0115574813
0.0976535603
0.0111523187
0.1355751604
-0.0135485912
-0.1383030713
-0.1849495173
0.1521071792
0.0501571111
0.1081900448
-0.0474459380
0.1176723838
0.0050925547
0.2066882253
0.0222268812
0.0385513678
-0.0607088283
0.0434902832
0.2003131658
0.0190324634
-0.1340618283
0.0043465206
0.1340522617
0.0224605668
-0.0398897827
0.0239419732
-0.0521358028
0.0092115374
-0.0036630207
-0.2486547679
0.0360472649
0.1164743900
0.0385300517
-0.1014615744
-0.0732160434
0.0047636353
0.1618549377
0.1093587726
-0.0281727742
0.0258877687
-0.0859511793
-0.0992517397
-0.0356374495
-0.0680294633
0.0473621637
-0.0609978959
-0.1237164810
-0.0392037407
0.1473600864
-0.1385330111
0.0851978660
-0.0702454671
-0.0526274443
-0.0938077644
0.0636659637
-0.0566384681
0.0522998944
0.1224602759
0.2122830153
-0.0344015472
-0.0169601813
-0.0762064829
-0.1120797396
0.0124631217
-0.0395793058
0.0898646489
-0.0200702064
0.0442100242
0.0618180931
0.0928464234
0.1363542676
0.0872994810
0.1079702899
0.1446020603
-0.0153740924
-0.0734291077
-0.0049191811
-0.1334482133
0.1233368292
-0.0195370670
-0.1086920053
0.1676536947
0.1472924650
0.1145204976
0.1897242218
-0.0334279276
0.0305161849
0.0846993104
-0.0673145205
-0.0097381538
0.1488250941
0.0203369055
-0.0063733347
-0.0217224676
-0.0852375403
0.2311842889
-0.1303800493
0.1100886315
-0.0353021249
0.1242784113
-0.0666676238
0.0195663087
0.0693920851
-0.0108118849
0.0951947495
0.1374913901
-0.0328309536
-0.0136739509
-0.1399452090
-0.0751096904
-0.0539143272
-0.0935846940
0.0729594007
-0.0109099252
-0.0088547990
-0.0741755441
0.0279057305
-0.0094014136
0.0989222601
-0.0076433569
0.0103384992
0.0608326010
0.0079956427
0.0093841543
-0.0261490997
-0.0063427733
-0.1435115039
-0.0222674049
0.1498192102
-0.0039314213
-0.1439448595
0.0785535201
-0.0359449349
0.0556403548
0.0028930809
0.0652644858
0.0463050939
0.1657935977
-0.0094447974
-0.0218220577
-0.1497861147
-0.1496191770
0.1171646491
0.0765286535
-0.1906547844
0.0376079790
-0.0199310277
0.1637655646
0.0709532797
0.0528027490
-0.0716890767
-0.0395867489
-0.0124816056
0.0421067514
0.0339364558
-0.0432507992
-0.1579191685
0.1257250309
-0.0114297951
0.1051245257
-0.0660825148
-0.0812449083
0.1174765825
-0.0114502618
-0.0251658764
0.0897724554
0.0493938439
-0.0777341425
-0.0067971144
0.0671693012
0.0623600557
-0.1262906641
-0.0352077223
0.1119344905
-0.1107305959
0.1005887389
-0.1442805827
0.0894857347
0.1211113781
-0.0663636923
-0.1015509367
-0.1649627537
-0.0506781638
0.0616725311
-0.2180646360
-0.0566675290
-0.0079650907
-0.0740202814
0.0522432029
0.1060607433
-0.0396388285
0.0114629203
-0.0460121743
0.0232557636
-0.0224666465
0.0636817515
-0.1474445164
-0.0263622981
-0.0820300356
0.0165101495
0.0311522298
-0.0329597518
0.0276302677
0.0393849984
0.0695130825
-0.0100434609
-0.0314601138
0.0468959846
-0.0892372429
0.0658915862
0.0544613153
-0.0025022265
-0.1547525525
0.0028732698
0.0439504460
-0.1758929640
-0.1205610558
-0.0655698776
0.0511491224
-0.1473544985
-0.0007142871
0.0845940560
0.1531463712
-0.0731728673
-0.0240801219
0.1126663014
-0.0106272679
-0.0423701704
0.0734619945
0.1641720831
-0.0934792012
0.0290213712
0.0787217543
-0.1705948561
0.0415306240
-0.0946594551
0.1113401949
-0.2175339013
-0.0409838744
-0.0423540510
-0.0998623148
0.0377805308
-0.0353117324
-0.1871158332
0.0872807801
0.0684702545
-0.1012227386
-0.0749350786
-0.1327029616
-0.1167584211
-0.0910616666
0.0626049861
0.1024946123
0.0356582589
-0.0978684351
-0.0300202351
0.1737041324
0.1126316860
0.1093756184
0.0125997458
0.1418900639
0.0235408712
-0.2065366656
0.1644544750
-0.1411978602
-0.1297672838
-0.0318409167
0.0522400029
-0.0266599320
-0.0675322339
-0.0938150883
0.1200547144
-0.0504653826
0.0887219533
0.0109384563
0.0649151504
-0.0870779455
0.0105008818
-0.0955901891
0.0630377755
0.0771682039
-0.1852888167
0.0217659529
-0.0992006063
-0.0891375691
0.1582785100
0.0327602886
0.0160699729
-0.0929510221
-0.0434576087
-0.1504143178
-0.0126840416
-0.1227664500
-0.0575926565
-0.1377532035
0.0711214989
0.0718495175
-0.0731755123
0.1120676547
0.0524216443
0.1199358851
-0.0375118069
-0.0744696259
-0.0403765738
-0.1968408823
-0.0267322659
0.0137992362
-0.0967513174
-0.0689685494
0.1682750136
-0.1297790557
0.0868760347
-0.0776102021
0.0644922331
0.0606095195
-0.0785131976
-0.0636440516
-0.1255810559
0.0597228147
-0.0579692274
0.0640000626
0.0580100268
-0.1129161194
-0.0026065637
-0.1210601106
0.0060430034
0.0893118829
-0.0381736159
-0.0211819764
0.0499051698
-0.0966910198
0.0809190646
-0.1118650585
-0.0766723603
0.0496790186
-0.1226680949
0.0288428292
-0.0095606893
-0.0949400663
-0.0673860237
0.0795901790
-0.0575587675
0.0381255299
-0.0872590989
-0.0089404024
-0.0246778820
-0.1496827453
0.0129190497
0.1969858408
0.0687487647
-0.0919048712
-0.0262891352
-0.1351103187
-0.0335168727
0.1112287045
0.0581636354
0.1007163972
-0.0719785243
0.0635129735
0.0117306877
0.1590981483
0.1455054879
-0.0994455591
-0.1315057427
-0.0711968243
0.1459566355
0.0389687717
0.0445138812
-0.0656465515
0.0067221820
-0.0317068137
-0.0325875655
0.0152897360
-0.0115338974
-0.0630668774
0.0464239828
0.0885840282
-0.0538467206
0.1313502192
0.0297721960
0.1808460653
0.0789543614
-0.2475488782
0.1566923559
-0.0864503458
0.0115356520
0.1326056272
0.1460832953
0.0035140342
-0.0084353257
-0.0577995591
-0.0715088919
0.1362825334
0.0355721973
0.0693102181
0.1646023840
-0.1514412463
-0.0208814703
0.0180227160
0.1491379142
0.0806183890
0.1264758408
-0.0954025909
-0.1099758148
-0.1391792893
-0.0152760688
0.1836277395
-0.1192104369
0.0848548934
0.1551369876
-0.0716185719
0.1272834986
-0.0498241559
0.0716265142
0.0048122429
0.0587062053
0.0792083368
0.0724078938
-0.0168647859
0.0533111356
0.0425649881
-0.0056623858
-0.0496955253
-0.1711718142
-0.0677492693
0.0614089258
-0.0404143669
0.0628259555
0.0311801098
0.1413041502
0.1017954499
0.0714116246
-0.2120740414
0.0133335488
-0.1311729401
-0.0734099820
-0.0423307419
0.0437614806
-0.1346148998
0.0167769101
0.1005147845
-0.0006751687
0.1352111101
0.0692448691
0.0338873416
0.0117209712
0.0506858006
-0.0318653919
0.0259618796
-0.0568861663
-0.0594490953
0.0403555222
-0.1273761690
0.0744259208
-0.0469869040
-0.0827604979
-0.2002213448
0.0308455713
0.1043599471
-0.0084355883
-0.2044560313
-0.0093386583
0.0589972921
-0.0889571905
0.0234703198
0.0072465953
0.0300014634
-0.0440126956
0.0162152201
0.1883063614
0.0813290328
-0.1356275082
0.1567233801
-0.0956120491
-0.0427508317
0.1285392493
-0.1096468046
-0.0977317169
0.0627179667
0.0957769528
0.0376922153
0.1032060906
0.0121962503
-0.1221895441
-0.0186363086
-0.0889899507
0.0632641390
-0.0546677597
-0.0202959701
0.1090100184
-0.0904373452
0.0709530860
-0.0905650184
0.0337224826
0.1408155411
-0.1114894077
-0.1433983743
0.0878885314
-0.0503279008
-0.0872651413
0.0496805497
-0.1245659143
-0.0753616020
0.1235144213
0.1129292250
-0.0139206648
-0.0499618538
0.0692419261
0.0012214690
0.0877527818
-0.0815184042
0.0149799166
0.1299365908
0.0337709449
-0.0626222640
-0.0957601815
-0.0460392460
0.0600878336
-0.0097237499
0.1291350871
0.0013768997
0.0748098493
-0.1694716066
0.0928945243
0.1026262343
-0.0424695089
0.0443058945
0.1204466894
-0.0120177576
0.1168405190
0.1300855279
-0.1032044888
0.0809242874
0.0040566516
0.0780654848
-0.0522587560
-0.1259384155
-0.0964037925
-0.0835067481
-0.0721832886
-0.0159477592
-0.0302284658
0.0660145283
-0.0428636298
-0.0769047886
-0.0332299136
0.0294404514
-0.0311934240
0.0971698537
0.0917527303
-0.1043329835
-0.1032772139
-0.1182190850
-0.0637767017
-0.0183762480
0.1938440055
-0.1013905033
0.0149176614
-0.0877624750
-0.1497485191
0.0855583176
-0.2047616839
0.0013017168
-0.0687041655
-0.1495878398
0.0089760777
0.0545247607
-0.0661194026
0.0130384043
-0.1294971406
-0.1813905835
0.0123177245
-0.1562498212
0.0992147624
0.1683328599
-0.2505055964
0.0693380684
-0.0271852538
0.0430284776
-0.0549323633
0.0555650555
0.1036850959
-0.0514862239
0.0482757017
-0.0773980245
0.1342419535
0.1189354211
-0.1191744581
-0.0481196642
0.0399095900
0.2262618393
-0.0212369859
-0.0519613586
-0.0923390016
-0.0909095407
0.0402611569
-0.0504031815
0.0149085661
0.0167296156
-0.0154365590
0.1255172044
0.1020312533
0.0362736918
-0.1057567894
0.0141655942
0.0727533102
0.1694762558
0.0680014715
-0.0669945031
0.0687935427
0.0946492031
-0.1048631892
-0.0346025154
-0.0784076527
0.1727242619
0.0699761137
-0.0896469951
-0.1313457191
0.0367429778
-0.1755533814
0.0470777452
-0.0891611800
0.0526578426
-0.0437251702
0.0622447953
0.0408724397
0.1547745168
0.1564082205
-0.0345066674
0.0428933986
0.0219155718
-0.0886122808
0.1629384160
0.0879500136
0.0832996070
-0.0537065342
-0.0206055343
0.0033429479
0.1193102449
0.0104857991
-0.0056810738
-0.0113725625
0.0433499850
0.0386893712
-0.0562347136
0.1167528629
0.1924345344
0.0525159612
0.0815300867
0.0390184857
0.0876651108
-0.0754648224
0.1083777100
0.0892112851
0.0554260351
-0.0373463966
-0.0204340275
0.1448109895
0.0068817902
-0.0945399478
-0.1101713702
0.1499030590
-0.1389430612
-0.1301154643
0.1537929475
0.1086227521
-0.0592227615
0.1366351396
-0.0555606782
0.0659981892
0.1497223526
-0.0552749671
0.0699186400
-0.2250315249
-0.0953111127
0.0210687704
0.0390604474
0.1042151824
-0.1112264246
-0.0584745184
-0.0085381381
-0.0165092200
0.0372645482
0.1526626647
0.1154105812
0.0115214074
-0.0674565285
0.1327661127
0.0237029959
0.0071935155
0.0598231666
-0.0763727203
-0.0464515537
0.0963990688
-0.0487101637
-0.0230852701
0.0415792689
0.0581455268
0.0603977591
-0.1130055264
-0.0288889650
-0.0226975996
0.1290411055
-0.0690138936
-0.0380587615
-0.0319222175
0.0026411500
-0.0027536189
-0.1835177541
-0.0041669989
0.0306481402
-0.0016909548
0.1133821756
-0.0144203501
-0.1158878431
0.0028962861
-0.0006109332
-0.0385377780
-0.0499688685
-0.0449243374
-0.0102156913
-0.0882370546
0.1226976514
0.0996250361
-0.1733463407
-0.1335780323
-0.0285847392
-0.0266427528
0.1667851806
0.1009517834
0.0687239915
0.1075729802
-0.0600611418
0.0499008112
0.0446432792
-0.0513246469
-0.1903458536
-0.0284117162
0.0468817502
-0.1195761934
0.0198019054
-0.0484564081
0.0206363332
-0.0440675281
0.0392150246
0.1310272068
0.0649031848
0.1729949117
0.0310520809
-0.0098145707
-0.1561653912
-0.0307333954
0.0789267272
-0.0249358341
-0.0507369675
-0.1304190159
-0.1250336915
0.0811044276
-0.0090599936
0.0647985712
-0.0661421493
-0.0822870657
-0.1076607704
0.0368558764
-0.1317571700
0.0034252300
0.0705580935
-0.1738780439
0.0472252183
-0.0821949616
0.0667880103
-0.1535628438
0.1589911878
0.0353879444
-0.0900072306
0.0948978886
-0.0597815216
-0.0335388221
-0.0002510555
-0.0122216744
-0.1856986582
-0.0156825110
-0.2003954053
-0.0857052952
-0.1017567888
0.0534745529
0.0588316396
0.1365633011
0.0781424195
0.0205769222
0.1735223383
0.1996829808
-0.0120332800
0.0609139986
0.0049542682
-0.0418026894
0.0455151647
-0.1900842488
-0.0497197174
-0.0911906287
0.1537325233
0.1446668208
0.0181103088
0.1327927411
0.0173726026
-0.0129521945
-0.1060916409
0.0784890652
-0.1210899875
-0.0136927534
0.0137472469
0.0709634349
-0.2458564043
0.0764880478
-0.0022063977
-0.1650048792
-0.1003280059
-0.1058311984
0.0941602290
-0.1499672979
0.0227202028
-0.0765225142
0.1783088893
0.0164104924
-0.0445568413
0.2925834358
-0.0272045266
-0.0018724814
-0.0784236565
0.0266737826
-0.0173365399
-0.1263996512
0.0514201149
0.0389146581
-0.0361193158
0.0659467131
0.0982000828
-0.0428415239
0.1278871149
0.0663486794
0.0138206892
-0.1386414170
0.1262319386
-0.0415137932
0.1043688655
0.0857488960
0.0470855720
0.0459901020
-0.0554586574
-0.0322495997
-0.1344045997
-0.0588441640
-0.0556139611
-0.0428223349
-0.0998072475
-0.0322255678
-0.0151576390
0.0986580178
0.0363196395
0.0371074788
0.1134155169
0.0025167193
-0.1595125794
0.0670919791
0.0199440271
-0.0255389344
-0.0910765380
-0.1512912065
0.0105256764
0.1036187261
0.0741717294
-0.1138715968
0.0132712629
-0.0172205213
0.0097849304
-0.0702700540
0.0451439060
-0.1632661819
0.0339793265
-0.0218479112
-0.1826841384
0.0250069704
-0.1755100340
0.0335527807
0.1037240401
0.0050244038
-0.0429133475
0.1183344647
-0.0140964407
-0.0014184210
0.0590386055
0.0648462549
0.1283338815
-0.0451792404
0.1097592041
-0.0034421361
0.1109121144
-0.0347660929
-0.1263758689
-0.0763953552
0.0191397592
0.1428492516
-0.0564883165
0.0283286534
0.1204975322
-0.0432335325
0.1088205278
0.1351996213
0.0449878834
-0.1094230786
-0.0676346943
-0.0303460509
0.0954267904
0.1089325324
0.1237551048
-0.0395712182
-0.0020987825
0.1390738934
0.1082393378
0.0325309038
0.2407600284
0.0022848647
-0.1743961424
-0.1313675493
-0.1205294058
-0.1139680445
0.0490440205
-0.0144491130
0.0870059654
-0.1431027949
-0.1630948037
0.0893340558
0.0397727117
-0.0157831870
0.0870664269
-0.0119979205
0.0222418029
0.0631357953
-0.1073739529
0.0474277213
0.0809786022
0.0327138565
-0.1488347203
0.1431558728
-0.0770478696
0.0079111978
0.0331313722
0.0360556543
0.0852806568
-0.1522936076
0.1947047859
-0.0272614621
0.0452545919
0.0754909590
0.0000929291
0.0818546936
-0.0912271887
0.0857004076
-0.1352993697
-0.0076430179
0.0588377230
-0.0894667357
0.0240617394
0.0586471073
-0.0615470298
0.1139298752
0.0295823291
0.1046187729
0.0344670080
0.0396138094
0.0559426695
-0.1284339875
-0.1035884619
-0.1785325110
-0.0576957129
-0.1162222624
-0.0803795904
-0.1246823072
-0.0152005684
0.0609559491
-0.0104898633
0.1530905813
0.0255219750
-0.1214106157
0.0728209019
0.2108537108
-0.0779690370
-0.0251328703
0.1232493818
0.1385580897
-0.0933780968
0.1267711967
0.0242199842
-0.0060201609
-0.0142367845
-0.0487892963
-0.1570142210
-0.0969535708
0.0437869877
0.0934421718
0.0375428535
-0.1384658068
-0.0109422840
0.1221057102
-0.0629257709
0.1127643362
0.0267081261
0.0608334579
0.0877502188
0.0014949479
0.1650023162
-0.0945270583
0.0188806728
-0.0230663400
-0.0048442478
-0.0087998100
0.0339473970
0.1169648170
0.0260147173
0.1287625730
-0.0368730314
-0.0980517417
-0.0143207554
-0.0888861045
-0.0944167450
-0.1777242571
0.1238980815
-0.2252110243
-0.0733362883
0.0931272060
-0.0374791883
-0.0452951081
-0.0691240430
0.0500172637
-0.0620376542
0.0508027114
-0.0984384045
0.0927425921
-0.0349808261
0.1082117558
0.0474019013
-0.0672730282
0.1206144020
0.0267893542
0.1043968499
0.0825282261
0.1244870573
-0.0653544962
0.0149519118
0.0907520503
0.0828212798
0.0946167260
-0.0285882000
0.0935330242
0.0235759765
-0.0334872305
0.0019032091
0.1058874950
-0.0371044688
-0.0954800323
-0.0051269811
0.1951754391
-0.0719669163
-0.0467033386
0.0192667842
-0.0381224528
-0.0358221978
-0.1245141849
0.1586586833
-0.0081925541
-0.0521447957
-0.0191454031
-0.0455195196
-0.2174789757
-0.0037303076
-0.0336402282
-0.0898480788
-0.0616898574
0.0108705685
0.0776144415
-0.0293867122
0.1508202404
-0.0221757963
-0.1571759731
0.1484596282
0.0561778434
-0.1077794731
0.1069909856
-0.1392892003
-0.1006530449
-0.1171471402
-0.1056276411
0.0245711077
-0.1091858447
-0.0186031107
-0.0880256370
0.1623074561
0.0475407653
0.0564983003
0.1378980130
-0.0313562043
0.1184279397
-0.0951859429
0.1198847368
-0.1035199240
-0.1429794729
0.1317698658
-0.0077183973
-0.0108273979
0.1141152307
-0.0621085130
0.1395907551
0.1095630974
-0.0338276997
0.0763848573
0.0501103252
-0.0925857499
0.0037345206
-0.1394489855
-0.0222478919
0.1447069347
0.0771227032
-0.1176128760
0.1218400300
-0.0159652457
0.0335958265
-0.0490069650
0.1885157079
0.0475649126
-0.0506931171
0.1577676088
0.0243718643
-0.0884560421
-0.0714896396
-0.0156047493
0.0695659295
-0.0090065654
0.0321268961
0.0878609493
-0.0944077298
0.1689152569
-0.1514533758
-0.0473816507
-0.1417454481
0.0412436984
-0.0188986622
-0.1560248882
-0.2161087841
0.0133637674
0.0884018093
-0.1061291173
-0.1433490813
0.0236695148
-0.2055966556
-0.0376939066
-0.0119061619
-0.0938988775
-0.0425917953
-0.0155595616
0.2537845075
-0.0553447679
-0.0733344257
0.0332549065
0.0864605010
0.0487937853
0.1691540033
0.1549142003
0.0375494137
0.0609745346
0.0444138795
0.0157470927
0.0961169973
-0.0899634659
0.1134083867
0.0159610566
0.0700218901
0.0415746830
0.1149529442
-0.1785017997
-0.0633816868
0.0198450983
0.0426841713
-0.0438656546
-0.0486676097
0.1627609879
-0.1873434335
0.0491946638
0.0189699233
-0.0570917949
0.0659164488
0.1385695189
0.0733196661
-0.0016201272
0.0168370958
-0.0437647216
0.0614851154
-0.1781970561
0.0131413452
-0.0375949517
-0.0297088828
-0.1369215101
0.2063353509
-0.1154346243
0.0502003208
-0.0585045516
-0.0548044704
-0.1335761398
0.1142496914
0.0397319756
-0.0899694040
-0.0390580967
0.0040161139
-0.0263826344
0.0863238573
0.1260308623
0.1617867947
0.0802796707
-0.0300931651
0.1551696211
-0.0781960711
-0.2095860988
0.0206906796
0.0693182349
0.0443995781
0.0360203609
0.0229929201
0.0508758202
0.0977338850
0.1591700017
0.1951393187
0.0832227319
0.1072274819
0.0665827543
-0.1138857529
0.0592994131
-0.0490307920
0.0112055615
-0.0782680213
-0.0291273221
0.0837503374
0.2001110166
-0.0240951516
-0.0353947766
-0.0272083692
-0.0501355976
0.0766331777
0.0961646736
0.0097164940
0.2246638685
0.1396289915
0.1162282899
-0.0065642670
-0.0625415593
-0.0193286389
-0.1030168086
0.0029761656
-0.0101819811
0.1266037971
0.0464823954
0.0516964830
-0.0790399835
0.0226702690
-0.0330878422
-0.1907835007
0.0385762379
0.0199666508
0.0821811035
-0.0887707770
-0.1080895141
0.1356414706
-0.0351652056
0.0418071561
-0.1101018935
-0.0142468615
-0.2633750737
-0.0025960857
-0.0579767525
-0.0076655103
-0.0694560632
0.0317145586
-0.0439953990
-0.0145060699
0.1956722140
-0.0403100662
0.1169046238
0.0967112407
-0.0015297018
0.0672055557
0.0447529331
-0.0624123514
0.0335437283
0.0299452022
0.1464487761
0.1283279657
0.0238894019
-0.1242285743
-0.0419902541
0.2045148760
-0.0070972382
-0.0234874096
-0.1135343537
0.1989948601
-0.0901501626
-0.0692206174
0.1771965623
-0.1861646324
0.0273392443
0.0170784164
0.0834096074
0.1965421587
0.0675959513
0.0932765082
-0.0053744647
-0.1207017899
-0.0170552190
0.1788484603
-0.0956196412
0.0469795503
0.0957673490
-0.1415158361
-0.0436869636
0.1184628755
0.0314286016
-0.0675386935
-0.1166083813
-0.0679532588
-0.1485786587
0.0739997476
-0.0321506634
0.1482991427
-0.1418621093
0.0165995229
-0.0659600198
0.0444581434
0.2015073895
-0.0435759574
-0.0804120079
0.0812137276
0.0082823131
-0.1586503536
-0.0443141013
-0.1076455638
0.0234458093
0.0029949537
-0.1407865733
0.0595057569
-0.1238145977
0.0254351720
-0.0420452654
-0.0707230717
0.0113434996
-0.1553708017
0.0165798627
0.1071801931
-0.0380652361
-0.0049214438
0.0553321876
0.0598961115
0.2271637768
-0.0190764554
-0.0373102836
0.0375067331
0.0219167247
0.0357054211
0.1523913145
-0.0740307122
-0.0097785359
-0.0157435723
0.1473309845
0.0495164245
0.0753969401
0.1246458218
0.1166156456
0.0543418750
0.1276932657
-0.1352964342
0.0442486927
0.0534815975
0.0396943986
0.0917086452
-0.1808689982
0.0582407750
0.0320908278
-0.0259702485
-0.0397903286
-0.0513151400
-0.0350563228
0.0726881996
0.1674719155
-0.0743669868
0.0496375561
-0.0183748733
-0.0943134278
-0.0109985126
-0.2022882849
0.1110917553
0.1169682369
0.1741731614
0.0104799476
-0.0568252727
0.0403419062
-0.1169264242
0.0178767219
-0.0948248431
0.0191298742
-0.1789400131
-0.1790065318
0.0515274778
0.0457587838
-0.1922309399
0.0914141834
-0.1244783476
0.0591217913
0.0448030494
-0.0693996027
-0.1656005085
0.0993527249
0.0043637129
0.1416383237
0.1086305752
-0.0197016057
0.1574270427
0.0010911907
0.1058361903
-0.0565825775
0.0694653913
0.1714981347
-0.1136843935
0.0137591232
0.0844944268
0.0904690996
0.0887303948
0.1618656516
-0.0571085103
-0.1272531301
-0.0457280055
-0.0698702633
0.1205945611
0.1349501312
-0.0881751925
-0.0594914444
-0.2320810705
0.1588431001
0.0889127627
0.0235849563
-0.0855093747
-0.1290819496
-0.0175529383
0.0187607612
0.1245661825
0.0397113189
-0.0718510300
-0.1393286884
0.0358412676
-0.0197607148
-0.1077074185
-0.0474974476
-0.0364834331
-0.1747934073
-0.1387793273
0.0272436161
-0.0840392187
0.0499902181
-0.1106001735
-0.0566153340
-0.0056490959
-0.0167926345
0.1075265706
-0.0143325124
-0.0014145094
0.0968144462
0.0952963009
-0.0848329216
-0.0552432090
0.1522282958
-0.0238797646
0.0693141073
-0.0618834868
0.0152943572
-0.1221658885
0.0494755842
-0.0941577181
0.0116754277
0.0116024390
0.0575527474
0.0847956911
0.0387950353
0.1437328011
-0.0176471397
-0.1252866983
0.1351927072
0.0208354592
0.0883474946
-0.0104191564
-0.1228869781
0.0574411117
-0.0069991392
0.1309182346
0.0744737461
-0.0886915699
-0.0946459845
-0.0573343337
-0.0443902053
0.1201926842
-0.0768585652
-0.0190032534
-0.1231468767
-0.0775666982
0.0670176297
-0.0012451030
-0.0589160696
-0.0026304647
0.0690741763
-0.1158997416
-0.0737282336
-0.0036699148
-0.0886203796
0.1661532372
-0.0845260322
0.1316133142
-0.1633770615
0.0364680141
0.0003146901
0.1042791680
0.1496745348
0.0212101880
-0.0599390455
0.1579981744
-0.0771024302
0.1808204055
0.1637182683
-0.0795832947
-0.0181013234
0.1669378877
-0.1130677462
-0.1030941531
0.0948540270
0.0929174051
-0.0665189475
-0.1539763063
-0.0147924041
0.0042078150
0.1626458615
-0.0122215049
0.1224407777
-0.0468933173
-0.0885374844
0.0312746242
-0.0486996099
0.1202181950
-0.1339104772
0.1659445763
0.0193067621
-0.1004708260
0.1129887253
-0.1112511829
-0.0645436049
0.0813139230
-0.0008720663
-0.0764110759
-0.0575481951
-0.1410849988
0.0802133605
0.0909384117
-0.1686612517
-0.0722027943
-0.1216327325
-0.0671058893
0.1284942776
-0.1059362069
-0.0395773463
0.1198143288
0.0637239665
0.0806700960
-0.0652382299
0.0101245018
-0.0017632903
-0.0026879779
0.0579771623
0.0506896451
-0.0860424787
0.0290084034
0.1122676358
0.1304742247
-0.0608678423
-0.0014724479
-0.0437328331
-0.0904284567
-0.0714526474
-0.0556853563
0.0909227803
-0.0039702482
0.0731029809
-0.0679175779
-0.0598418750
0.0425161608
0.0350861549
-0.0904650837
-0.1374613494
-0.0751243755
0.0648353994
0.1267557889
-0.0234285854
-0.0228062700
-0.0014350739
-0.0017633023
-0.1720339358
0.0858657584
-0.0696001202
0.0621857680
0.0582904033
-0.0056116264
0.0009358048
-0.0248916280
0.1303642988
-0.0513433218
-0.0436696745
0.0056660105
0.0398540758
-0.0959094465
0.1956177801
-0.1678037345
0.0866168514
-0.0718611181
0.0087009408
-0.0044010631
-0.2175202221
-0.1856206954
0.0365750492
0.1168536022
-0.0886971354
-0.1360934079
0.0941127613
-0.1447783113
-0.0861122236
0.0406389162
-0.0257211197
-0.0893250257
0.0227085780
0.1176119894
-0.1886321008
0.0155617176
0.0229098648
0.0568598248
0.0822169781
0.0803560913
0.0752342939
-0.1298460513
0.1825589091
0.0672846735
0.1414334923
-0.0530301742
-0.0718897358
-0.0990822166
0.0282678436
0.1197032854
0.0230241287
0.0848460719
-0.0852955133
0.1119095683
-0.0664063692
0.1669371575
-0.1183986440
-0.1485245079
0.1921715140
-0.1633632630
-0.0168591104
0.0239869822
-0.0410747342
-0.0823994800
0.0994992703
0.0251347236
-0.1124957651
0.1284273714
-0.0673341826
0.0081564542
-0.0432756357
-0.0844295695
0.0916498974
0.0331464596
-0.0617550798
0.1211115867
-0.1661085784
0.0914785564
0.0048394836
-0.1611957103
-0.0261531603
0.0391864926
0.0056818654
0.0888681337
0.0806893855
-0.0036570267
0.0136330277
0.1025437713
0.0878268927
0.1570903808
0.1603708416
-0.1173096746
0.0819734409
0.0563360490
-0.1140618846
0.0184119698
0.1856917292
-0.0373106934
0.0539288148
0.0900255442
0.1470683962
0.0828628093
-0.1317420751
0.0389483348
0.1580972821
0.0965765417
0.1375850588
-0.1809449345
0.0153784882
-0.0673654154
-0.0023839511
-0.0082832351
-0.0798768178
0.0799531415
0.1185054481
0.0303939115
-0.2019570619
-0.0521350019
-0.0408870801
0.0600362383
0.0819509104
0.0593230613
0.0554420128
-0.1487600803
-0.0208811350
-0.1885365695
0.0436804779
-0.0318540335
0.0772253498
0.0652259514
-0.0672468990
0.1485513002
0.0051586526
0.0517297015
-0.0289771855
0.0161668379
-0.0201876853
-0.1139602289
-0.0690169260
0.0399799980
-0.0199635252
0.0108145541
-0.2689335942
0.0466516614
0.0323721245
0.0048642214
0.1874487102
0.0056704534
0.0688607991
-0.1098222062
-0.0867260471
-0.1786917448
-0.0191565212
0.1904899925
-0.0308997203
0.1074029356
0.0171565153
0.1901201904
0.1193564385
0.1004054174
0.1994642019
0.0476185046
-0.0834805369
0.1618514061
0.0356711112
0.0528533906
-0.0956312269
0.0192525666
0.0842675790
0.1235820577
-0.0820881203
0.0625720546
-0.0565774180
-0.0386330821
-0.0198726729
-0.0393597148
0.1361986399
-0.1667004973
0.1568323374
0.0897608921
-0.1211750656
0.0337318070
-0.1077805012
-0.0919286609
0.1170251593
-0.0897354260
0.0838579610
0.0322006047
-0.0195495896
-0.0562882908
-0.1525468230
-0.1218948364
-0.0222899430
-0.0623023398
0.0105206035
-0.0436592214
-0.1521859467
-0.0283852015
-0.0640837476
0.0257230997
-0.1113153026
0.0200245380
0.0670622662
-0.0586219281
-0.0874009952
0.0656352490
0.0284991115
0.1904787421
0.0881373137
-0.0409088917
-0.0169910155
0.1453731507
0.1369642466
0.0593435019
-0.0411474630
-0.0646838620
0.0513755679
0.0233031046
0.0653249919
0.1577467471
0.1013942361
0.1287283003
0.0410668589
0.0391958691
-0.0466359369
-0.0134734409
0.0532558598
0.0753854066
0.1437754035
0.0592280403
0.0500615947
0.0202161726
0.0499482602
0.0661097392
0.1544524580
0.1761275232
0.0210608076
-0.0064247306
0.0729090646
0.0142489150
0.0680911541
0.0608373806
0.1196257621
0.0158207044
0.0182870012
0.0248786807
0.1224818826
0.1662644893
-0.0889113694
-0.0095277345
-0.0499157161
0.0678413361
-0.0500278994
0.0070615984
-0.1078216285
0.1750767529
-0.0065397634
-0.1359030008
0.0061119637
-0.0472015627
-0.0224488266
0.0631356463
0.0754740909
0.0717635378
0.0975256711
-0.0299820490
-0.0598734953
-0.2100525796
-0.1226690933
0.0438583642
-0.0086430144
0.0516433790
-0.1644811183
-0.0545711704
-0.0495732650
-0.1106432006
0.0306093153
-0.0806898326
-0.0480545796
-0.0394127779
-0.0268868692
0.1280473620
-0.0283560362
-0.1176921502
-0.0418454483
-0.0970969498
0.0158298146
0.1203458160
0.0353928320
-0.1336742938
0.0580070615
-0.0247826632
0.1344325840
0.0438953042
0.0105129341
-0.0443178900
0.1485938877
-0.0994592458
0.1057351083
-0.0010687558
0.0729311258
0.0058583077
-0.0979835615
0.1689470112
-0.0213091373
0.0760097876
0.0515601672
0.0799488276
-0.0000664945
-0.0072828187
-0.0915222168
0.0467166752
-0.0365893580
-0.0762957484
0.0374316983
-0.0521610230
0.1874454021
-0.0669687688
-0.0383993536
-0.0723928958
-0.0725980550
-0.0177785568
0.0741654262
-0.0391123928
0.0416440181
0.0864893943
-0.1061828285
-0.0377927385
0.0630796477
-0.0546197332
-0.2095170468
0.0240546465
0.0275091305
-0.1708157957
0.0357145518
-0.2077756077
0.0211838167
0.0064041950
-0.0595675521
-0.0253136009
-0.0592685565
0.1521233618
0.1193805486
0.0749295354
-0.0682681799
-0.0641575381
0.0079236561
0.0711410046
-0.0339636318
0.0000894428
-0.1982363909
-0.0102416547
0.0734251291
-0.0269534010
0.0288414750
0.1287813336
0.0282958541
-0.0729046091
-0.0143075110
-0.1236728430
-0.0706634149
0.0007207728
0.0932326615
0.0717278495
0.0796782672
-0.0020347717
-0.0898506790
0.1036439240
0.0915839821
0.0337855928
-0.0722674951
-0.0217339341
-0.0056973631
-0.0678551123
-0.0032283959
0.0020018087
-0.0200395025
-0.1575649679
-0.0529724509
-0.0930527002
-0.0546086058
-0.0093784370
0.1347727776
0.0572227873
-0.0316689461
-0.0085129114
-0.2693444788
-0.0084788548
-0.1538136750
0.1699818373
-0.0642296150
0.0684968904
-0.1082186848
-0.0674306378
-0.0823844373
-0.1786858588
0.0190207493
-0.0863031447
0.0237454418
-0.1246207207
-0.0962852761
0.0054554045
0.0829633325
-0.1238334030
-0.0939044207
-0.0103178620
-0.1035723016
0.0889039114
0.0101000974
-0.1876599640
-0.0118409107
-0.0679816008
0.1144430935
0.0723905638
-0.0982279330
0.0867521688
-0.1054112464
0.0481608883
-0.0479249097
0.1064595655
0.1129629165
0.0056129759
-0.0210599694
0.2960538864
0.0383021571
-0.0251684953
-0.0184253771
-0.0857067406
0.0130613456
0.0651701316
-0.1014882326
0.0004730952
0.1572305709
0.0268629566
0.0019389236
0.0533715300
0.0824428350
-0.1607025117
0.2057043761
-0.1345897913
0.0902276114
0.0330877788
-0.0817159936
-0.0112962117
-0.0684296563
-0.0635757446
0.0192773659
-0.1181177646
0.1493242383
0.0619574711
-0.0150806941
-0.0450781025
-0.1130426973
-0.0676418468
0.0898638442
-0.1092806458
-0.0049682176
-0.0115573751
0.0820425600
-0.0871322453
0.1707056910
-0.0688830540
-0.0969573110
-0.1114603877
-0.0129933050
-0.0974044055
-0.0471811332
-0.0533927716
-0.1296463907
0.0398014933
-0.0224236175
0.0449518338
0.0017084341
-0.0083346246
0.1424320340
-0.0119069153
0.0708756447
-0.0733157769
0.0259879921
-0.0360935405
0.1423569024
-0.1540962756
-0.0426650122
0.0200874284
-0.1122224703
0.0789649189
-0.0887324512
0.0049498430
-0.1873040050
0.1105688885
-0.0637374073
-0.0973441377
0.0746483505
0.1529331505
0.0065773642
0.0249340385
-0.0726072043
0.0096499203
0.0066035595
0.1257001311
-0.0158872362
0.0342408828
0.0430288911
0.0110416925
-0.0620011538
0.0536588505
0.1185272187
0.1364958435
-0.1438576877
-0.1789194196
-0.1024941057
-0.2274379283
0.0188482311
0.1117979884
-0.0359947309
0.1002940983
0.0529482290
-0.0054159630
-0.1173356324
0.0474693254
0.1074482352
-0.0181020908
-0.0902684629
-0.0634411201
-0.0826911181
-0.1302245259
-0.1599527448
-0.0340106077
-0.1382902265
-0.0108586811
-0.1206779331
-0.1318120807
-0.0231763348
-0.0117805693
0.0668459088
-0.1279256046
0.1026173159
0.0878956616
-0.0875815749
0.0231509209
-0.0596002936
0.1670963019
0.0434257723
0.0396284051
0.0003529633
0.1093133539
0.0173415057
-0.0250630956
-0.1043854430
0.0578734986
0.1057518199
-0.0257287286
0.0805703923
0.0717164874
0.0030478481
0.1388289779
-0.0864848495
-0.0054447274
0.1192513257
0.1047807559
0.1022051722
-0.1107952595
-0.0243033525
0.0453822128
0.0700579807
0.1780242622
0.1174381748
0.0215901639
-0.0850969702
-0.0248988271
-0.0645770207
0.0511605144
-0.0582185462
0.0555128008
0.0104120104
0.0623394288
-0.0872236416
0.1145058498
-0.0351212285
0.0987829342
-0.1675661355
0.0458786115
0.1184395030
-0.1707382202
-0.0195230395
0.0581422187
-0.1729256213
-0.0109218527
0.0755597502
0.0540916957
-0.0110101737
0.0668119863
0.0899052843
-0.0880405456
-0.1396232098
-0.0849519745
0.0487333089
0.0179545414
-0.0447805040
-0.0184990317
0.0485692471
-0.0861589313
0.0789317638
0.0296498258
-0.0096293278
0.0037038652
0.0371673331
0.0182986744
-0.1894249767
-0.0585859008
-0.0398135521
0.0906754285
0.0566939041
0.0627496615
-0.1935938895
-0.1044590920
0.0734089538
0.0823719800
-0.2001627833
0.0192516427
0.1596975327
-0.0160307251
-0.0390119329
-0.0275895838
0.0092457496
0.1365806907
0.0014838132
0.1786970347
0.1404610872
-0.0484566651
0.0097768111
-0.0196462441
0.1024634913
-0.1110126972
-0.0736466274
0.1023250222
0.0926391631
0.0315120965
0.0142398076
0.0663527623
-0.2193025947
-0.0452147536
-0.1166875064
0.0343769751
0.0324854963
0.0351770818
-0.0567024760
-0.0034905258
-0.0680293739
-0.0150348162
-0.0142339859
-0.0702294335
0.0658366829
-0.0856975466
-0.0490283407
-0.0497575253
-0.0492174923
0.1269376427
-0.0204806905
0.0665793046
0.0495251492
0.0899145007
0.0073505780
0.1840256304
-0.1519040167
0.0715096369
0.1564295441
-0.0967885107
0.0418664776
-0.1287019700
0.1651254296
-0.0454151146
0.0867978260
-0.0068649435
-0.0369872600
-0.0897572488
0.1564920992
-0.0638215914
0.1087114811
0.0860453025
-0.1085175127
-0.1417080164
0.0209303368
-0.1455560029
-0.0676800758
0.0798711032
0.2050812691
-0.1397770196
-0.1667944491
-0.0069550700
0.1279610991
0.0181438662
-0.0441394337
0.1047629490
0.0643259361
0.0023793327
-0.1860220134
0.0865685940
-0.1526093781
-0.2014324069
0.0139138559
-0.0948151946
-0.0570899956
0.0537967421
-0.0797355324
0.0501147397
0.0369293280
-0.1384787261
0.0307852495
-0.1064327210
0.1241885498
0.0071605677
-0.1185351908
-0.1132768989
0.0456451550
-0.0834615976
-0.0139579047
0.0539162792
0.0718019754
0.0989731923
-0.0609193854
0.0057266750
-0.0334807299
0.0050374479
0.0965152532
0.0468220450
-0.0439365171
-0.0324575938
0.0471421853
-0.0475769527
0.0182282347
0.1021812111
0.0609489530
0.0285106190
0.1057338044
-0.1403489113
0.0627204254
-0.0934172273
-0.1128398925
0.0484073646
-0.0949659348
-0.0570903718
-0.0915319771
0.1298010796
-0.1556118727
0.0072597358
-0.0323432237
-0.0456802435
0.0101628127
-0.0340928994
-0.0787642077
0.0593264736
0.0461019091
0.2365592122
-0.2188650519
0.0022928340
0.0723361298
0.0633787140
0.1310601979
0.1893302500
-0.0178185552
-0.0940140113
0.0472292081
0.0972986221
0.1453806013
0.1875030249
0.0224488117
0.0500731617
0.1217544526
0.0369811654
-0.0495574810
0.1526359469
-0.1105980575
0.1253647953
-0.0389088504
0.1682444811
-0.0654344037
-0.0800056159
0.1111975610
-0.0137796951
0.0667652339
-0.0182610825
0.0426422432
0.0454666838
0.0925789922
0.0866746083
-0.1302470565
-0.1345487684
0.1904251426
-0.1084471047
-0.1069940254
0.0699710771
0.0076367473
-0.1291204095
-0.0177485961
0.1000171751
-0.1369408667
0.0160539653
0.0363134593
-0.1057505459
-0.0933001265
0.1166448444
-0.0099769477
-0.0842068791
-0.0172304139
-0.0610140823
0.0363790467
0.0490969233
0.0883081630
0.0170160942
0.1470914632
0.0343086310
0.0527616814
0.0055235322
-0.1700900048
-0.0115607064
0.1162213460
0.0405507497
-0.1187913045
-0.1517684758
0.1571927667
0.1796705276
0.1569754034
0.0127663966
0.0111016892
-0.0436239243
0.0805472881
0.0228284858
0.1441904306
-0.1035871953
-0.0661030784
-0.0123845097
-0.0733956993
0.0977118984
0.1540772468
-0.0038342492
-0.0977440178
0.0332200490
-0.0416860916
-0.0802443847
0.0132574923
-0.0871645138
0.0785273537
0.1252692789
0.0726452246
-0.1043318436
-0.0732086375
0.0899623856
0.0514917672
-0.0417310148
-0.0190855954
0.1603476554
0.1206367835
-0.1011605263
-0.0427366570
-0.0980604514
-0.0195845366
-0.2001988292
-0.1177223697
0.1525475979
0.0800369233
-0.0851388723
0.0480714105
0.0694065765
0.0948664472
0.1105108857
-0.2219767272
0.0302224923
-0.1138011217
-0.0280008297
0.0167098362
0.0086515108
0.0052781268
0.0360697359
-0.0558289625
0.0159167647
0.0976462588
0.0802952200
0.1099260300
-0.0475700125
-0.1248582155
0.1060173288
0.0451019593
-0.0531862564
0.1031933874
0.0331479870
0.0426470637
0.1580440402
-0.1320076585
-0.1382927001
0.0684183761
0.1475949734
0.0494775362
0.0578627996
-0.0949679911
0.1637634933
-0.0445877016
0.0449626520
0.0329959989
-0.0347851925
0.0290816668
0.1051601022
-0.0118598314
0.2266183347
-0.0179667417
-0.1009079218
0.0669123679
-0.1682701558
0.0740850195
0.1769704819
-0.0942520425
0.0532091707
0.1736078709
-0.1668801457
-0.0225502234
-0.0376880877
0.0061262604
-0.0096764490
0.0134886326
-0.0453644469
-0.0868893191
0.1113203391
-0.0157050509
0.1016946137
-0.1262244880
0.0245390944
-0.0370963663
-0.0659558848
0.1345574409
-0.1476393938
-0.0922408402
0.0848014206
-0.0234515555
-0.0845266059
-0.0886098593
-0.0179576371
0.0111488951
0.0556362420
-0.1171705648
-0.0603639707
0.1560609937
0.1070414633
-0.1969091445
-0.0195966437
0.1217689067
-0.1137054265
0.0756876618
0.0123690274
0.0924044326
0.1523506045
-0.1343568265
0.0635074303
0.1010630205
-0.0615501292
0.1349526346
0.0092415530
0.0945675001
-0.0747224614
-0.0793376416
0.0818018019
0.0656935051
-0.0972165167
-0.0728727430
0.0111125289
-0.0187478345
-0.0347996764
0.0484200530
0.0979400054
-0.0031386814
-0.0786146969
0.0000127245
0.0224540904
-0.0031571314
0.0791401789
-0.0121352859
0.1174645051
-0.0380998626
-0.0598671697
0.0412782952
0.0640516356
-0.0303398669
0.1978213489
-0.1076778546
0.0411304794
0.0745195523
0.1163541153
0.0343891680
0.0138047254
-0.0907076970
-0.0243801326
-0.1070177183
-0.0249319281
-0.0107678063
-0.0485526882
-0.0270876046
0.1012147591
-0.1461149305
0.1039176807
-0.0098419478
-0.1374461502
0.0606255494
0.1776478589
0.0141393626
-0.0937528089
-0.1169544235
-0.0622861832
-0.0832432583
0.0435515530
0.0004633045
0.0961381048
-0.1502839029
-0.0868645236
0.0982215777
-0.0176690426
-0.1801946014
-0.1760763973
0.1907818466
-0.0118461121
-0.0132415118
0.0248471387
0.0495531261
-0.0178919882
-0.1610618085
0.0307220742
0.0913729593
-0.0461313762
0.1008587629
-0.0348416902
-0.0844588354
0.0337046683
-0.0434794948
-0.0380319022
-0.0440542772
-0.0748231560
-0.0366363190
-0.1321349144
-0.0865670890
-0.0428051054
-0.0616132692
-0.0622476153
0.1208383664
-0.0890626609
0.1677480787
0.0166631248
0.1519555748
0.1355896443
-0.0906192064
0.0772536248
0.1078172922
0.0562963895
-0.1490075290
0.0108919060
0.0845157579
-0.0132883452
0.0222542416
-0.1526202112
-0.0902225077
-0.0421338305
0.1273585260
0.2403966784
0.1926804036
0.2081723362
0.0273013376
-0.1069154143
0.0041273246
0.0576808788
0.0993842259
0.0067537711
0.0728037506
-0.1390756369
-0.0287061129
0.0123070013
0.0474184230
0.0122674275
-0.0562197603
-0.0733251423
-0.0909322500
-0.0078799864
-0.0885538012
0.0046574762
0.0454064347
-0.0833940431
0.2059934288
-0.0918938145
-0.0360194892
-0.2685445547
-0.0075516324
0.0502735376
0.0141626429
0.0517117977
0.0459693074
0.1962438822
0.0922432914
-0.1004494429
-0.0882234275
-0.0353659764
-0.1564288884
0.0347679518
-0.0111794332
0.2101445943
-0.0280293971
0.0733639374
-0.1519771218
0.1262024194
0.1051223129
0.0752179921
0.1535401791
0.0599868968
0.0078797564
0.0031735844
0.0259820707
-0.1682881564
-0.0078015355
0.1164427251
0.1012910306
0.0408381820
0.0607555248
0.1251234114
0.0927550420
0.0457010008
0.0104821809
0.1803229749
-0.0103044864
0.0765233263
0.1587441117
-0.0383260436
-0.2072890252
-0.0247133281
-0.0081843035
0.0840052143
-0.0449068397
0.0498064682
-0.0794230774
-0.0585947968
-0.0107236626
-0.0442184620
0.1158894747
-0.0974346995
-0.0520056225
0.1696293354
-0.1124357656
-0.0482927077
-0.2083436102
0.0515776277
0.0224016570
-0.1124713570
0.0240562819
0.1204396412
-0.0397996046
-0.0025717148
0.0799813196
0.0151954638
-0.0587204807
-0.1626227349
-0.1031639427
-0.0214812476
0.0164690129
0.1731767654
-0.0560309328
-0.0396008827
-0.0743623972
0.0464069843
0.1518203914
0.0285838712
-0.0530930087
-0.0228726622
0.0014657184
-0.0355172046
0.0970744789
-0.0606784187
-0.0800016448
0.2430883646
0.1137444600
-0.0926250368
0.0118036177
-0.0817564204
-0.0372834466
-0.0193052050
0.0299932528
0.0098945070
0.1758227199
0.0913570076
0.0676826015
-0.1431501657
0.0173135214
0.0961599723
0.0255994573
0.0368834846
-0.1115419120
0.1131372079
-0.0178425722
0.1415848136
0.0529470816
0.0313107632
0.0649690256
0.0357502811
0.1144041121
-0.0829674453
-0.0396074504
-0.0267216619
0.0550183356
-0.1919803619
0.0260746982
0.0483748391
-0.0348208100
0.0607257821
-0.0569724552
0.0797040313
-0.0253915992
0.0008887849
-0.0794468895
-0.0561886281
0.0267249309
-0.0196187254
-0.0648382753
-0.0982137024
-0.0351357684
-0.0280348640
-0.0108187608
0.0524210706
-0.0080692992
0.0500139333
-0.0545657910
0.0119134681
0.1657357961
0.1477183998
-0.0806687176
0.0421968065
-0.0013278779
0.0190575793
-0.0701189786
-0.0451050662
0.1122284010
-0.0431027263
-0.0115976036
0.0946518183
0.1311072558
-0.0013370059
0.0544474721
-0.0312819704
0.0703410134
-0.0313254111
-0.0074089053
0.0648391992
0.0552179478
-0.0265871789
-0.0481589325
0.0408115350
-0.0305702407
0.0656898618
-0.1759591550
-0.0630884096
0.0040830038
-0.1051681116
-0.1339924186
0.0854464471
0.0930159912
-0.0029902111
0.0862418786
0.1413842440
-0.0271974914
-0.1009245440
-0.0642020926
0.1492723078
-0.0851822346
-0.0506648347
0.1498662382
-0.1126746908
-0.0536438487
-0.0495375693
0.0854255706
-0.1349336058
0.1158392504
0.0809231028
-0.0998455584
0.0164729357
0.0209718570
-0.0168471504
0.2670930028
-0.0278463196
0.0997393802
-0.0647700951
-0.1049430594
-0.0882165059
-0.0426764563
0.0969816446
-0.0167312976
0.0846831799
-0.0960776657
-0.0872889608
0.1343459189
0.0921340808
0.0083383126
0.0731727257
0.1484695226
-0.1282736659
-0.2016645968
0.1504519582
-0.1072164252
-0.0828262940
0.0809125230
0.1743439883
0.0266796201
0.0409180485
0.0093336403
-0.0380427912
0.0537479222
-0.0190569796
-0.0016063775
-0.0451044925
-0.1347284317
-0.0288950447
0.0482855700
0.0133171789
-0.1856144667
-0.0998884439
-0.0980354100
0.0722759664
-0.1635784060
-0.0256299656
0.1116705835
-0.1343255788
0.0524582490
-0.0211995468
0.0426127501
-0.0990931317
-0.0211672112
-0.0119951488
-0.0780059174
0.1108569503
0.1311668307
0.0739094168
-0.0408996791
0.0528477505
-0.1929084808
0.0397903770
-0.1262302846
-0.0435975082
-0.1848596931
0.0495593548
0.1486997157
0.1517437994
-0.0336234570
0.1012737229
0.1254527569
0.1160931885
0.1371171325
0.0565406159
0.0852880329
-0.0596232228
0.0939567164
0.0111422557
0.1193430871
0.0719627440
0.2054884285
0.1119886562
-0.0209188163
0.0278910343
0.1498370171
-0.0370991938
0.0331891775
-0.0413153023
0.0346035324
-0.0404713899
0.0546352044
0.0624639094
-0.0674916208
0.0058282032
-0.0917975307
-0.0300338548
-0.0609791540
0.0111635840
-0.0855774507
-0.0625730827
-0.1489394754
-0.0633627772
0.0640791282
0.0389960818
-0.0443609841
0.2300205529
-0.0244655572
0.0144941742
-0.0402676240
-0.1079647094
0.0737506002
-0.1927376091
0.1980765760
-0.0788046420
-0.0677006990
-0.0293927118
-0.0683375597
0.0898896083
-0.0476799235
0.0143404920
-0.0373967886
0.0989380330
0.0002396259
0.0378863998
0.0537470877
0.1145087406
-0.0415681303
-0.0679936484
0.0805954933
0.0873175934
-0.0849129334
0.0803758204
-0.0136098694
-0.0888190642
-0.1162512377
-0.1851951927
-0.1028351933
0.0847478509
0.0753870979
0.0986849815
0.0939524770
0.0236536562
-0.1809147745
-0.0662740171
-0.0320493840
0.0023689084
0.0089264223
0.1219349131
-0.0006769662
0.1878935546
-0.0133564286
0.0992216393
0.0870931670
-0.2141905576
-0.1085749790
-0.0847377330
-0.1365774423
-0.0941451266
-0.0580994375
0.0971281901
0.0059307604
0.0360703357
-0.2412496209
-0.0115784556
-0.0311630517
0.0387742668
0.0967862904
0.0540959574
-0.0519675054
0.0368418172
0.0196331125
-0.1069777906
-0.0020229111
0.1522461772
0.0287465993
0.0800100267
0.0165958479
-0.0467321239
-0.0305421576
-0.1076528728
0.0413922183
-0.0111704385
0.0361576900
-0.0205032341
-0.0044637830
-0.0568585321
-0.0194488801
-0.1453857571
-0.0486744232
0.1967635304
-0.1659370065
-0.0845504105
-0.1040424928
-0.0784826353
0.0202645510
0.0898841247
-0.1457397342
-0.0594277009
-0.1819915026
0.1131957173
0.0697603300
-0.1392812282
0.0671727285
0.0918085352
-0.0196293797
-0.0122572733
0.0572249591
-0.0797834769
0.0201090015
0.1420193464
-0.0568977520
0.0631622896
-0.0410506390
0.0672000349
0.1486630738
-0.0633829832
-0.0012827126
0.0615126751
-0.1340912879
0.0697651356
-0.0189104136
0.0905728936
0.1609313488
-0.1247855723
0.0644066930
-0.0048662126
0.0389363840
-0.1766803265
-0.0102159558
0.0028566802
0.1775736064
-0.0904074609
-0.0568519235
-0.0392924584
-0.0259246174
0.1460682899
-0.2301889807
-0.0215602797
0.1593797654
0.0082377717
-0.0168600045
0.0554640219
-0.0167727899
-0.1501710266
-0.0379782990
-0.0430720784
-0.0924772620
0.1617120653
-0.0881024748
-0.0420313701
-0.0013648890
-0.0549255274
-0.1805929691
0.0020587246
0.1197180301
-0.0531982705
-0.0279545113
-0.0464571193
0.1709215343
-0.0573717169
0.0315724947
-0.0946797952
-0.0173443034
0.0536418334
0.0346687920
0.0795853809
0.0629741848
0.1384893805
-0.0646788478
0.0841874257
0.0231273901
0.1270724684
0.1353137046
-0.1953173131
0.0490428209
-0.1461827904
0.0548638962
-0.1844025552
0.0201332904
0.1208915189
-0.0961165577
0.0554288030
-0.1822111160
0.0504206643
-0.0538780950
0.0874168351
0.0221269373
0.0715326369
0.1416046470
-0.1159342602
0.1447292119
-0.1742578894
0.1429022700
0.0615663752
0.1020354852
0.0741950199
-0.0732212365
-0.0405001603
0.0179498810
-0.1570175290
-0.0361576676
-0.0082174279
-0.0774358809
-0.0536920428
-0.0565390624
0.1801619381
0.1538227201
0.0123961437
-0.0747843012
0.0747964829
-0.0050029657
-0.0827356577
-0.0080231028
-0.0064282529
0.0195648335
0.0631391183
0.0279621314
0.0768941045
-0.0200426355
0.1035752445
-0.0425432846
-0.0272510275
0.0509076230
0.1033155844
0.0179418232
-0.0360223055
-0.0274354760
0.0556768999
0.0903960913
0.0966070369
0.1228901520
0.0362807997
-0.0417157859
0.0553718098
0.0729288757
-0.0220647193
0.0844753012
0.1921110749
-0.0222003981
0.0648273528
-0.0872098804
0.0341332629
0.0565493219
-0.1429053545
0.1658710092
0.0897537842
-0.0960979015
-0.0276348442
0.0035475197
-0.0100579374
0.0482180454
-0.1260871589
-0.1183511540
0.0445638746
0.1135967225
0.0165133681
-0.1210735962
0.0220180172
0.0153488172
-0.0658882707
0.0504686274
0.0391107015
0.0248367097
-0.0021086955
-0.0538724065
-0.0897393674
-0.1217929646
0.1590856016
0.1557369381
-0.0085619232
0.0215053707
-0.0610252470
-0.0207962114
-0.1276525706
0.1943083405
0.0144503461
-0.0994666517
0.0750541911
0.0666659996
0.0269454420
-0.1134590209
-0.0709997490
0.1695594490
-0.1257660836
0.1508294791
0.0129032973
0.1103289053
0.1609710306
0.0080981739
-0.0997271538
0.0523192771
0.1087636203
-0.0301322024
0.0690674931
0.1509699672
-0.0139533821
-0.0076522543
-0.1125612259
-0.0971351042
-0.0518035181
-0.0609220676
-0.0322248302
0.0592550300
0.0321951061
-0.0371602066
0.1622600704
0.0903808326
-0.0619216785
0.1573996693
-0.0679014400
0.0822715983
-0.1435996741
0.1254519820
-0.0086030951
-0.1013234556
0.0369168930
-0.0005668213
0.2213642001
0.0377623066
-0.0044606542
-0.0295436252
-0.0538593121
-0.0232670102
0.0162320845
-0.1715771556
0.1206461564
-0.0303254481
-0.1007886827
-0.0511173531
0.1155496836
0.0687346086
0.1217097715
0.0803352371
0.0261355899
0.0098216003
0.0612883829
0.1047648415
-0.1349320561
-0.0243401900
0.0755330697
-0.0629201084
-0.0854391232
0.0107189612
0.2395023555
0.1633489132
-0.0085375430
-0.1601117104
0.1278398633
-0.0702249631
0.1882449538
0.1276336461
0.0032739891
-0.0507471748
0.1930529624
0.0166010745
0.0081984717
-0.0136715900
0.0985923633
0.0351740718
-0.0654745400
-0.0374328308
0.0418757126
0.0929649100
-0.0510670356
0.0642127022
0.1389580220
-0.0060261507
0.0058314069
-0.0495669618
0.0843247026
-0.0960045531
0.0435733832
0.0139143476
0.0417792983
0.0600817911
-0.0211633872
0.0574343018
-0.0197415762
0.0632822812
-0.0957814306
0.0732835308
-0.0046586148
-0.0472492315
0.0579880401
-0.0979551896
-0.1106869429
-0.1219459400
0.0632694140
0.0651712641
0.0333430693
-0.1860492378
-0.0091086905
0.1883603185
0.0204018150
0.0462581366
0.0320363194
0.1143215597
0.0440090932
0.0220160428
-0.0200367793
-0.1124137342
-0.1440648288
-0.1037923545
0.0882994011
-0.0195361376
-0.0691633075
0.0878252462
0.1758783758
-0.0507620052
-0.0471755117
0.1497768462
0.1088605449
-0.0364706293
0.0562441647
0.1444917172
0.0040841084
0.0210767370
-0.0841001943
0.1084575430
0.0382041410
-0.0563528910
-0.0210959222
0.0026226973
0.0037639614
-0.0150759192
0.0509426221
0.1205900833
-0.0036986899
0.1294514388
-0.0791461468
0.0286241714
-0.1165342480
0.0993334427
-0.0035406670
-0.0713396221
-0.0515621677
0.0425620377
0.0900403261
-0.0858495459
-0.0676872656
-0.0746376365
0.1022935733
-0.2101104707
-0.0529718883
0.1385774463
0.1091211140
-0.0529557876
0.0460572317
-0.0445092134
-0.0225678980
0.1224419922
-0.0073183803
0.1554287076
-0.1206126884
-0.0522123650
-0.0687513649
0.1160964444
-0.0546448752
-0.0741485432
0.0709473789
0.0700122863
0.1037586331
-0.0588098653
0.1074243858
0.1380703151
-0.1570572555
-0.0606800541
0.1670162678
-0.0166667607
0.0262054875
0.0119176013
-0.0793292075
-0.1187424287
0.1160453185
-0.0284634400
-0.0158063434
-0.0204762556
0.0045302473
0.0317015648
0.0289036520
-0.1232552752
-0.1688703895
0.1974499375
0.0194407403
-0.0915299654
0.0470101088
-0.0080271866
-0.0072299354
-0.0550779104
-0.0797684938
0.0667635500
-0.0516767763
0.1200516298
0.0829884186
-0.1077840030
-0.0168443229
0.0457724743
0.0294441972
0.0058224695
-0.1111261472
-0.0408438705
-0.1409320831
0.0511748083
0.0448027924
-0.2512586415
-0.0200746376
-0.0134571772
0.0594592579
0.1637675613
0.1380028874
-0.0864046663
0.1293423027
-0.0398354270
-0.0325511992
0.0019622543
-0.0169924852
-0.0619479641
0.1907387674
-0.0166987386
-0.0578813031
0.0479996987
-0.0395337716
0.0233084727
-0.0234768540
0.0848648548
0.1052804366
-0.0369956642
-0.1127649769
-0.0075370227
0.1356680542
-0.0818610191
-0.0251783486
0.1029063314
-0.0795895234
-0.0588005036
0.1150515899
0.1373548657
-0.1689964086
-0.1198146343
-0.0440843329
0.0293951519
0.1315837353
-0.0827273130
0.0515395775
0.1551354975
0.0236122720
-0.0808881894
0.0265317820
0.0831372142
0.0992875323
0.0029266709
0.1596286297
-0.1175009683
-0.0566072948
0.1299284846
-0.1493613273
0.0906314254
-0.0177561939
-0.0723986998
0.0483677872
0.0787561461
-0.0243092738
-0.0146586113
-0.1005311012
0.1590147167
-0.0510797650
-0.0238132831
-0.0489584655
-0.0781582147
0.0502694026
-0.0298006479
-0.1904780269
0.0267755706
0.0745526776
-0.1133349910
-0.0465933494
0.0794921294
0.1566832513
0.1453418434
0.0649603382
0.0303217415
-0.0315925665
-0.0690886974
-0.1617651880
-0.1117131338
-0.0645464435
0.1024076194
-0.0800030753
0.1788816154
-0.0749802664
-0.0005827103
0.0718171373
0.1978555620
0.0269197840
-0.1131178737
0.0925942585
0.1022834629
0.1491286755
-0.0036374691
0.1134537905
-0.0282500647
0.1213460639
-0.0708734766
0.1653858870
0.0095586944
-0.1833025813
0.0976757407
-0.0059873587
0.0636509731
-0.1464730948
0.1727430671
-0.0198084991
0.0035323086
-0.0148419524
0.0429535583
0.0559989698
0.0164639875
0.1344656944
0.0498010367
0.0311233327
0.0785229653
0.1238281205
0.0285322387
-0.0359975062
-0.0263632238
0.0737577677
-0.1254418641
0.0112199970
0.0814921111
0.1087372303
-0.0765738487
0.0269863456
-0.0015259297
0.0153854406
-0.0536687486
-0.0918171257
-0.0134905232
-0.0938208401
-0.1852183789
0.0834449306
-0.0577313714
0.0817739516
0.1351507306
-0.0299789198
0.1069207862
0.1605886966
-0.0464941189
-0.1184877604
-0.0897135362
0.0924845263
0.0150052393
0.0394019820
-0.0827294067
0.0290291235
-0.0388537087
-0.0126616461
0.0789856166
0.0439991690
-0.0009793661
-0.0630827099
0.0663931742
-0.0024132116
-0.0398394130
0.0011279612
0.0364857577
0.1401510835
-0.0168262031
0.1455257982
-0.1600016356
-0.0045635705
0.0366179794
0.0709313303
0.1092824861
-0.0037194658
-0.0168310143
0.1023408398
-0.0719608963
-0.0531130321
-0.0192805231
0.0306262653
0.1073944718
0.1237954572
0.0440891944
0.0300731268
-0.0503834113
-0.1505052298
-0.0993614271
-0.1076521650
-0.0375314727
0.0222754180
-0.1634687930
0.0166290067
0.0207066461
-0.1177930683
-0.0334104598
-0.0007408671
-0.0608939640
-0.0508058667
-0.0887982175
0.0188184679
-0.1625271142
-0.1524775028
-0.0295253675
-0.1205901653
-0.1454509348
0.1527070105
0.0558485240
0.0509831533
-0.0064108390
0.0878092647
-0.0412983671
-0.0123626124
0.0999047607
0.0264782812
0.1017609015
-0.0526431091
0.0340428613
0.0328720324
-0.1218296811
-0.0937820300
0.0883915126
-0.0489991754
0.0262183771
-0.0701326132
0.0404556170
-0.2329623401
-0.1079943627
0.0695374757
0.0143517517
-0.0264593158
-0.0400203876
0.1315546334
-0.1397246122
-0.0652813911
0.0876216218
-0.0381327346
-0.0363690555
-0.0844393373
-0.1440872550
-0.0827417895
0.0782261938
-0.0974239931
-0.0638802946
0.0413342118
-0.0953390449
-0.1489189714
-0.0826048404
0.0537886508
0.0626788884
-0.0784820542
0.0818964541
-0.0304416567
-0.0559021942
-0.1144144982
-0.0551024191
0.1229512170
-0.0693254173
-0.2089785635
0.0927417576
0.0404904485
0.0789455920
-0.0944933966
-0.0341745429
0.0398454256
-0.0141094057
-0.0307748746
-0.1037898660
-0.0567549765
-0.0037959972
0.0504204147
-0.0015637937
-0.0090970043
-0.1113461778
-0.0268809274
0.0028291717
-0.0030298554
0.0412709936
0.0493820235
-0.0389699824
-0.0010992254
-0.1712413132
-0.0172615219
0.1530594826
0.0389310755
-0.0222355332
0.0499331132
-0.1330786198
0.0906774849
-0.1440859884
-0.0329033472
0.0815387294
0.1261940300
-0.0678696334
0.0292808358
0.1086480618
0.0382004306
0.0994056538
-0.0518147498
-0.0605921485
0.1782986373
-0.2090764642
-0.0394154079
0.0848097578
0.0941256359
0.0941032171
-0.1424332559
0.1536248326
0.0138055077
0.0953039601
-0.1220282763
-0.1014939845
-0.1109753996
-0.0683344603
0.0735620782
0.0347475708
0.0712070093
0.1017310172
0.1388197243
0.0953481570
-0.0487349592
0.0018077770
-0.0618072897
-0.1413706839
-0.1171514913
-0.0555809923
-0.1180799454
-0.0333095826
-0.0933175310
-0.0520092063
-0.0835139081
-0.0446934812
-0.0349098817
0.1660014540
0.0504573919
-0.0159665775
0.0492647663
0.1115841642
0.0238624960
-0.1110340580
-0.1348096877
0.0577983968
0.0478887893
-0.1690479964
0.1266068071
-0.1150867119
0.0248836372
0.0505230427
0.0252978280
0.1327356398
-0.0130161662
-0.1419349909
-0.0156634841
-0.0272131618
0.0118039325
-0.0237079095
-0.0200520810
0.1441760063
0.0993271694
0.0690080374
0.1001589373
-0.0356907919
-0.0550000146
0.0033376738
-0.1388752311
0.0405131094
0.0792821422
0.0555454306
-0.0127291828
-0.1032053530
-0.1355488449
-0.0276380405
-0.0347769186
0.1491231918
-0.0709034279
-0.0533872321
0.0331004634
0.0583488420
-0.1421846449
-0.1440584958
0.2027195692
-0.0082530789
0.1055857837
-0.0168732274
-0.0133981276
-0.0406600833
0.0129444059
0.0821610019
-0.1011075452
0.0286441073
-0.1753885746
0.1376730055
-0.1231171936
-0.0595309027
0.0885292739
-0.0561499372
0.0982335433
-0.0698707402
0.1506703049
0.0728344172
-0.0172727108
-0.0225887205
0.0132926526
0.1411422342
-0.2008552402
-0.0857660398
-0.0318681188
0.0258961506
0.0133743193
-0.0496813022
0.0223746821
-0.0632526353
0.0795433372
-0.0716518164
-0.1781837493
-0.1621270478
0.0557834879
0.0445658118
0.0140553825
0.1570701748
0.0157972332
0.0750452653
-0.1275117099
-0.0417589098
-0.0068037724
0.1258239746
-0.0344136506
-0.0995062217
0.0734769478
-0.0813385174
-0.0911040306
-0.0814652741
-0.0397687890
0.1511518508
-0.0325473137
-0.0066952412
-0.2446407378
-0.0950350240
-0.0937310532
-0.0631855279
-0.0426203907
-0.0281046070
0.0723103210
-0.0148874186
0.0168462824
0.0239934158
-0.0619360059
0.0719561279
-0.0907446146
0.0115764225
0.0563692264
-0.0454893671
-0.1551901102
-0.0710983500
-0.0553618036
0.0574325882
0.1450110078
-0.1556651145
-0.0969985798
0.0494569577
0.0100190863
-0.0059270523
-0.0582554303
0.0367805175
-0.1220268160
-0.0204458274
-0.0415008664
0.0536024906
0.0375000909
-0.0248774290
-0.1732394248
-0.2017989606
0.1341405362
0.0587170124
-0.0107085183
-0.1234126091
-0.0797186419
0.1741155088
-0.1879176646
-0.0906051025
0.0461455509
-0.0051614270
-0.0502634943
-0.1510331780
-0.0520769954
0.0162771959
0.1007563472
0.1386182010
-0.0385591313
0.0716332495
0.0748829469
0.0817422345
0.0774762407
0.0049582040
0.2242367566
-0.1531358361
0.0695694163
0.0343430564
-0.0547082610
-0.0835690647
0.0687067807
0.0394872464
0.0940461531
-0.2044303715
0.1166427508
-0.0223257132
0.0119464220
-0.0761397332
0.0345645435
0.1390628219
0.1348050535
-0.0200162213
0.0510064140
0.1655273885
-0.1021136418
-0.0571241155
-0.0045015728
0.0624400787
0.0566528067
-0.0182255283
0.1675981283
-0.1250119209
0.1191916019
-0.0579398870
-0.0576507337
0.1567586958
-0.0808660761
-0.1347787678
-0.0660546869
-0.0311647970
0.0673035532
0.1197825968
0.0117974607
-0.1721807420
0.0283221100
0.1782315224
-0.0363133959
-0.1068202183
-0.0442225970
-0.0326223038
-0.0359739065
-0.0602054931
-0.0883819088
0.0615496449
-0.0049450072
-0.0678332970
0.0361752249
0.0252792388
-0.1047957987
0.0841997787
0.0095096165
0.1494939625
-0.2345817238
-0.0637968183
0.0522914603
0.0121417083
0.1067309678
0.0543595627
0.1213273332
0.0750051588
-0.1856201738
0.2078197747
-0.0933034047
0.0246004201
-0.0648508519
-0.0546944812
-0.0028426338
-0.0187713653
-0.1573724598
0.1042350158
0.0422976837
0.0039276239
0.0647956058
0.0146770487
-0.0870988369
-0.0532129779
0.0302490257
0.0142467218
0.0530100502
-0.0983524993
-0.0164801348
-0.0121884113
0.0986014605
-0.1282175183
0.0040875995
0.0912907198
0.0429172702
0.1552415639
-0.1174411103
0.0616452061
-0.0239483751
0.0869653299
0.0815528482
0.1146107614
-0.0343409590
-0.1536846161
0.0833785459
