-0.3037980497
-0.0461998731
-0.1482608914
0.0979085416
0.0698346496
0.1754915267
-0.0811257586
0.1547052264
0.0509726554
0.1364926845
-0.1147922054
-0.1109196991
-0.2569141388
0.3112674952
-0.1516637355
-0.1929674596
-0.1738312840
0.1457776874
-0.0347362421
0.0917971879
0.0252014920
0.1753586084
0.2427688241
-0.1882857829
0.1858240068
-0.2242492437
0.2645074427
0.2166270912
0.2345153987
-0.0828614384
-0.0952608585
-0.1672055721
-0.1781837642
0.0504739620
-0.1277024448
0.1768682599
0.2227112353
0.0583189353
0.3889733255
0.1324060112
0.2475172728
-0.1058510169
0.0795302242
-0.1738180816
-0.1337655038
-0.2375654876
0.0930402651
0.1803863645
0.2908735871
-0.2337982655
0.1043745056
-0.1110815108
0.1476564109
-0.0583535396
0.2464921772
0.1827720851
0.2268043607
0.2504696548
-0.1566476822
0.1644718796
-0.2753441632
0.1079867184
0.1935334653
0.1370034665
0.1677232832
-0.0029177461
-0.2417603731
0.1837024540
0.1781757027
-0.0849572048
0.3541359305
0.1862508059
0.0610029176
-0.0591699854
0.1245844364
0.1997714490
-0.0866639838
0.0052750609
0.1479815394
0.1485905498
-0.1665785015
-0.0083839558
-0.1116535813
-0.1354084760
0.0026582435
0.2520510852
-0.0682962835
-0.2046044618
-0.2067477554
-0.0636136457
0.2078589499
-0.0026962811
-0.2288299054
0.1792013943
0.2050288320
0.1331254542
-0.1699364036
0.0557198226
0.2208419293
0.1475973129
0.1673932225
-0.2313006818
0.2354605496
0.2559401691
0.1624050885
-0.1477325708
-0.0440551043
0.2398370653
-0.1036615223
-0.1509742886
-0.0746607706
0.1306075752
0.0352030694
-0.1073321775
-0.2411220521
0.2407119423
0.0476466008
0.0455209725
-0.2601843774
-0.0939452574
-0.1878414005
0.0198911112
0.1720832437
0.2371873856
-0.1816999018
0.1114223376
-0.1578711271
0.0500793643
0.2059060186
0.1083569303
-0.2604337335
-0.1782917380
0.1142091751
0.2285023183
-0.2209973186
0.1690495312
-0.0936447680
-0.2160210907
-0.1802171767
-0.2234935313
-0.0387625843
0.2187788039
-0.2073732764
0.0496380515
0.1163246483
0.2652095258
0.1057314053
-0.1576474607
-0.0896557942
0.2217969745
0.1209898591
-0.1644193530
-0.0141277304
0.2077176422
0.0214138459
0.0753826424
0.1614202857
0.2429115176
-0.0201758035
-0.1659867465
0.2508021891
0.2285693437
-0.2273830771
0.1808113158
0.1257721633
0.2685688138
-0.1264282465
0.2639115155
0.0599420369
-0.0759253800
0.0687552094
0.0076433397
0.1698380709
-0.0862340108
0.2592941523
0.1800390780
0.0294880811
0.0784484893
-0.3356441557
-0.0757115781
0.0672631785
0.2858144939
-0.0598173030
-0.2471443564
0.2188770473
0.2051940560
-0.1261085272
0.2543051243
-0.0970513746
0.0245218314
-0.1177102476
-0.2783930004
0.2526188791
-0.1639665812
0.2363995165
-0.2260609567
-0.2659681141
-0.1994147152
-0.0194790978
-0.1801395118
0.2786209881
-0.0489951484
-0.1180020422
0.2585937977
0.1464661509
0.1691248566
-0.1113907024
-0.0813607574
-0.1109813973
0.1771657318
0.0138857840
-0.1603678316
-0.0228029005
-0.1560388356
-0.2662397325
0.1501365453
-0.2452258021
-0.2573447526
-0.1667483002
-0.2531084418
-0.0647516847
0.1989975125
0.1386476010
-0.2028979957
-0.1358081549
0.1817119122
0.0427635275
0.1600324214
-0.1504117996
0.2334669828
0.0503363907
-0.2581634820
0.2248293310
0.0046196054
0.2097078264
-0.2427315563
-0.1293992251
0.0732422024
-0.2080992162
-0.1348854899
-0.0567422137
0.1219544858
-0.1423746645
0.2673060000
-0.0242022481
-0.1815580279
-0.2410164177
0.1254091710
-0.0656576380
0.1760608107
-0.1868065298
0.1188280135
0.1153356805
-0.1659260839
0.1244153753
-0.0272506308
-0.1272608042
-0.2031718343
-0.0734988078
0.2604797184
0.0731107667
-0.2293238938
0.1525010914
-0.0610853992
0.2584161758
-0.1664729267
-0.1541991681
0.1130453423
-0.1905086786
0.0580169372
-0.2068850696
-0.1120707020
0.1050694212
0.0409081392
-0.1356322467
0.2496531010
0.1500100940
0.2078006715
-0.0241178609
-0.1115559712
-0.1283432841
-0.2505766749
0.2065252215
-0.0401874147
-0.1389453113
-0.0756301880
-0.0509266630
0.1781096011
-0.1438066810
-0.2401816845
-0.1828423589
-0.1959371865
-0.2456571013
-0.1027584895
-0.1689181924
-0.0970382392
-0.2201767862
0.2490244359
-0.0298177321
-0.2415794879
-0.0913489163
0.0787712783
-0.1212294623
-0.0670858398
0.0542818867
-0.1850465983
-0.1655680090
-0.2137140632
0.0419818982
0.1174791604
0.0231141411
0.0966980532
0.1310770214
-0.1267764121
0.2218911201
-0.2643646300
0.2179138958
-0.2591695487
0.1410181522
-0.2453605533
0.2450491190
-0.2670743167
-0.1637511253
-0.1432106942
-0.2265690714
0.2037588507
0.1517883539
-0.1767373532
-0.0148169389
0.0900189579
0.2324162871
0.0317547843
-0.1110219657
-0.1191512048
-0.1123575494
-0.1420445889
0.0962922052
0.1853269041
0.1936340779
-0.0787340701
0.2685367763
-0.1459882557
-0.1400940269
0.1082210019
0.1592864692
0.0812406689
0.0023386404
0.2210300416
0.1289716214
-0.0187359117
0.0995298102
0.1222872660
-0.1965038329
0.1848956496
0.0394382440
-0.0693557858
-0.2135547698
0.2443832010
-0.1206059009
-0.0802644119
-0.1150795445
-0.0299576297
0.1416275799
-0.0236021373
-0.2635101378
0.2205779254
0.2199117392
0.2743276060
0.1920456588
0.2031309605
0.1065179706
-0.0638866127
0.1899793595
0.2333752960
0.3268642128
-0.1011654809
0.1518067420
-0.0250866674
0.1827615350
0.1735540032
0.2748387158
-0.0269833673
-0.1703639627
-0.0219062902
0.2466298044
0.2013797760
0.0786392093
-0.0107792635
-0.0176449344
0.2868708372
0.1571579427
0.1191954240
0.2000480741
-0.1532563865
0.1880353391
-0.1771503389
-0.0780232102
-0.1258898526
0.0015535931
0.1391191781
-0.0783085525
0.0253415070
-0.1221453696
0.0751215518
-0.1088036597
0.2449207604
0.1493661255
-0.1188597158
-0.2065858841
-0.1133608520
-0.0682871267
-0.0266988371
0.2171260566
0.0888485685
0.1271084398
-0.1573940516
0.2583682537
0.2725498974
0.0918736607
0.3040159047
0.1584182680
-0.1065153182
-0.0910947025
0.2829490304
-0.0683720410
0.1879412830
0.0511903651
-0.2017184943
-0.0478062071
-0.1094684377
0.1885351539
-0.2030715197
0.0601646714
-0.2099186927
-0.1692712456
0.1907792538
-0.1771691591
-0.2527711093
-0.1815029234
0.0868513286
0.1084603071
0.2539981008
-0.1255143136
0.2876437008
-0.1550412178
-0.2281863540
-0.1018149853
-0.0805373788
0.1504855603
0.2054088712
0.0039585424
-0.0561152697
-0.0552773438
0.1022391841
0.3111820519
-0.0048333122
0.0865032151
-0.2237321585
-0.2681113780
-0.0698303804
0.0552453995
-0.2663133442
0.1994985193
-0.1101030409
-0.1655324996
0.0378214642
0.2084879130
-0.2053593695
-0.1549239606
0.2286947370
0.2510049641
0.2166297287
0.2641200721
-0.0557324961
-0.0669004396
0.0559339672
0.2349043638
-0.2690141499
-0.1354103386
0.0749509037
0.2511297166
-0.0585042238
-0.3184219003
0.0756383166
-0.0635148212
0.1484632790
0.1448476166
0.1480806470
0.1750462651
-0.1594187021
-0.1992257237
0.3071189821
0.0117038190
-0.1038300470
0.2809023857
-0.1085585654
0.2012173682
0.0757982582
-0.0028468166
0.1488130242
0.1132105067
-0.1944509000
-0.2286080271
-0.1966779977
-0.0672306046
-0.1919088513
-0.0276221558
0.0735405758
0.0418541394
0.1879887432
0.2218094766
-0.1463750154
0.1400889009
0.1555416435
-0.1535563916
-0.1611311883
-0.1900550425
-0.1049840972
-0.1921219528
-0.2002326250
0.0854568034
-0.0490317382
0.1772840470
0.0895848870
0.0633556247
0.0992890894
-0.1034648493
-0.0722473711
-0.1442897618
0.0679375678
0.1962057054
0.2337094396
0.2470951676
0.2037090808
0.1369492263
0.1010315716
0.0849116892
-0.2160313874
0.2224592417
-0.1841249913
0.1167276576
0.1091001555
0.1422308087
-0.0897549242
-0.1119256392
0.0683904514
0.0933755413
-0.1610291302
0.1999823004
-0.0426752605
0.1675988138
0.2081507146
0.2700393796
-0.2101998329
0.2134631723
0.2779913247
0.1787569076
0.2025551647
0.1877423525
0.2650096118
-0.1237874702
-0.0958260074
-0.2396292090
-0.1560482234
-0.1716783941
0.1617013067
0.1640009880
0.1803576648
0.2393299192
-0.1660198420
0.1956921369
0.2111425698
-0.1639222652
0.0987776369
-0.0283630341
0.2231080830
0.1573783159
0.1707575768
0.3064274192
-0.0636432171
0.0963202566
0.2358263731
-0.1132828146
-0.1801700294
0.1557918638
-0.2346830070
-0.2469499707
0.1350801140
-0.3245676458
0.1931452453
0.2363512069
-0.1622261107
-0.1771727949
-0.2877997160
0.0346462615
0.1524415314
-0.3321282864
0.3325840533
-0.0483816564
0.1721726656
0.1515350640
0.1773759127
0.1625589579
0.0138536440
0.2068833560
-0.0179150309
0.1474271268
-0.2031649798
-0.2152663022
-0.1978384852
0.2319070846
0.1661179811
0.1560350955
0.1708191037
-0.0459136106
-0.2520508766
-0.0792004913
-0.0447920673
-0.2577839196
-0.1796910912
0.1054601893
0.1129490510
0.1067158580
0.2062822580
-0.1901133806
-0.3432645202
-0.1530265957
0.2426382750
0.0534656644
-0.2303247154
-0.2561168969
0.2178046256
0.1577372849
-0.1767590344
0.1351233572
-0.2553943694
-0.0041099801
-0.0405007713
-0.0494327992
-0.1373274475
-0.0817174613
-0.2373064458
0.1153189987
0.0943180472
0.0652581677
-0.1526761353
0.0655344501
0.1615325958
-0.2580473721
-0.0935993046
-0.2050566524
0.0602299720
-0.1109906808
-0.2177460045
-0.0828746185
-0.2284912765
0.1125135869
-0.2336964309
0.1130650863
0.1267844886
-0.1507739574
-0.0121218245
-0.1919576973
0.2095017880
-0.0999047309
-0.0391684622
-0.0602130741
-0.1120070294
-0.0189715773
0.0418726467
0.2124739289
-0.1832412779
0.1530927420
-0.1046962664
-0.2347992361
-0.0929592252
0.2136999518
0.0140977306
-0.0366286263
-0.1743966341
-0.2018914819
-0.1705141515
-0.0088774832
-0.1072383076
-0.1908409595
-0.0377588980
0.1814714223
-0.2255325168
-0.0963722914
0.1017888114
-0.1252556443
-0.0349947251
0.0812861398
-0.0920700580
-0.1572429538
-0.1441194862
-0.1557622701
-0.1905136257
-0.0673442632
-0.1665708721
0.0023998946
0.2485097200
0.1596931219
-0.1968684345
-0.1846497357
-0.1643349677
-0.2152485996
-0.1983802468
0.2635837197
0.1026216820
-0.0368989259
-0.0940836295
0.1565814018
0.1554937363
-0.0962708667
-0.1544324756
0.0265703313
0.0537942275
0.2144327313
0.2046686560
-0.1363831908
-0.1655714363
-0.2441284209
0.1234980598
-0.2486237884
-0.1596173495
-0.1816258281
0.0391236544
-0.2666025162
-0.1418275237
0.2096753567
0.2620224059
0.1308985800
-0.2000725567
-0.0100677917
0.1378699243
0.0642887279
0.0773961097
0.0207917728
0.1952780038
0.0032242062
0.1888730079
-0.0230839085
-0.2119028866
0.1938457340
-0.0428195409
-0.1851741225
-0.1433283836
-0.1571746022
-0.1027297303
0.0620089062
-0.1281060278
-0.0727170110
-0.2604799271
0.1951786727
-0.1310780793
0.0408570133
0.0759623125
0.0622867383
-0.1946961284
-0.1526326239
0.1761522144
-0.1094293967
-0.0764893889
0.2449075282
-0.2138970792
-0.0879760161
-0.3081901968
0.2143521607
-0.1706546694
0.0621960536
0.0372452252
-0.1431147605
0.0216663294
0.1950940341
-0.2148157358
-0.1909023672
-0.1180873290
0.1506107599
-0.1460041851
-0.0302970186
0.2056201696
-0.0967974439
0.2903631032
0.1411608011
-0.1834397316
-0.1246172711
-0.1458795816
-0.1226492152
0.2040195912
-0.1296288669
0.0004088625
-0.1735295951
0.2132937908
-0.0762694106
-0.1735437214
0.1736275703
0.2516481280
0.1983932108
-0.0039356495
-0.2196170241
-0.0464354269
-0.2741091549
0.1214707792
-0.2049494833
0.1862226576
0.2150071561
-0.1345162541
-0.0924468488
-0.0455247238
0.1337527633
0.1258773208
0.2728997767
-0.1372419447
0.0931086913
-0.2684107721
0.0729337782
-0.1483469307
-0.0572989658
0.0952754244
-0.0295802429
0.2668420672
-0.0280174017
0.0957651213
0.2049229145
-0.0161299203
0.2392931134
0.1835783273
-0.1937149614
0.0217044018
-0.1879719496
-0.2003384382
0.0268332902
-0.2784450948
0.0710764602
-0.1769988239
-0.1562572420
0.1791471392
0.1500777453
-0.1582284719
