2
18
-11
21
68
-9
44
66
-4
14
46
14
-7
-9
-3
-18
-14
-13
-2
-13
-30
43
5
-35
-10
-17
-15
17
13
26
-15
11
-7
-8
3
-18
-56
13
3
-2
34
-13
55
25
14
47
64
18
49
55
-18
19
41
-7
28
11
43
30
29
4
16
38
-13
-5
-7
-1
-2
9
-4
-1
33
9
-47
-6
9
37
43
40
21
-34
36
87
74
25
24
46
63
12
-12
-1
-23
-1
2
1
-32
-29
19
-16
15
0
8
52
-6
1
22
4
8
-19
6
29
-17
23
-21
15
-10
-12
-12
-11
-26
-3
-21
4
1
-6
-27
-7
13
24
-2
-7
-1
-5
30
-1
-15
-16
7
-8
-4
31
54
17
1
40
55
52
54
-9
38
42
44
58
39
63
41
-10
56
4
9
36
-15
20
13
-29
17
-1
-13
-44
27
9
-25
-25
-16
-3
-18
29
53
-4
-31
-61
53
7
-5
-24
-62
28
-1
-12
-17
-5
11
1
53
18
23
15
31
-14
-21
-13
34
12
44
30
1
15
21
5
44
15
47
9
-12
30
41
58
13
22
49
29
-24
29
-25
20
46
50
20
24
40
-18
12
24
-21
51
10
2
0
-3
22
-1
-10
38
35
-6
2
1
-32
-26
-6
2
7
-18
12
34
-3
13
-50
4
-21
12
-2
-1
-12
40
11
14
17
5
5
-24
-20
-21
36
16
-6
-29
-31
-49
-7
-24
21
-4
-53
-52
-67
25
-34
2
-3
-28
29
30
55
-22
25
36
76
47
18
48
1
-10
-22
-10
27
-2
-3
25
21
10
0
21
18
-16
-28
14
-17
-2
-24
-11
10
-5
24
6
0
-6
60
1
28
11
19
29
-2
24
23
20
2
7
-44
-6
15
15
-20
-25
-3
16
-11
-15
-2
-9
6
5
31
50
80
-13
-5
22
38
57
-19
-47
34
5
20
-15
27
-17
-37
36
66
1
0
-6
11
-56
-48
-35
7
47
-83
-17
-38
25
-16
-34
23
-2
3
-53
49
7
22
-28
-45
18
-3
23
-13
-20
21
0
6
26
40
16
19
2
-26
18
15
62
-15
46
59
-9
27
21
33
-12
10
18
35
4
-45
18
13
-10
15
-2
-6
2
31
-9
-47
-34
3
-21
-3
64
-18
12
-4
46
34
-7
14
21
39
-2
13
48
65
32
-4
7
13
8
18
-15
8
37
19
10
36
-31
-5
-17
11
31
6
18
-6
3
1
46
64
32
19
6
16
48
69
38
-32
14
52
36
-53
27
2
27
24
20
81
26
7
24
3
17
-23
-31
6
-48
17
11
17
-7
-63
22
22
14
4
10
14
17
-33
12
3
4
10
14
-31
11
13
54
41
34
4
-8
7
21
61
76
2
-6
6
1
43
29
27
41
31
32
12
15
-8
19
-10
9
-3
43
41
2
-17
2
39
51
17
27
8
40
44
-7
8
12
27
28
-14
29
-12
-32
-20
-1
16
34
77
18
1
-26
-8
9
4
-19
-46
-6
-11
-43
20
64
7
11
17
13
4
16
25
26
-2
-45
-1
29
57
78
8
-2
-6
42
55
-20
-24
19
-24
-27
14
-19
-10
13
-6
26
-11
-15
-6
25
0
9
39
52
48
41
38
30
9
20
16
-1
11
-13
64
47
17
44
-7
-3
-15
16
40
20
-15
12
13
-15
-25
10
5
30
-27
5
-7
34
-22
4
18
28
-47
10
16
11
18
-29
35
1
22
-10
20
0
8
1
13
12
-12
-34
-38
-70
-43
15
0
-30
12
21
23
25
10
32
-5
43
67
25
15
-4
-27
-5
-53
-72
-28
20
35
-8
11
9
49
13
44
16
-27
16
33
31
10
39
-18
10
23
19
43
-11
11
12
-7
-22
31
-7
16
-6
-12
6
-5
4
-23
-4
-11
-10
-7
27
5
-7
-16
-8
-21
3
13
5
36
71
73
-1
12
-9
62
80
8
12
41
46
11
12
43
-6
6
-56
50
-12
-17
14
-7
14
-54
-76
-79
-1
24
-13
-18
-39
-16
-23
-13
3
-27
-5
30
-18
7
-10
39
-21
11
-10
21
12
22
26
10
24
25
-22
-37
-28
-13
11
9
6
40
24
10
10
15
47
11
3
68
53
50
18
15
8
34
-9
-19
-33
-40
-19
-2
27
-37
25
28
1
-34
9
-5
-27
23
-36
-26
-21
-13
57
36
-48
25
22
37
9
8
-17
-28
13
16
-12
28
-9
5
-42
18
-3
24
62
1
-42
19
5
65
38
6
48
43
16
-19
-25
-8
52
30
13
-25
-30
-12
-34
-41
6
40
56
10
50
-12
104
77
62
49
25
25
-19
6
-3
-3
48
54
-46
-52
27
50
13
16
-10
53
27
-12
-9
-2
26
32
13
-29
-24
-16
32
28
-15
-19
10
-9
-4
48
63
-7
6
-68
-58
-2
27
-39
10
13
-30
-37
-32
6
54
30
-37
2
-2
38
16
-15
5
29
58
16
-2
-3
20
63
33
-1
3
56
32
8
8
6
66
54
27
-12
17
62
40
1
-32
-13
-14
-11
4
9
47
15
-8
19
47
29
26
7
8
-14
14
7
6
-5
-20
14
9
76
52
1
8
-27
17
29
-17
-7
23
-30
-51
-26
10
-17
25
-32
-31
2
-13
31
29
-9
8
61
55
57
46
-18
15
11
13
-8
67
35
20
28
18
39
39
27
16
44
11
25
-1
-12
9
-28
-45
-9
4
4
42
23
4
17
27
7
29
27
57
-3
15
-23
-24
27
55
17
-18
-48
-39
4
23
14
-33
20
35
36
12
-30
-13
14
10
-20
-6
-1
-4
17
5
-22
-21
-4
37
-2
-32
-5
0
-23
1
-15
-63
-8
-23
32
-5
-12
-12
-27
30
14
11
32
-28
-16
-15
15
-15
5
23
28
-7
-28
3
-8
-4
-2
-14
37
6
-8
-31
-11
14
3
5
5
26
6
16
-10
-4
27
4
45
4
-39
-26
15
13
46
39
26
7
16
23
15
64
106
47
30
-4
-9
49
-4
10
-27
8
-57
-26
-19
11
17
-1
-19
-94
-73
8
11
0
-23
-11
0
-19
5
-35
4
26
1
-62
-33
-28
-8
1
-16
-4
-4
-10
-12
45
20
-7
-29
-63
-32
21
-5
-27
8
-64
49
42
57
44
22
2
42
66
14
34
34
53
79
-8
36
-16
-48
4
8
64
-21
2
6
52
35
33
6
-10
-17
-1
11
-46
-39
-7
-28
-32
0
-14
-3
11
10
33
85
5
-1
41
42
14
8
-46
-7
21
26
25
17
10
12
3
13
42
47
40
61
-13
30
68
97
74
-43
0
26
47
-8
-34
-16
-45
-19
-26
22
-21
-17
53
24
33
0
34
24
19
11
59
15
47
-8
32
51
-9
32
5
29
12
-50
-5
-41
1
2
-31
-28
18
20
9
11
-8
44
3
10
-12
-5
2
38
-6
6
11
-15
30
-26
34
-45
25
-11
-6
42
48
-38
9
-22
32
47
11
-13
-10
-3
6
7
4
-38
21
-22
5
-35
-44
10
19
4
28
41
15
36
36
65
51
31
14
36
-10
-3
56
96
48
-11
60
41
42
23
19
4
34
37
32
-14
-11
2
11
-11
38
17
4
7
-27
-2
-7
0
23
25
-37
-12
36
23
14
6
-1
15
47
-12
34
-17
12
-5
-9
15
19
-7
-27
-33
-1
31
25
3
-20
20
0
-12
-27
-5
-14
4
15
87
17
1
41
-11
42
-3
24
11
25
25
-31
-20
3
-24
-23
-53
23
-6
-15
-42
-10
-8
32
-20
11
-8
-31
3
11
-16
0
10
16
-22
-29
-50
47
18
1
30
9
-7
40
50
30
21
3
-22
20
31
47
-11
-37
-27
-9
-14
-39
-29
-40
-17
-54
0
2
-34
-8
-38
-15
-12
17
17
-6
-1
22
0
30
-9
32
-5
19
16
28
2
22
21
18
26
-9
-9
14
14
22
9
-10
-23
23
-55
-3
-20
-46
-37
22
-10
14
11
29
62
20
52
48
15
2
14
-35
-15
-24
-55
32
6
-14
-56
14
68
25
39
18
28
4
11
27
1
-24
-25
-1
35
1
-33
35
35
-16
-73
-58
28
5
-20
-48
-49
36
21
-30
-49
-33
-24
-34
-21
-7
34
-37
-28
-14
22
44
26
40
-1
11
47
79
30
14
45
-25
-12
1
25
-34
-17
19
11
26
-17
-12
10
5
13
28
-28
12
17
-4
-4
25
-16
-7
53
29
1
-19
-19
-33
-33
-47
-1
28
40
40
35
-4
-5
-8
20
32
42
52
17
13
45
27
-1
1
12
13
-27
-16
29
-19
-53
28
44
40
18
19
45
45
15
9
5
26
18
-12
-8
-2
93
33
13
38
87
31
-3
-18
-11
-43
5
30
-17
-38
-20
47
14
-16
-27
23
-31
8
-51
5
17
31
8
-13
27
39
36
22
48
28
47
-20
-7
-17
-33
-3
49
13
-5
-6
-34
60
48
45
36
52
2
-1
12
-20
-37
-16
-5
6
-21
-34
4
37
39
5
39
15
8
6
5
8
9
4
1
-38
-1
7
46
49
-14
-14
9
12
9
8
11
-27
15
15
11
-29
-35
16
44
-21
-12
33
27
-34
8
75
-2
-35
-6
-19
-52
-35
-9
28
-37
-70
29
48
12
-1
45
17
-21
1
41
45
56
36
14
-52
5
21
30
-17
-18
-11
-31
-3
6
-6
-21
-7
37
28
31
27
1
-35
-27
53
45
13
14
-5
4
-9
-9
-17
-18
-45
-8
-19
40
-10
-13
37
46
24
-18
6
20
-34
-18
-2
17
21
-28
-30
25
11
-14
-32
-8
11
16
28
1
-7
-3
16
40
3
-15
-13
-7
-5
-21
2
13
19
-10
29
18
-10
39
45
28
-45
-52
1
-14
16
21
-17
10
-23
32
36
-1
-1
2
39
-19
-22
26
62
4
20
11
-6
40
17
47
34
33
78
27
20
-16
-24
33
16
21
41
29
-26
13
33
54
-2
-4
22
40
23
44
34
21
62
37
33
80
23
37
-13
7
10
23
-11
-15
-45
-26
42
29
25
8
-5
30
17
-21
2
9
-55
-1
20
-4
-115
-39
31
7
47
61
20
-11
-14
45
46
5
-21
-10
13
5
-3
30
54
51
76
-9
6
31
54
60
-3
20
3
5
3
9
52
18
-14
-6
35
33
6
-20
-13
28
7
15
13
52
36
17
48
-1
53
-11
38
24
-2
16
57
30
51
-31
19
51
34
26
41
3
29
-35
3
19
-3
-11
-2
-38
-36
-13
-19
39
-49
30
6
-18
-35
5
1
14
-24
3
-6
-50
-8
23
31
10
7
-35
22
-17
-8
-2
6
63
39
63
33
53
8
29
-1
26
65
17
63
28
-5
5
-5
0
1
-16
-26
33
13
16
34
32
57
27
13
16
71
37
50
21
2
10
65
15
35
11
5
38
32
-17
-21
30
-24
-9
-7
20
29
-32
3
-30
27
31
6
-4
10
15
2
16
-9
-6
-2
36
-4
-12
-6
-11
-32
-35
-6
-7
13
-14
17
-15
21
32
-21
-20
-16
12
21
-9
0
9
31
-13
-20
4
28
19
26
34
36
31
23
7
-12
48
49
-26
-16
-18
32
57
-10
-35
15
11
56
14
4
9
1
12
-48
-28
37
-7
-57
-1
2
76
3
4
22
35
-16
12
-29
-31
35
26
5
-9
15
-19
10
5
4
11
-22
-20
53
-1
24
-5
-29
9
25
28
61
36
18
-5
-3
8
-2
27
-15
56
24
-7
14
-26
-32
17
-23
4
1
10
-25
66
44
54
26
-4
22
48
6
-59
21
-27
-7
29
-6
19
41
21
-13
5
16
26
-24
28
28
30
9
-50
-46
-9
-22
-5
-15
-39
-5
10
-19
-25
-26
-21
18
20
-1
-44
-24
-39
-29
-28
-40
-26
-7
18
-49
-12
-16
15
17
-17
-38
8
31
4
-11
-20
-1
13
27
27
35
28
14
34
28
31
6
3
-9
22
1
-23
-25
-1
37
28
14
23
15
30
25
13
28
18
50
24
22
31
28
-19
18
37
55
67
14
20
-35
46
9
50
42
44
41
15
27
41
5
11
26
-20
-6
25
3
11
-29
8
34
-16
-16
-32
-4
10
28
-64
-27
-55
-17
-38
25
-33
-20
1
-6
37
3
-23
7
29
45
-8
-17
33
46
35
-14
17
-25
4
21
-11
11
-12
74
7
-12
30
43
41
16
-3
1
-17
6
41
41
32
2
-4
-10
44
23
-19
-31
-3
-12
39
13
-16
17
-36
-48
-46
-41
8
-21
-16
-4
13
-6
17
22
27
31
-18
-7
30
7
26
33
-9
29
12
44
-15
-22
-16
-41
-4
3
-24
-4
31
13
0
24
63
5
26
55
60
67
4
29
45
6
28
-50
-42
-6
-66
-37
-91
-20
21
-24
17
-3
19
-2
2
65
83
44
28
40
61
76
9
31
79
66
26
-43
-36
-33
25
-21
-28
-9
26
23
5
-6
4
-40
-54
-46
-25
-18
-16
-28
-24
-5
-16
9
-16
-12
-7
11
5
25
29
13
42
-4
13
7
-5
-12
50
45
32
51
17
44
41
5
29
36
26
15
1
71
17
-41
-39
-23
0
13
40
37
4
-15
-2
9
-16
29
-23
-10
9
36
29
-25
-45
30
49
-4
6
15
38
42
11
-2
7
19
18
31
21
-25
30
65
51
32
11
20
9
18
-4
-27
-20
-27
4
-30
-18
-4
5
-47
7
30
-6
-19
30
62
26
40
36
62
42
30
28
19
-2
27
45
-18
-8
-15
7
19
43
3
-20
-15
-13
-7
62
41
41
37
-7
52
55
-19
33
17
-6
-8
-17
-5
-17
2
21
-3
14
-19
35
21
35
23
42
-15
-22
5
32
-12
-19
-35
-17
-62
-35
-8
4
-3
3
6
-28
38
53
11
78
43
43
11
-46
3
4
-20
-8
12
21
9
-10
18
-1
14
-1
17
6
53
-28
-33
17
-12
18
-10
-9
47
30
0
2
-10
-27
-49
-46
6
6
-34
-17
23
21
1
10
-6
2
22
28
9
-24
33
30
23
-8
19
11
-19
-11
-8
-18
-2
-15
-4
-26
-19
-13
-6
29
1
-15
-5
35
33
9
-9
-10
-19
-9
-5
10
41
34
45
37
40
28
38
33
-2
37
14
-43
-24
-11
34
-36
-57
43
-4
1
51
15
31
25
61
73
-20
-45
-45
-61
-32
-30
-19
-40
-27
-17
-3
-4
-22
-36
-20
-16
-29
-30
-25
18
-35
-2
-65
-16
12
11
3
-15
18
35
3
36
-22
13
10
-28
-24
-21
9
0
-60
-25
-31
-6
-17
-63
39
28
30
1
26
35
29
4
26
24
30
11
20
22
26
1
31
6
-25
31
-24
-24
17
25
41
1
37
75
32
16
24
-6
32
52
-4
34
23
0
6
-49
9
-4
-9
-49
-66
-35
-26
-35
3
-1
-12
-25
10
-12
20
23
13
14
20
-4
3
-28
-26
47
-5
55
10
2
10
-70
5
27
-37
-4
-36
-11
-36
-24
25
-27
11
18
11
-13
26
8
11
4
22
32
24
9
-4
-5
21
31
19
0
10
11
17
-4
-44
-36
9
19
38
19
25
-9
33
22
-13
1
8
62
27
2
-27
-21
-22
-47
22
-3
13
9
-34
31
16
10
4
-25
-8
16
17
25
-14
5
37
12
25
36
13
30
3
-21
-16
8
-21
-24
-59
-17
-17
-8
-2
11
24
32
-41
-4
-7
16
13
-70
-21
16
12
2
-33
-30
28
7
6
22
37
8
4
28
15
-3
32
19
28
24
-12
7
2
40
1
-43
-19
11
3
-28
4
8
-8
-30
46
13
-21
-22
17
83
14
0
-6
16
13
20
23
14
-1
-4
-33
-18
4
20
6
-31
-17
-5
-8
12
25
17
8
6
19
-5
17
15
-13
-7
-21
-12
-10
13
23
45
16
-12
-9
58
73
91
50
25
48
5
29
33
-5
45
-4
11
58
43
35
12
6
33
16
3
30
1
12
-38
-41
6
17
23
1
-1
27
53
58
13
36
30
20
0
8
1
60
26
-11
16
24
8
-2
23
10
16
-20
15
24
19
-18
-24
5
2
16
-46
30
23
-1
-14
22
45
-11
3
20
42
41
37
30
-26
-26
8
-9
4
-3
-12
-33
-39
-18
-36
-57
-21
-23
8
10
62
-34
36
40
7
7
-22
13
13
-20
15
6
32
19
35
-13
52
18
23
33
-12
14
13
-8
18
41
42
43
-4
15
10
27
27
33
28
26
50
10
50
-11
2
7
-15
38
-33
-35
41
26
22
-9
46
60
56
48
-5
0
-16
-13
16
10
0
14
-27
9
9
-10
55
59
53
26
20
23
20
30
0
69
19
31
-8
-22
14
-47
-21
-33
15
-28
16
12
15
-25
-3
-18
-9
31
79
21
19
76
16
19
99
51
10
35
22
44
5
-19
36
15
-5
-17
-31
33
9
-10
19
34
25
36
8
31
20
43
64
63
54
35
12
43
20
39
0
-63
14
-1
-7
-3
-10
17
21
-20
-23
-60
-38
-3
-21
-17
-21
18
5
8
5
-23
77
21
32
4
-2
40
14
40
16
-40
6
-2
7
-4
-13
-13
-21
46
42
16
35
42
23
-3
23
-33
-36
-13
-33
23
-37
-47
-11
24
55
5
13
23
4
-24
25
37
26
3
17
-8
8
43
35
20
29
13
47
70
-1
2
42
18
18
-5
4
28
-44
-6
-15
0
-17
14
5
-3
62
19
5
-31
-57
6
-13
-33
0
-13
8
-26
-14
5
-4
1
3
23
16
11
42
43
12
23
6
6
27
-6
-9
-27
-16
-24
-20
-16
20
25
-33
-5
-21
34
14
38
25
-15
-15
47
75
8
-31
-8
-26
-20
33
-1
-46
11
-9
21
6
1
31
1
15
24
-52
23
34
47
52
12
29
6
-18
-34
-23
-2
-55
-40
-28
14
22
6
-1
-8
27
-14
24
28
21
-8
18
6
-19
5
-31
23
-2
4
-1
28
-2
-23
-25
-13
7
22
-21
-26
-21
13
0
-30
14
37
47
-12
-10
48
48
72
11
13
-10
18
18
30
58
27
41
33
31
38
43
16
-29
-9
-6
-20
-1
-3
-3
-4
-36
33
2
-1
23
25
15
27
41
34
6
29
-7
46
16
20
0
-18
14
-20
28
-10
-3
-10
-5
-7
-1
12
-7
-29
-1
-5
-31
15
-41
-27
-3
1
-12
3
-15
-8
57
14
31
30
-16
-5
17
3
40
24
48
-26
-6
53
20
36
51
59
-3
-16
-25
6
7
-27
-7
-27
-21
-6
-14
21
-6
2
11
3
15
0
-7
-4
17
1
-54
7
-17
-39
-30
-31
-6
7
-22
24
-20
-22
19
-3
-7
1
6
-14
10
-14
-35
1
0
11
-42
4
24
17
27
-6
40
26
-13
12
9
0
-24
5
34
-8
7
45
26
24
59
70
22
57
6
-11
-37
4
-3
-6
-15
44
23
21
-29
47
5
-37
-22
-7
14
-12
32
23
34
25
33
40
16
22
-3
-11
-13
7
-42
-16
30
-3
-17
-52
18
8
-21
-49
-41
-31
-19
-23
13
-12
23
28
40
42
-24
51
69
55
32
-18
-19
51
-37
-35
1
36
45
-8
-8
-28
16
9
15
25
3
15
30
3
1
-17
-9
-38
17
24
-12
2
-4
52
-8
13
18
-34
2
15
25
-9
-10
27
18
46
62
24
8
-3
2
5
20
44
11
7
-30
17
9
-21
4
-21
38
11
14
-13
9
-3
-12
5
11
-24
24
-21
12
-43
-17
40
-21
3
18
42
18
-23
-13
35
39
-20
13
37
-2
19
43
18
11
-12
-18
14
-9
-12
4
-31
-58
-11
22
-6
19
-22
42
24
8
29
28
-34
8
7
39
37
9
-6
-41
-13
-9
10
-4
9
0
27
10
36
-9
26
24
-37
-3
8
-22
13
2
21
-4
-10
52
11
-26
-50
-20
-7
-4
-2
15
67
13
0
44
20
14
-11
-45
30
26
-14
28
37
15
36
39
12
0
36
2
-15
1
-29
21
-22
19
19
-26
32
-20
67
25
-9
16
31
19
0
-21
23
13
28
29
10
20
11
17
18
19
25
19
13
14
27
6
-12
-27
-15
-14
-8
-22
-25
27
-16
27
10
13
-3
-17
34
14
-8
22
5
10
-18
7
29
-9
-9
28
-5
6
-17
-15
-6
15
47
20
23
-11
3
-30
1
6
9
-2
29
-7
13
-31
23
30
19
51
38
54
-21
72
30
4
-8
4
57
32
24
55
42
69
-25
-4
32
-5
10
16
-24
-14
11
-53
-19
-33
29
29
-32
2
-4
-6
-7
10
37
40
22
34
26
23
57
14
21
16
-14
-1
-13
-6
-1
-2
-23
7
-9
-18
-59
31
32
-1
8
4
58
4
42
-27
-20
31
-22
21
18
19
36
-6
49
57
26
4
10
5
-44
79
17
24
10
-22
20
0
25
17
4
1
3
34
-19
-9
-50
15
6
-31
3
30
-4
-20
-29
-73
0
10
-13
43
9
-14
7
36
-4
3
-31
5
24
8
-22
-16
-36
-38
-33
-3
20
19
-5
-47
-51
19
26
31
19
-18
1
67
5
-15
-22
-41
3
14
0
-40
-57
8
-6
-14
23
34
2
11
23
53
14
15
21
37
4
48
30
-37
-15
1
6
5
-11
3
-33
22
25
-15
26
19
18
21
20
-31
-54
28
-3
-23
6
20
-14
7
35
-3
-23
-18
-2
22
2
8
-5
0
15
-59
-36
28
30
-12
-55
19
-14
28
-16
4
8
-3
22
-16
-7
-16
19
24
19
32
21
-16
-18
-17
-5
17
56
-33
-17
-53
-11
53
6
-29
-15
-5
-28
4
24
0
9
-58
-22
47
23
-2
54
10
-12
-38
-32
7
-10
28
-10
-68
-47
-14
-4
-29
-2
2
-3
-1
51
22
6
47
28
12
19
-1
4
-9
0
-19
-61
-27
4
12
3
-4
21
-5
-7
2
-18
23
24
3
-7
-6
8
31
22
19
33
24
7
17
38
-23
22
5
51
108
11
-22
19
25
18
35
8
-1
-3
40
68
2
14
3
18
7
-7
26
24
31
-36
-11
25
30
19
8
-19
23
35
36
47
36
24
41
35
35
-7
4
-11
-12
31
35
11
45
59
39
19
-29
21
19
21
12
-13
-27
-11
38
0
-21
-31
1
3
34
11
7
13
-19
7
-4
26
28
26
21
-7
27
24
61
18
5
4
28
37
12
6
20
-9
-19
6
24
34
-47
-6
26
80
22
-35
-27
39
13
18
19
-45
50
6
5
27
5
-29
-21
21
-5
77
-8
-10
10
12
65
-2
17
70
100
39
-8
17
44
22
15
-24
-6
5
1
24
0
9
-14
-26
22
11
-13
-3
-37
-15
27
4
-29
11
54
34
-9
-6
15
54
-69
22
39
7
10
-10
23
-27
-42
-11
-17
-8
11
23
40
13
-18
50
3
25
-23
-59
-8
-19
-12
18
-9
29
17
-44
2
18
-1
-25
-1
-17
3
25
25
19
51
31
-13
-31
-19
3
-6
-10
-50
-37
-42
25
36
-8
-29
-11
34
1
-9
44
-11
-17
23
86
32
42
-2
-6
-52
-78
41
30
-25
-44
-24
-48
2
2
15
-8
-7
52
73
-1
17
45
4
9
0
79
21
-29
-33
-10
-14
-4
-50
5
-15
28
-11
7
44
10
55
25
32
30
0
35
39
3
17
-3
-30
4
10
28
8
20
-29
23
-19
-4
-10
-27
20
-38
5
-47
38
-18
-37
8
-21
3
-3
28
40
19
17
-8
24
20
3
13
12
84
23
-3
1
22
46
-4
24
-26
13
17
2
-47
-2
28
14
-41
-36
60
-1
-18
-48
-18
-32
-33
-38
-22
-37
17
47
69
22
-10
54
25
-4
-13
94
-27
-31
11
24
25
19
18
14
29
-12
3
-18
-44
-10
12
-14
22
-4
27
-13
-10
11
-25
14
-7
-49
-18
19
45
47
11
10
-15
25
37
-26
-10
14
56
12
47
67
76
-24
13
43
-15
-4
-16
29
-12
0
41
23
28
2
-23
2
26
33
19
42
29
52
52
24
-4
-7
28
1
19
12
27
1
-20
15
-3
-37
-26
-35
24
-26
-22
17
28
22
-35
-62
-29
-28
22
-1
-2
-44
-46
29
-15
-56
-9
1
35
-20
-6
39
28
-21
47
4
18
13
9
29
11
15
3
5
14
4
17
32
18
19
-9
-21
-31
-7
26
-4
-30
-16
34
6
2
27
26
11
34
28
-4
72
27
-19
10
-32
13
-1
29
26
-5
2
2
-1
0
15
3
-24
3
44
61
49
-72
27
34
49
21
25
77
16
19
38
-8
3
-13
38
-2
-24
-8
34
29
-30
-18
0
36
30
37
15
47
30
50
28
64
27
23
45
19
39
-18
-12
-1
8
16
-4
6
1
7
19
-24
15
12
22
-12
-25
-17
34
8
18
34
-5
16
43
-34
-19
-14
0
4
-66
-3
1
-10
-32
-2
24
-1
26
64
11
-17
30
8
-11
29
-21
9
-5
-24
27
42
4
19
43
52
69
24
58
15
0
-12
-5
13
62
-45
5
35
26
-27
-39
-17
-39
-32
9
0
-24
6
8
5
15
23
-30
-1
-40
53
55
34
18
31
-27
22
44
-13
-37
16
39
5
-21
-33
-60
-24
-6
4
21
-33
-1
-1
7
36
-30
-4
-6
10
-7
47
14
25
-11
-2
28
18
47
21
9
-24
-6
36
47
26
28
-39
18
-4
-23
42
37
36
39
46
-13
1
19
10
-36
-17
22
-40
18
13
0
0
-35
-5
29
39
28
-26
-10
-30
-20
-2
-18
-25
-12
-14
4
28
20
58
-38
7
15
33
40
-19
-13
-31
-1
9
17
-7
-23
8
13
14
25
25
27
-43
17
21
25
-22
-74
10
-13
-27
20
33
26
27
18
20
13
20
50
14
-11
-36
8
20
14
47
7
-16
-22
4
0
14
6
12
-19
-16
-3
15
25
5
-29
2
-46
16
14
9
19
20
16
30
17
36
33
-3
3
-7
-15
3
-26
19
3
-5
-9
17
50
20
14
28
-12
-4
12
-1
12
22
-7
9
-10
57
-13
-16
-12
11
32
16
52
2
14
3
64
36
11
32
10
-12
31
35
65
52
47
58
38
52
29
15
13
-30
6
47
23
0
-13
-8
14
44
53
40
-12
9
46
65
8
12
-9
-46
-39
-9
25
-4
26
0
22
32
-33
16
34
60
59
3
4
12
18
1
-2
-16
-15
-13
30
-18
-18
1
-7
27
18
1
0
-4
9
-2
26
34
-3
0
-33
-39
-38
1
-6
0
-34
-32
-26
-16
-36
-26
-17
26
33
-15
21
8
57
57
1
-13
42
50
21
33
72
37
26
-34
79
46
-11
17
-16
19
5
-21
-21
27
15
40
-5
-8
-8
10
-13
37
16
-16
50
30
13
-14
-7
48
-12
1
-39
-41
2
8
-2
-6
8
-18
-20
75
8
24
26
8
-8
23
28
33
5
-23
-13
17
-57
8
-25
-10
20
-3
29
-52
-46
-3
0
-3
-10
-18
-49
31
20
61
-2
2
28
18
22
36
-16
5
-12
-31
-17
12
10
28
19
8
7
18
16
42
49
-5
27
21
-9
10
30
26
-1
-9
-12
-2
-10
-32
-36
-30
-9
40
79
53
44
13
-36
16
45
55
-38
15
44
41
4
28
9
19
2
34
41
0
-7
2
-18
-15
13
49
32
35
38
-5
-36
-40
-18
35
-24
-6
-50
-7
2
20
5
15
43
12
-2
24
16
48
39
3
-28
4
-7
21
-2
18
49
-5
-24
61
43
49
-16
12
-20
0
5
55
9
-14
2
8
-24
-33
16
12
47
15
-8
3
11
-19
-35
3
-13
23
29
-12
2
36
19
-3
-3
11
29
31
3
20
16
3
42
41
42
-63
30
58
64
25
-45
6
27
-3
32
51
-27
-38
0
-39
-16
4
-1
-53
9
-1
-7
19
31
43
5
8
16
95
67
11
60
32
56
3
7
-5
1
-9
-4
-26
-37
-12
-20
0
-34
20
46
46
66
40
43
18
9
63
18
-7
-55
-32
26
9
-5
18
-25
-14
22
-13
-12
4
18
8
30
-16
-4
-12
27
30
-16
-41
-44
26
-27
11
-9
4
-31
20
13
28
19
-4
46
2
65
36
15
17
-1
15
11
15
41
-5
8
2
17
20
-12
-7
12
18
-8
-13
6
6
-8
-30
-13
1
-14
8
13
-66
-59
-44
-24
-28
11
-2
2
-15
30
37
-4
-2
-17
59
11
14
18
7
-5
-12
-3
-6
31
6
-1
0
13
2
-2
-47
-62
0
-36
-7
12
-3
-41
-19
12
22
0
19
21
3
-34
-23
-3
15
-23
-64
33
19
24
9
-2
34
12
65
-11
-14
4
2
-21
0
16
-18
-49
-41
21
32
38
22
8
14
-46
-110
-92
9
9
6
-49
-48
-4
11
32
-10
17
16
0
-6
3
7
-14
-2
7
-36
28
-16
0
22
-29
-29
-26
-13
28
4
22
7
7
12
-14
-6
-26
5
49
-16
0
16
-10
51
-26
-1
16
20
40
-19
20
13
24
-40
-10
37
29
21
-21
18
-17
6
35
25
-27
25
15
47
34
-8
24
31
-15
47
10
30
49
-12
11
66
107
63
30
46
35
52
10
40
24
-33
-5
15
24
30
-18
-21
19
-7
84
76
71
54
-2
35
20
43
43
19
43
59
48
2
13
30
0
-33
-8
14
20
-10
-17
58
30
76
39
54
42
23
-15
45
-8
-31
-6
-39
10
-31
-27
-18
-25
13
0
12
-25
-5
8
13
45
18
4
20
24
6
0
-16
14
40
44
39
70
4
32
26
1
46
-10
31
-1
21
0
18
43
29
32
21
56
55
32
27
3
-31
-8
8
-13
-16
-45
35
51
31
-12
-19
15
18
54
26
-6
29
9
-31
-22
-5
63
-1
21
22
15
42
-19
2
23
36
-26
-23
19
-31
-36
-13
40
39
6
-43
25
-2
11
-4
-13
13
44
-3
-19
-18
68
49
9
61
42
46
-5
14
21
-27
7
3
25
6
-8
3
-8
-4
0
-16
-47
-3
9
22
40
29
-21
42
3
14
-22
12
12
-1
-13
-2
6
6
-30
-17
-37
-14
4
-25
6
-35
4
8
-7
-61
-85
-24
-17
3
-1
-21
19
3
-23
24
13
-4
-11
10
53
18
8
-3
12
1
-7
9
15
22
59
77
46
5
1
69
-15
15
0
2
51
-18
-10
-18
16
50
22
-33
4
10
38
-16
-1
-2
-17
14
-11
-22
0
15
-13
13
11
53
-12
32
19
-19
17
34
70
58
18
5
50
37
40
17
-8
-10
32
-41
-65
9
-23
21
-3
-13
-3
-8
16
18
16
14
31
-6
2
3
23
-41
-18
1
-5
-21
37
17
8
-8
-3
-12
-12
-17
15
-16
13
-6
60
17
49
-13
12
-15
-18
-23
15
-1
-102
-28
-21
-19
-20
-85
-24
25
-28
21
-51
-14
2
-15
30
-38
7
31
-21
-1
6
10
-7
-4
24
48
-12
-16
-52
-58
-24
-57
39
24
37
-36
-29
38
38
-15
29
38
23
15
-35
-21
46
3
14
44
43
-23
24
12
36
73
10
43
3
44
-5
41
28
-24
-9
-4
-2
50
13
-9
7
-13
28
-13
17
37
-17
3
7
10
24
33
-15
14
-20
-8
-35
22
13
-50
-16
-38
38
-25
-57
-7
54
6
17
28
12
19
-17
-26
29
9
16
-34
13
22
-29
-32
19
38
5
-31
-68
7
-9
-45
13
33
7
0
18
31
-7
29
22
26
15
-28
7
-19
49
-39
-41
-12
26
-35
-5
19
-14
4
6
46
27
30
39
13
-18
-23
45
11
7
35
13
35
5
-20
-1
64
6
17
-16
39
11
21
-25
27
44
2
39
7
27
-7
-36
11
-10
8
6
-12
-13
-39
12
23
23
-1
-2
54
27
5
32
30
1
24
30
-34
-16
25
20
-24
-30
19
32
61
-36
22
18
-1
-7
-25
33
5
-15
1
24
33
-16
-33
46
-20
11
1
-33
10
20
-17
23
-22
-10
16
23
52
20
-6
46
50
-11
-6
20
6
49
16
3
-28
-20
-26
1
50
-6
16
-28
39
3
-8
6
23
35
13
11
-6
-7
10
56
42
69
-28
-4
35
47
-2
6
25
18
-8
35
4
30
4
-24
34
-5
28
13
61
16
-15
-3
3
9
6
12
57
64
-32
-74
21
19
5
13
20
-19
28
-9
33
23
-11
24
50
3
53
36
-11
13
-41
36
-25
-24
0
-10
-60
29
14
14
-4
-2
5
0
9
0
-16
-23
-29
5
-4
-26
3
-25
-22
-25
-20
-8
-21
20
18
6
10
13
1
-43
-20
7
8
17
-36
-42
18
-7
28
-39
8
-13
18
-30
-22
9
-14
7
10
17
44
-7
-5
17
-1
-21
41
62
9
10
40
74
21
25
-9
48
7
7
4
99
87
-10
30
25
45
-54
40
9
7
-42
-9
9
34
-20
-33
-42
-19
5
10
-37
-47
16
-27
-24
-72
-3
-22
-33
-28
17
36
14
11
10
8
62
46
23
14
23
14
-53
0
-6
46
-12
-32
-47
-71
-44
-31
27
39
2
14
-18
13
30
31
13
25
-15
1
28
3
1
4
-28
51
13
-52
7
4
-43
17
12
14
-14
21
46
-15
40
26
25
25
13
11
-5
19
6
17
-34
17
30
7
-24
-41
-63
-22
-15
-45
39
-10
2
5
7
15
23
-17
-5
7
17
33
-4
11
46
49
33
29
15
21
-47
-1
33
2
25
-49
-10
-27
-67
27
-20
-8
-37
-14
-8
26
-35
-11
-28
14
48
-2
-9
-19
27
37
92
31
37
67
5
11
21
-10
8
43
41
27
-5
16
-9
22
23
6
0
6
42
16
41
-19
-48
-38
-28
19
-18
22
-26
-45
-6
-31
-18
23
7
-29
15
-4
49
40
17
18
-6
50
49
32
20
-23
-4
52
26
-29
-76
-52
0
-10
-75
41
2
10
18
-24
7
26
2
1
-11
-25
-14
50
5
-30
-22
-7
-40
-20
20
53
4
15
37
20
16
0
43
9
15
-21
20
-3
7
17
-23
-13
39
41
7
10
-47
-38
-27
-8
17
14
-4
72
81
-1
12
10
29
43
33
1
28
34
0
-14
34
47
-28
0
37
-1
-4
-51
45
73
25
19
23
50
1
-34
14
-22
-17
0
-5
13
-4
17
17
-31
-13
-21
49
53
57
66
50
34
-3
-3
0
29
44
-3
30
42
32
5
9
4
7
11
18
15
0
-32
-20
-9
22
52
9
-8
-12
38
54
23
16
53
25
20
7
-11
10
49
16
41
-1
20
9
12
24
-3
12
-12
28
19
11
-31
-52
-5
-1
-34
-49
-8
20
3
-7
31
28
10
24
-14
61
33
14
4
-24
-8
-8
7
13
14
5
-48
-58
-36
-45
-70
-15
24
-5
28
42
-46
14
-13
35
-3
-37
18
-12
-11
-6
46
15
-27
36
-27
28
27
16
6
6
19
30
8
33
39
-6
33
40
-12
25
5
42
26
-14
45
44
34
45
10
-3
14
24
5
-38
-57
13
-8
35
6
28
11
41
21
-25
33
5
-36
-7
43
1
15
16
52
25
-10
28
73
44
-15
50
31
35
-16
-23
-9
21
31
-18
-18
56
8
-26
-24
27
45
-30
15
49
-56
-29
-17
-35
-71
-30
-47
24
35
0
-1
26
57
-15
-12
-12
35
21
-39
-3
-1
33
16
20
16
22
-56
14
11
2
-41
-16
-5
-13
46
20
45
19
6
9
10
2
64
-6
-39
13
83
40
-10
-1
40
-8
31
46
31
-42
-12
18
11
13
12
17
6
-11
7
10
-19
16
-25
1
15
-19
52
5
-24
1
29
3
20
-13
-28
15
35
-7
23
-10
-8
-1
-18
10
20
20
13
3
15
10
37
-40
14
14
-36
-39
-32
-6
-19
25
8
-2
0
-4
40
-20
0
42
-30
-26
8
13
11
-39
-15
25
58
51
6
11
57
28
17
45
19
2
22
14
-5
43
65
30
13
-23
49
83
-4
-47
-6
51
-36
-21
-30
-9
-32
-73
24
55
-36
-9
29
-3
10
-6
-9
25
-23
27
20
-17
29
6
6
8
5
5
-16
-4
33
4
-47
58
39
-11
-20
1
3
-7
-29
24
2
16
24
-22
17
28
33
-5
1
57
-39
33
47
2
-37
16
45
35
0
32
18
-3
-31
-2
-13
-37
2
-24
29
38
-29
-27
16
13
0
-3
19
-12
-15
5
39
13
3
39
40
8
26
-2
-1
-11
-9
8
-5
16
12
20
-10
-48
53
55
36
-34
3
67
-2
11
-14
19
-10
-13
29
-2
38
7
-8
-3
24
12
8
-9
1
35
28
0
-30
48
33
-32
-7
40
9
-4
27
26
-24
-8
4
-11
39
27
22
23
-26
-33
28
-12
56
-54
21
27
15
-6
-5
17
-5
2
-12
48
-24
-20
-9
6
-12
10
-12
-28
5
-5
6
-25
-23
-11
16
34
-38
-38
33
44
-16
-36
48
-4
9
9
64
35
6
-8
2
30
-3
35
-27
-14
26
5
26
15
-16
6
16
-35
-58
-28
-13
-22
-14
-51
-29
-17
27
11
39
11
32
-31
-9
20
-29
-2
-59
-34
-10
18
-39
-51
36
25
26
-1
34
38
28
2
19
31
11
-10
36
26
-21
28
5
9
43
24
23
46
-4
0
48
13
9
-2
16
13
-2
-82
-16
-1
3
-8
-8
5
5
4
34
-1
-5
-17
6
-14
-32
1
1
-42
13
0
0
12
22
12
-20
-13
19
54
-32
-39
-19
2
7
38
6
-25
9
41
-39
-21
18
-11
-26
35
42
-6
-43
-37
29
26
14
-13
20
6
-16
13
6
35
-8
11
26
3
-48
-16
15
26
-37
-10
11
35
18
-31
-27
-7
44
-4
-6
-32
23
46
26
10
-58
44
14
13
35
58
9
11
-45
-11
48
2
-21
1
27
17
-30
-72
23
33
49
4
-14
-23
-21
-21
32
-9
-41
-5
-9
-2
-18
-11
27
8
-16
3
4
65
29
20
30
30
36
-19
-26
19
14
27
14
-25
-11
6
26
-18
-1
30
19
11
-18
-28
13
-17
27
44
19
-6
3
26
-10
-22
-15
-11
-18
-7
-3
21
-48
-16
28
-14
19
0
21
23
-3
-14
-4
10
39
101
-24
-19
2
5
2
-6
0
-9
-6
-13
34
13
-26
-4
-26
58
6
-40
-16
25
17
11
43
25
-11
53
60
46
-29
-14
13
-11
16
35
3
47
43
-5
22
51
50
-8
45
59
13
9
47
-12
3
39
45
45
-19
-37
1
27
10
27
-4
-27
22
41
48
-5
-2
39
64
1
36
26
35
-16
-15
-7
9
11
1
-27
-37
5
32
17
-9
5
8
6
22
-15
-14
-10
-9
-4
8
-44
-49
-14
-9
5
-29
-39
-40
16
33
-1
-1
-6
5
-18
15
11
-1
39
-39
-51
28
16
3
3
-9
-8
36
-5
16
-22
-21
34
39
-11
9
24
48
-16
-15
-20
-1
11
-8
-10
-38
33
42
-22
-1
42
51
-23
22
75
64
-12
7
16
4
-9
31
-7
43
0
-7
12
3
34
16
-44
-5
-7
16
-32
-37
-67
-5
-29
-21
-21
-63
-71
-17
36
-13
19
49
55
0
61
37
38
23
-24
3
20
3
28
54
38
39
-33
3
-7
-4
-26
45
56
-9
-13
0
35
22
1
36
-21
27
-24
-8
31
-16
-11
-60
-15
-57
51
3
7
3
20
20
16
-32
-3
33
52
82
23
4
76
8
-3
-9
-2
17
14
-40
22
22
-8
10
-14
34
15
42
1
42
6
-33
10
6
15
31
45
60
85
40
8
26
61
-8
-5
-14
16
-15
-30
11
-17
16
17
-21
-14
9
-16
3
-6
8
-29
-28
0
-10
49
17
61
36
2
24
16
22
46
-26
8
-10
1
-5
-1
19
38
-17
-13
37
63
48
42
39
2
4
-21
-13
5
-13
-49
52
-53
-81
23
39
35
16
8
3
20
-46
-26
9
6
-14
-33
-6
22
7
34
13
32
48
23
23
-24
7
26
-8
-21
-5
29
-6
10
-3
11
-13
-47
57
31
-11
17
55
5
-9
-51
-34
-40
-19
-10
0
14
-9
27
6
-23
7
0
-6
26
27
-22
36
35
24
29
-16
-23
14
7
-24
-19
-17
15
-8
12
60
-2
50
12
5
38
11
-6
17
-19
32
60
43
3
-28
4
-19
25
-18
-49
11
-9
4
-7
-13
54
25
-14
-23
-46
-18
13
-1
29
20
17
26
-4
-51
-15
7
-32
-1
18
15
17
-9
4
18
18
8
31
5
5
12
-16
-12
14
-25
-23
30
35
-2
4
28
40
5
17
13
-8
24
7
-3
-2
-4
16
-52
12
14
9
12
-21
-18
-2
-2
23
45
13
1
31
54
39
38
38
15
29
58
45
-5
12
-20
17
30
26
-2
6
-29
-6
18
38
-14
-46
5
14
34
63
43
25
34
21
55
76
4
-22
-30
26
-16
-3
-23
0
1
-18
-10
4
0
-16
-1
13
9
-19
-20
-20
-52
-46
-8
-52
-14
-27
-20
35
-8
0
13
-30
-5
-33
1
30
26
22
7
-7
-20
29
31
83
38
3
8
12
50
55
-2
19
5
32
-13
40
13
-4
10
-12
16
1
20
7
-16
2
-6
6
10
33
-25
-5
80
2
35
20
-10
-22
27
86
-7
-2
-14
-17
11
-54
-7
19
52
15
3
44
-46
-35
15
-48
8
-16
-10
-52
26
-4
-14
18
-35
48
40
-20
-4
36
21
8
2
46
28
15
8
10
20
28
8
15
38
42
16
42
-1
5
6
31
22
-6
-38
-2
-5
26
0
8
-1
25
65
62
62
63
18
-1
41
49
59
-56
-2
38
-3
-22
-7
-22
-26
-12
7
63
-23
-23
-17
25
62
19
32
-2
19
13
2
27
-34
-36
26
18
4
-10
-10
-17
-2
-9
-27
15
15
25
13
-15
-27
22
8
23
8
29
20
7
-24
46
8
-52
16
-12
23
5
24
3
27
44
42
25
25
36
14
10
-2
8
51
44
45
-3
7
43
18
19
47
9
41
27
24
-2
4
18
14
1
-16
6
-21
9
-22
-17
36
37
16
35
-67
36
64
42
-17
-56
50
-20
-7
39
37
11
-23
2
7
57
9
21
-15
22
-22
6
34
54
31
-9
-31
-26
61
58
1
35
-7
3
37
13
14
9
3
0
17
-60
-6
-1
19
14
-8
12
42
20
-1
16
9
-12
30
-4
16
-36
-3
63
44
-14
-1
-10
6
39
-11
5
8
20
-4
5
9
21
5
-14
23
-32
-14
-42
15
-27
-2
21
10
-30
-10
18
14
32
-14
9
4
10
2
24
29
1
-5
6
2
-2
17
-3
-50
2
13
-35
-27
-39
1
5
-13
19
26
-4
10
22
38
57
25
8
-40
-43
-47
2
-19
-6
10
22
34
14
1
7
14
-26
21
29
-1
0
-19
13
0
9
10
29
22
40
2
39
17
21
4
-15
18
13
-1
-2
-18
-28
4
12
-23
-12
1
19
9
-33
-13
16
-23
-59
-71
-11
57
56
16
-11
-11
13
98
-17
-62
-2
28
52
28
21
11
16
-39
37
28
7
-4
-16
38
-35
-34
-59
-1
25
5
-51
-34
-16
-15
28
12
21
13
30
-3
22
-36
15
23
-16
19
18
47
-4
42
17
8
17
4
-5
-13
-29
-5
41
-31
18
32
23
58
9
3
-26
11
2
46
73
27
2
31
38
49
-23
16
36
44
4
-17
10
30
-4
20
9
-41
1
-23
-15
-23
-7
-22
-8
-39
-2
-15
33
33
9
37
95
16
-31
-1
14
7
14
-68
9
19
-24
37
0
-11
-14
-5
-3
44
21
8
21
-18
7
36
52
83
9
-25
12
80
72
4
-37
-21
24
7
4
-20
-32
26
-24
41
-1
2
1
45
13
11
7
23
12
47
46
-11
69
20
25
23
-12
-11
-21
30
55
15
-30
-11
-7
40
7
21
8
39
-12
12
26
-3
8
-8
32
28
19
24
-13
38
-31
-6
-2
-1
3
21
-21
9
-12
-37
-16
25
-27
-4
-46
-18
-64
-27
-45
5
37
-3
-4
-32
36
33
29
5
30
15
0
11
27
6
33
3
24
-9
-45
7
75
126
0
10
-13
36
-9
-4
0
-4
1
-36
-2
-42
-20
0
8
15
49
25
-23
15
28
8
15
-25
15
-7
0
2
-41
17
-2
-7
17
62
10
17
-19
-9
-18
1
14
1
5
-34
5
3
-29
-29
-24
-16
-12
13
-71
-13
-23
-7
16
-27
34
39
-1
-19
2
29
8
57
46
36
36
8
-29
-25
24
-15
-95
25
11
9
-11
19
18
58
22
-21
36
-12
12
22
-7
-21
3
9
-31
-7
-15
36
33
32
1
37
-8
60
16
57
26
32
-9
-27
4
10
23
-26
-5
-1
10
13
-48
-4
-1
-9
-15
14
25
-2
-3
-9
12
40
39
-2
1
40
4
-25
-24
0
13
13
37
21
-1
6
21
29
23
0
23
14
7
35
24
17
12
52
25
49
18
-38
-8
14
14
-9
13
16
-2
22
15
-12
10
20
2
-40
-41
-71
-81
-6
-50
-45
-79
-52
40
3
28
-6
34
-19
-57
15
-14
15
-20
29
36
-24
-30
33
70
86
39
-11
23
36
21
-21
-4
-2
36
-11
-30
-13
-34
8
-13
11
22
3
-6
-16
3
42
-22
4
24
48
72
76
40
4
-7
-45
85
59
46
16
13
-68
-10
59
15
-15
53
-8
-25
-17
-25
-2
21
21
54
16
22
7
-55
-37
-5
-32
31
25
-11
17
-34
11
42
-11
1
-3
-12
16
24
-42
19
22
47
38
7
14
25
0
-8
13
83
62
58
39
26
-26
72
25
-31
-48
-26
-23
-43
-32
-28
-11
21
12
12
-1
37
29
47
-2
47
106
17
6
5
42
104
32
4
-24
-14
-10
44
19
-22
-47
11
-33
-39
-7
17
6
10
8
21
52
9
-54
-46
33
52
61
-12
-31
-20
29
36
12
-37
-35
13
2
28
30
4
20
0
-20
-11
-1
-12
40
-1
6
28
-19
-29
43
30
-13
-29
-57
-52
42
0
-12
1
23
-4
-18
-37
-4
37
16
12
1
36
52
9
-39
-14
65
57
22
8
22
-27
-13
20
15
-23
40
36
21
-9
6
35
16
-31
7
3
63
19
-15
37
-7
-4
8
8
-23
-11
-1
1
13
4
33
26
4
57
56
16
35
16
2
-16
-34
18
24
15
-43
-20
-36
-38
26
36
3
43
6
-34
60
10
44
14
59
41
27
55
-3
2
32
44
19
-4
-31
38
-14
-20
27
-20
23
24
63
27
14
22
45
35
-16
-26
-16
22
-13
-4
35
46
-3
-78
-82
23
16
-1
73
-30
-7
32
65
22
37
39
38
72
8
0
-14
14
31
9
-33
-25
-13
19
-27
-30
-16
25
18
4
-18
26
35
13
16
59
34
8
24
-12
-34
-52
-37
-6
-30
-14
26
9
40
63
8
-12
9
8
57
26
-2
-16
15
-30
22
34
-28
-26
-8
2
-61
-7
-18
-9
-27
-1
59
31
9
-19
-11
-4
23
64
34
-24
-16
-24
-34
-14
-12
-53
-38
15
16
51
25
16
19
-12
6
29
-10
-37
-17
23
13
-7
-62
26
10
-10
33
39
37
0
32
27
-14
-18
-43
0
39
9
-9
-40
-19
39
-37
-27
-30
-5
17
12
-28
-32
-30
-6
-20
-19
-35
-20
-48
2
10
-18
-2
-74
-61
-28
8
-64
-29
-20
30
5
48
34
-15
0
-29
10
26
-2
18
1
-9
38
12
0
-8
31
16
63
27
28
15
23
16
-26
8
0
15
32
11
-8
19
-6
65
41
13
-1
47
-22
-31
7
57
16
8
11
44
19
0
30
18
-21
-10
31
-4
-16
-14
0
18
15
-12
-30
13
56
-18
16
35
54
37
-30
14
65
-22
-64
11
15
0
-46
20
-21
-2
16
2
36
-30
-30
-15
28
12
1
36
109
41
12
4
-5
61
-5
-52
-14
-24
11
-24
-24
4
-1
32
26
37
-11
-9
15
5
-4
3
-7
-5
11
11
4
53
-13
41
23
14
39
-30
18
62
24
-12
15
11
11
40
16
42
19
30
23
16
1
73
20
28
-34
3
28
14
-13
1
17
24
-4
12
25
-29
18
12
35
5
-37
-22
45
-33
6
51
16
-63
-12
70
-17
-20
35
13
29
-30
16
44
15
-12
-6
-3
10
50
-33
1
4
-11
20
-22
-20
36
41
-7
-10
3
1
13
3
16
4
11
24
-13
10
-9
30
-18
-16
17
0
-23
-24
10
25
71
7
10
-12
-3
13
-33
19
22
-33
47
43
-11
-10
-2
34
16
-4
-30
-29
-3
23
-8
19
58
3
-29
42
21
2
-22
4
49
28
-6
-6
-3
-6
1
31
27
-27
19
-28
6
44
-10
-15
-9
35
73
15
15
-13
68
46
5
34
29
-24
27
-20
9
-38
4
37
18
-23
-1
31
37
23
-52
28
14
-5
7
-18
12
-29
16
14
-5
-21
-19
2
-20
-7
34
-22
-12
4
35
11
-13
8
45
41
1
22
22
-40
-40
7
-20
-6
-23
-51
-26
12
-11
-12
18
1
4
10
32
42
-17
-20
-1
25
22
-27
11
4
20
24
30
28
-9
33
91
22
-1
43
62
-12
18
35
33
38
-28
41
30
13
10
-2
41
27
-5
-63
-47
28
-5
21
-49
-51
-21
-25
-10
-6
-5
6
-7
24
11
39
12
-12
-25
22
-7
-13
13
37
50
44
19
18
26
-23
-29
33
-25
33
44
1
5
31
29
13
45
60
76
31
10
23
-4
11
24
35
-7
-35
-32
-16
-30
2
-15
1
1
10
5
-62
-9
10
-17
-15
-40
-53
-20
4
-25
21
61
49
35
28
23
-22
-42
-6
6
44
6
17
-2
-21
-8
16
-10
22
13
38
1
-30
14
31
28
3
47
22
13
18
11
12
59
28
16
6
-17
-55
-19
59
53
10
18
-7
47
-1
-4
17
50
56
18
-7
-8
4
6
-16
-27
-1
41
5
-36
-31
-15
14
42
9
-26
-54
-24
4
-2
7
-13
3
21
-12
31
34
1
6
-15
5
-16
0
25
-20
-5
-25
-44
-8
16
50
36
12
-48
-42
6
44
30
7
41
31
22
-35
-19
35
-13
21
-11
-36
-8
16
29
-17
-34
52
45
48
23
-3
27
10
27
-7
14
46
-5
57
33
3
-9
3
-2
-13
22
35
33
46
-9
18
-46
-10
-2
35
17
24
-16
5
15
-9
16
25
61
33
20
10
15
-26
-7
1
31
26
40
48
32
-53
-18
45
11
60
5
-24
43
11
31
20
11
33
7
55
55
-8
9
21
63
37
11
41
25
27
18
-4
27
27
75
56
8
1
6
7
-24
-41
-5
-6
6
-10
47
26
28
0
-15
21
13
38
22
-10
23
7
1
-4
14
16
-6
-45
8
-10
-51
16
13
17
-52
-13
6
-18
26
-28
28
-7
39
27
-9
-15
-27
12
22
-4
30
-17
-38
-11
0
-13
-33
3
-22
-17
26
20
27
-5
13
-10
-18
-41
-36
26
-12
8
-24
-3
-7
38
20
-14
33
21
7
22
8
-23
-4
26
44
36
33
-35
-21
-48
11
34
48
46
-28
-6
18
29
31
-30
-22
29
-8
1
4
-24
-10
0
16
-55
-7
-3
25
40
-6
33
-4
-7
-1
12
39
-8
25
5
0
-9
-19
9
-22
38
37
6
-1
-30
26
-7
-12
24
-31
-62
-44
-45
-37
-24
-35
-11
-36
-17
-43
10
21
3
16
-24
-17
-58
-32
-3
-60
22
-49
14
29
8
-65
13
54
12
-35
30
36
29
23
0
-3
5
17
-21
12
21
18
66
-11
68
37
1
71
42
18
-18
10
3
-5
-11
28
33
22
24
37
-14
21
-6
-55
-23
57
31
5
-5
10
62
8
22
17
15
-11
-4
30
-20
-34
17
30
50
3
27
58
12
-48
2
3
45
33
-80
-55
-17
6
23
-36
8
16
-25
-63
-10
1
-47
-33
49
26
19
20
34
40
-5
23
56
20
36
13
21
59
-8
-40
14
13
69
-39
-29
14
8
5
11
22
9
9
-2
22
13
-27
4
-33
-17
7
-7
2
20
26
20
12
56
-22
46
-5
-10
-17
-23
53
3
16
13
29
-4
9
27
-23
17
32
11
2
-44
-1
-5
-42
-1
-41
41
39
16
-3
-1
35
26
-21
59
33
12
13
22
-70
-1
36
31
-2
-8
34
48
11
-25
27
19
2
-8
14
-17
5
7
56
16
11
2
36
5
-49
-19
-52
-53
8
51
12
-2
-17
20
18
11
29
1
-4
8
-24
-9
-32
35
-17
17
9
34
-24
-28
-29
3
-2
-37
47
-7
10
19
-85
-41
-21
-15
6
-13
39
-14
-12
49
8
14
-11
-9
27
-10
14
8
53
14
-8
15
15
19
-16
-40
62
7
26
14
24
1
-16
1
48
-17
14
-18
-15
2
-23
-2
23
29
19
2
47
13
88
41
11
86
8
46
11
-18
49
-14
10
12
-15
18
-7
-12
-16
8
-23
19
48
55
-2
10
7
17
-16
17
-15
-36
-4
2
11
-17
3
29
4
11
16
16
0
-13
-6
33
-1
6
34
-30
-7
13
-26
36
-76
-56
1
23
4
18
-7
-9
3
-4
21
38
6
14
-1
34
9
40
-23
-6
-22
-5
58
52
-4
35
11
63
40
-1
94
91
13
10
15
76
2
33
37
27
-18
-18
-6
71
42
-86
-62
13
30
26
-56
-28
10
5
7
-68
10
4
-22
14
-24
20
-10
-5
0
-5
31
-25
-12
15
37
-6
42
44
-30
-25
22
52
-20
-15
7
16
8
-16
23
-22
-37
-25
-45
-53
-24
-7
10
19
27
-25
16
10
68
-10
-13
4
43
-10
-10
-3
21
23
31
24
13
-56
32
-43
-72
-31
-71
4
37
-14
23
30
6
-8
23
-30
24
10
-27
-30
26
18
29
-12
-59
-8
-44
-16
-35
-91
-128
-54
1
-7
0
17
40
2
6
15
-4
12
6
-9
-28
-17
54
31
-30
-3
38
6
-5
14
-51
-91
-53
18
22
4
13
0
31
24
-34
21
-2
7
-29
33
-11
7
-1
-37
-21
29
31
21
14
29
39
35
28
43
19
-5
-4
35
15
33
2
17
18
-32
29
44
25
6
67
37
9
4
-11
-49
-31
-58
-46
20
-10
-30
-11
-16
5
1
-8
-12
3
-8
8
-11
-11
-9
32
16
-15
-3
15
6
46
15
-1
-42
-25
13
3
33
10
-10
13
-31
33
-12
1
-21
-4
35
30
9
-16
-14
-33
-63
11
19
-48
-7
18
-12
-17
39
3
-17
-6
18
-1
-16
-25
19
3
-14
-13
-6
-11
4
7
-15
-38
32
-5
-48
-39
6
-6
18
12
-20
10
3
32
-10
13
2
-4
-31
25
28
18
-43
26
0
-8
15
22
54
57
75
70
-4
-4
4
22
-7
-5
-17
7
12
4
-33
14
37
3
-5
6
0
61
70
15
38
59
118
89
46
8
40
8
21
-9
25
4
20
37
30
2
-14
17
19
20
-19
-1
29
10
2
-21
-21
49
10
25
28
-16
-19
-19
18
2
14
0
29
-10
8
-13
10
-19
14
26
-30
-24
9
38
15
-16
-14
-22
-41
0
27
-26
-1
28
19
9
-16
-13
9
1
-45
11
35
2
17
-2
-41
44
7
10
-20
-40
-49
-3
13
48
1
6
-30
47
-3
-22
-29
28
-13
-1
3
3
3
-35
47
16
-17
28
13
37
25
63
42
18
26
20
11
38
22
2
-8
-17
-17
-4
-13
-32
-25
2
1
-26
-12
-22
-7
-5
-70
-74
-26
-11
10
-18
-6
28
1
28
-34
-8
-1
15
9
-6
30
29
-12
-22
19
4
5
39
8
13
-61
-61
-19
14
48
-3
9
-20
11
6
19
21
34
43
13
22
-13
45
-8
31
9
33
-14
6
-47
-31
-14
-56
40
10
28
37
26
2
-29
0
45
58
0
21
22
-5
7
-15
0
-12
-20
-25
-27
-64
-76
-58
-8
29
36
19
16
9
-11
23
14
30
42
16
-3
7
-27
22
7
18
10
26
7
-14
11
-26
-31
0
29
23
-19
-13
21
-13
12
-20
-55
-40
-18
-34
55
8
-14
44
8
15
13
21
-1
39
5
33
28
17
9
-11
-26
-23
0
-15
36
59
53
54
5
-20
-20
37
5
45
0
9
13
-23
-39
-37
-38
-35
12
31
3
-28
-50
-6
29
3
-49
2
4
28
-10
5
13
27
34
-3
30
51
22
36
3
-10
-18
27
25
40
73
-30
7
10
51
52
3
0
25
7
5
8
-20
29
-2
-17
0
28
7
-51
-32
-8
5
-14
5
67
55
-6
5
7
36
33
2
41
-27
-40
21
-13
1
-25
-3
-3
47
14
-25
3
-1
4
37
77
71
32
7
56
35
0
-29
11
9
25
9
14
-20
30
22
9
6
28
30
20
16
-5
-11
3
-3
-31
-15
17
24
-4
-27
1
12
4
7
31
20
29
32
30
2
17
48
41
92
49
45
32
10
21
34
42
-8
12
6
38
-1
-1
-5
16
5
17
2
-21
20
-10
-7
-5
21
18
-3
-1
11
-3
-49
-85
-46
22
7
3
12
-14
14
-24
14
11
33
-5
-5
15
8
23
-24
-3
19
24
0
-2
4
-23
-53
-8
-2
-21
-16
-15
-51
29
-41
39
13
12
18
28
-26
41
-11
-30
-26
9
-1
27
-37
-29
21
43
20
9
23
3
-11
23
20
55
14
-25
7
-5
41
10
7
17
18
-22
10
30
32
43
5
-32
-68
-19
46
0
-55
-42
-31
-29
-42
-2
-53
12
26
-53
-4
-57
17
-28
-57
-72
-26
-24
-9
16
5
33
-28
-54
-50
-75
-39
-48
39
-10
28
9
-4
15
28
-20
-6
45
-3
-4
-27
17
64
-8
-6
-5
10
-10
5
-23
-4
-16
-5
58
61
44
-2
34
-9
25
28
-5
-32
-1
-10
-59
-26
-53
-4
-19
-7
4
-18
-19
-26
-27
-21
-34
23
-2
2
6
-10
35
41
-35
-35
-3
15
-11
-14
-21
22
-16
-34
12
21
14
-31
-49
-41
-4
-44
-28
-25
8
11
10
44
38
23
5
18
43
0
8
5
-7
33
-17
27
14
19
19
12
36
-7
-7
0
-8
-57
-34
2
1
6
22
-15
40
24
31
24
18
42
-4
21
-7
-12
-35
36
14
-6
-3
23
70
35
-17
17
20
28
-14
18
43
-6
-23
13
19
6
-31
19
-10
1
10
-17
18
-2
-9
4
-38
-2
-53
-22
-16
-43
-9
59
27
29
2
46
75
49
33
2
5
-8
-8
22
-12
-13
-2
43
30
42
18
53
30
25
-7
17
-5
29
-12
-12
-1
-9
3
3
-17
21
-5
-12
22
28
25
34
4
-7
-4
46
75
40
13
3
20
30
6
0
-42
1
9
5
-8
-41
16
10
24
-9
23
9
1
31
18
28
18
33
2
-6
25
-2
32
12
22
41
-6
32
32
45
50
15
47
28
1
50
44
56
37
24
52
-29
-12
5
16
24
-16
-24
52
6
5
20
29
41
-1
-47
22
6
-12
-5
22
-18
-2
42
18
49
-10
26
49
25
55
-12
-28
-35
12
60
-37
-45
-46
-16
-33
8
-4
23
6
0
-13
-4
-29
10
-16
-50
-11
-28
-29
-8
-10
-20
-11
-39
8
26
-1
4
-37
0
-2
-23
-21
-44
5
10
-23
16
-51
10
2
-7
-34
-42
45
0
7
-28
2
36
-9
36
-23
4
51
15
29
-4
-21
15
10
45
32
-17
47
77
50
-15
18
29
3
-8
-21
-13
35
-17
33
21
19
-9
-15
20
23
-19
-46
22
12
-11
-15
-11
39
-7
14
-46
22
-15
-5
-11
-34
44
-35
-26
-21
6
47
-24
14
30
-1
46
62
18
32
-2
47
6
-15
31
34
9
20
24
-6
-33
26
-32
5
-21
11
36
-30
46
-26
-43
-21
0
-25
-31
-30
-38
16
-18
58
7
-37
29
-5
9
-28
19
-26
-19
-14
-14
49
10
16
38
-12
-3
46
46
16
-2
12
11
34
39
41
-4
4
-8
-14
-5
61
-24
0
-2
25
68
12
18
6
-10
-40
16
8
1
15
0
20
17
12
37
46
-16
8
36
18
29
27
7
5
37
81
52
7
-27
12
7
15
-1
-65
9
48
12
7
-38
-43
2
20
13
-10
-19
23
13
27
17
23
9
-8
-4
0
3
7
0
17
39
-16
-18
29
12
58
-4
11
38
-35
30
43
28
-7
5
0
29
31
32
26
45
12
-18
6
24
15
17
-8
-15
-15
47
-10
-4
1
20
52
30
-27
29
36
17
12
5
21
35
17
7
-20
11
42
33
59
-3
21
34
52
-13
5
0
-1
7
12
81
-1
2
-25
12
23
-14
29
72
33
-22
23
27
52
47
16
-1
-22
62
69
20
1
16
-30
34
23
-32
-13
4
-14
6
21
16
3
36
54
40
1
0
71
49
-14
16
-17
-6
6
24
11
-9
7
21
-5
10
12
20
6
11
0
-18
26
18
-35
-51
-9
-11
-21
-9
-11
-44
-16
4
-22
-2
0
-19
-47
38
15
12
10
-37
2
-24
-26
7
18
26
-15
-43
-10
-25
28
-29
-18
-4
22
-17
-8
-75
4
3
-29
-46
-24
-4
2
-12
-21
-3
-8
-38
-9
19
12
7
-22
23
16
14
-11
-5
36
31
5
-9
-3
-3
11
-8
-19
49
38
33
-20
18
21
22
7
-17
39
6
26
6
-30
-53
17
-5
24
5
-16
39
-2
36
27
45
51
-11
19
25
36
30
-17
-41
13
13
44
-1
2
-7
-45
7
6
-34
-35
14
-12
-33
18
12
8
-55
3
-24
-10
5
-1
-21
-2
12
-12
-11
25
53
-4
51
-17
37
18
14
37
25
3
25
1
19
31
-31
-53
-55
4
-59
-7
2
19
-30
-16
4
22
-25
-6
46
3
31
6
41
-2
-7
-6
20
14
-5
23
10
8
40
37
6
36
53
-4
-2
-6
7
27
18
15
-12
49
21
-5
11
32
41
26
-17
12
-7
-55
-6
28
8
-35
30
-15
14
-6
36
-9
15
20
-19
-3
14
46
47
10
23
39
33
-4
-2
-11
-32
-15
36
44
-67
-39
-1
-32
-6
26
44
21
7
2
-14
-50
-25
31
21
-17
12
12
7
15
-2
27
56
56
9
-11
22
18
41
45
10
20
-5
17
26
-28
-1
-10
-20
-7
-39
-38
18
2
9
-9
-4
-5
-9
-1
16
6
-25
10
-5
4
12
32
-22
-22
4
15
27
4
-16
34
28
17
13
-40
3
-2
17
-17
-25
20
-31
17
1
-27
12
-3
13
15
5
38
-8
-32
4
-4
30
-6
-11
-7
8
-53
-14
3
33
65
15
65
1
-18
9
29
-40
-16
29
17
4
60
44
24
-18
27
10
25
-8
17
-7
-43
-56
-32
35
6
0
37
-1
-1
32
-14
34
-7
-29
1
-1
32
16
-10
3
43
31
-20
2
-26
-19
12
-2
6
25
6
-3
-7
34
-22
-28
-28
-4
29
23
15
22
-6
-23
-37
-28
20
2
28
37
72
33
0
-5
29
3
16
22
43
16
4
-18
17
-11
-1
-18
-12
-4
13
2
-16
24
-25
7
13
37
35
0
10
-5
35
16
25
47
3
13
-14
22
45
-24
33
15
17
42
9
28
-14
1
36
4
-4
5
-3
16
0
-19
-6
-13
-15
13
-6
0
20
-8
7
23
15
-1
19
36
18
3
5
11
-11
-4
0
-25
-8
-22
-26
-9
12
31
-6
25
-15
11
34
-21
-11
-7
-27
25
23
-5
3
17
-18
-14
-17
-9
-13
-13
92
77
-26
46
1
-10
-31
17
9
-19
38
33
13
2
-12
3
-28
-11
21
38
35
46
46
-38
-1
-27
-2
4
-21
13
-37
-3
-9
-16
18
19
58
26
26
38
26
54
18
-5
21
3
-33
-22
22
107
40
44
78
-26
25
61
8
-17
-2
-4
14
-13
33
-9
1
-17
19
25
16
-26
15
23
8
30
-4
-47
12
-1
-21
17
-50
13
-27
13
11
-1
14
1
-14
7
5
15
-4
9
42
17
32
10
-1
52
32
28
23
-2
4
31
42
9
12
9
-12
-10
-6
13
2
-20
7
18
-36
-32
68
41
2
11
37
90
44
52
39
9
65
59
-14
-47
29
18
-15
-2
8
-16
1
-16
14
0
-21
7
11
-3
-21
9
-2
-15
-34
25
45
-12
-24
-16
67
59
1
18
-9
2
13
8
4
-7
-35
-14
26
28
66
40
23
8
14
39
23
11
9
-7
35
-51
-31
-3
12
66
2
-2
9
14
11
-1
9
32
69
32
16
-38
27
65
0
24
1
58
44
0
-35
9
42
36
-11
-6
7
1
-34
2
0
-8
59
48
15
10
-19
35
-30
-45
-39
-4
-12
-10
-50
-10
6
-5
-8
8
26
35
11
39
22
-7
46
20
59
44
5
-21
-21
-7
65
33
-29
17
17
-13
-36
-13
-12
-25
46
15
13
-28
-8
-5
17
16
22
25
44
51
-20
40
48
-11
25
-18
34
17
-26
73
10
16
20
2
6
24
26
25
-10
18
29
5
-19
24
-8
-36
-20
-38
-4
0
-34
-13
-49
40
1
-1
10
33
9
30
14
5
-8
14
42
48
16
-35
-20
13
18
-6
-61
-35
-50
-23
-9
-19
27
2
25
-5
38
58
18
6
31
60
30
27
47
8
-22
-21
-40
16
21
21
-5
10
41
47
9
14
32
5
36
7
2
15
-28
-8
-13
22
-15
-19
35
13
30
16
33
1
14
4
60
77
26
-12
-14
-12
34
25
-19
6
-17
13
-18
6
-44
-3
-9
9
-15
26
62
27
-16
-7
28
-18
29
-37
-15
55
0
-7
-25
-1
22
-1
15
30
7
22
-3
-20
7
-21
-24
35
21
9
-60
-65
61
-13
-36
-5
-28
31
-6
11
-14
-8
-36
7
-21
13
-10
-16
3
-14
16
12
8
69
63
63
71
57
48
24
14
-41
13
14
-24
6
-1
-36
-21
25
51
-5
5
-1
31
3
11
19
0
-16
-19
-8
-13
-27
-14
20
11
37
6
-11
5
-27
48
-1
-10
-52
10
51
35
12
27
10
-18
-13
16
51
26
-2
-9
36
14
47
45
39
-13
9
10
11
17
-1
-5
-13
21
28
-6
37
24
3
-34
92
60
23
50
-15
37
48
61
28
44
21
37
29
-26
-9
19
-5
-2
-2
1
-4
-23
-12
16
13
-3
-74
-32
-18
37
-15
-18
-19
-17
52
5
41
27
11
37
29
7
19
-21
-19
10
1
32
-7
20
18
61
10
-27
-38
3
2
10
85
-7
-2
-27
2
14
-12
-41
-14
21
21
18
17
37
34
18
41
30
61
50
28
-9
28
16
49
-41
-9
6
39
49
-16
10
17
0
-13
10
-11
51
44
7
-37
-28
35
16
39
-20
-7
-26
13
69
-11
7
-16
-30
-49
21
14
-12
-44
-4
40
34
-6
24
55
2
-27
43
21
61
78
16
-7
8
-19
33
3
15
-27
-23
33
40
21
-35
-13
25
51
2
-8
24
20
20
23
52
52
13
28
24
23
10
-27
-12
1
15
-26
-41
19
30
2
1
15
11
21
-28
-20
26
23
-13
-32
-55
-15
24
-25
-13
2
-41
14
18
-6
7
33
16
4
13
8
21
-16
-25
-36
-46
-24
-21
-21
-35
-22
-50
-23
16
-21
-27
-15
-7
5
-13
-1
5
-16
3
18
19
39
29
11
4
-21
-15
23
17
20
-7
-5
-1
40
19
3
-20
5
37
38
4
14
-23
4
9
-7
-27
-7
7
-4
34
64
35
0
46
1
-6
34
33
27
14
-9
1
9
34
38
23
1
-1
-15
18
-29
12
-15
26
8
22
67
-55
-7
26
18
35
-14
-2
-44
14
-14
24
-19
-16
9
-4
18
-10
18
19
21
-9
-57
-9
44
32
-34
-24
24
32
56
-5
22
29
16
42
-5
15
4
13
1
-32
-6
-21
31
-4
25
52
26
28
-8
16
-18
-37
12
-12
-25
45
31
37
10
35
-5
12
35
63
-6
-12
57
48
-14
7
-15
9
3
44
42
-40
-3
-15
20
38
50
16
-32
-34
10
24
-16
-1
55
-31
39
51
36
30
31
-22
24
18
-2
-17
3
-33
-7
-25
-9
36
42
13
-39
20
44
75
32
64
6
40
66
84
38
-4
-14
-8
-27
-22
-9
-28
2
-17
2
-2
-10
30
-14
-39
-1
-5
22
3
37
53
-7
44
59
85
-35
-22
16
11
-12
-26
-5
49
2
32
-17
15
9
3
48
-4
18
-15
17
19
39
13
0
55
-28
29
8
22
14
29
-7
8
-21
-19
-9
34
43
-2
-25
-47
21
3
4
39
-17
14
64
58
3
-17
-21
-41
-18
10
18
-21
-14
36
9
0
-13
0
43
20
30
11
18
44
0
-1
7
17
-10
2
23
7
-6
5
-16
31
22
2
-10
-42
-10
9
55
14
-29
7
25
8
-3
15
61
16
-24
37
14
-28
74
26
18
3
11
68
36
-31
-32
7
1
0
24
40
-5
12
30
22
27
8
-50
-45
35
22
-5
26
-3
12
9
10
-19
-33
-21
11
-10
0
-27
27
-17
6
40
-27
4
28
31
-49
-19
8
-21
-19
-8
17
-3
23
4
5
25
28
53
44
21
-25
-11
16
12
3
9
-11
-44
-52
3
-18
-55
-46
-12
40
46
11
6
13
5
-3
-11
8
24
28
18
-23
-8
-8
13
-10
-72
19
-7
14
-8
-52
3
1
-17
-14
0
64
49
15
14
17
-3
25
15
31
25
37
7
15
35
20
8
8
68
32
-8
-6
-1
1
-17
32
10
-5
-11
-7
19
22
43
0
41
-27
-8
47
15
42
6
20
-20
60
26
29
31
9
34
-12
18
0
42
5
18
8
30
9
17
13
11
36
44
31
-13
27
46
-52
-24
-7
31
-23
-61
-15
2
28
22
35
18
41
24
46
64
29
20
33
27
41
21
23
41
74
38
54
78
66
58
12
-40
22
-4
-7
-40
6
44
31
19
-15
-14
49
7
8
-4
23
71
-14
34
-21
25
53
7
15
29
24
6
-2
64
54
24
-21
36
5
56
8
23
14
70
35
21
14
44
36
-35
15
16
29
6
37
-32
2
31
48
27
-2
6
21
39
35
-8
24
47
32
17
20
21
-11
5
-21
25
8
-12
16
6
-8
50
74
35
52
-20
-15
-19
-1
21
-15
35
83
21
23
38
36
13
1
8
-4
51
22
-27
7
10
31
38
7
20
3
0
64
26
-47
-1
0
16
1
-34
-5
0
-18
-9
-10
-22
30
8
20
29
-24
2
23
19
21
-8
25
-19
30
34
37
51
1
52
26
8
1
35
31
22
10
19
-13
10
35
29
17
11
52
23
11
-58
-15
1
-11
-53
-45
26
-10
41
4
-26
34
24
33
17
10
49
5
48
-40
-13
0
33
23
-3
30
54
33
28
10
46
44
3
-26
35
-16
-35
-26
-11
-10
1
-46
-28
5
5
-26
-37
-2
27
9
-8
11
15
29
11
10
20
62
45
8
-4
2
17
13
49
-12
-7
-30
-14
-14
-28
-25
-67
0
-4
9
62
-46
0
20
39
1
-46
7
11
2
-27
-25
-31
-10
7
-22
-23
-23
36
11
14
-19
9
23
-5
-11
-1
-1
29
-44
-33
-53
12
-19
-25
29
-8
45
-19
2
2
33
4
4
-4
42
-26
-9
-4
70
46
43
30
18
70
-9
28
-12
27
33
8
-22
-28
4
3
-6
-14
-34
33
52
49
41
-5
-19
-11
35
10
-20
-42
-5
-31
13
39
-10
59
17
57
43
25
31
66
31
24
30
41
86
7
-27
-13
4
53
-12
-36
3
32
-12
56
-43
40
47
45
40
-3
24
78
6
5
17
-20
-14
-47
-14
-33
27
54
18
-4
-43
38
32
-18
50
-8
1
-3
-35
-2
25
-10
-16
-3
32
27
17
23
41
3
-32
13
8
38
-38
2
32
10
42
9
14
-7
62
32
3
0
3
28
24
11
-6
-10
15
-11
17
-4
9
-33
-53
10
2
37
26
39
-5
-10
-51
-23
-36
-35
-23
1
-14
-47
-7
-16
22
42
-26
1
28
46
53
2
-21
21
31
29
10
1
12
40
41
-17
34
3
18
6
-20
-17
-35
-13
-9
-31
-1
19
1
-3
-24
-7
8
22
14
-4
-2
21
6
-9
-21
9
15
-30
-49
-79
-96
-47
-17
-16
-18
12
52
-56
-4
17
-6
44
5
24
-25
-18
-13
42
12
0
18
23
-102
-65
-37
-20
-39
-5
10
-8
55
25
27
4
17
65
-18
-40
4
1
14
-15
31
15
29
7
-21
-7
39
38
30
1
52
36
-24
7
7
10
-15
0
-1
36
-4
30
32
-18
24
21
24
15
18
64
7
-43
-43
-35
4
-7
-38
-30
-20
42
6
-31
-5
-12
-3
3
1
-9
41
-10
29
17
-6
-16
36
25
19
-34
2
11
-16
-4
26
17
-1
-8
10
-8
-2
-11
46
-13
3
-21
27
-14
-15
-13
-1
6
13
28
8
1
-28
0
34
5
-15
23
-13
13
12
-20
32
15
19
-6
-26
40
-1
6
0
4
18
67
13
-24
-18
-10
10
-6
32
47
-8
-27
34
6
15
8
-14
-19
1
20
24
-52
-11
4
2
-14
21
61
63
32
-6
-15
-8
25
-8
-31
15
36
59
23
-1
-6
3
18
-15
8
41
30
51
5
-7
62
72
84
76
45
18
42
68
44
2
-1
6
36
61
-2
-11
-7
32
21
11
-16
-19
11
14
12
-13
19
69
44
-3
14
-33
-6
6
-10
5
-7
-3
5
19
-15
-39
10
28
17
3
-7
1
21
12
-6
-46
-9
3
1
-37
-25
-40
-2
3
15
-55
-30
-8
-6
-40
-43
2
-16
-5
22
-14
-26
40
-22
-23
-49
-40
-4
-2
31
3
18
-16
-43
57
23
13
2
-14
19
13
6
2
51
-48
25
-2
39
-13
87
76
65
31
24
14
32
17
5
0
22
-4
1
-1
-28
-10
-55
20
-11
2
-7
24
7
7
-13
0
-16
-40
-5
-34
-11
40
-13
8
3
28
12
-59
-39
-12
-14
-22
8
48
-17
13
37
26
0
59
73
63
35
10
48
0
11
1
-2
-15
2
-4
-26
14
39
6
33
18
15
39
-14
-14
23
-1
-23
12
-60
-28
-30
-25
5
-4
19
-2
-9
14
-41
-43
-28
8
11
-12
-15
8
8
3
15
48
25
2
-3
-17
-19
10
47
-10
-16
-16
-22
-11
-3
-15
-3
-20
7
-11
-31
-40
18
12
-17
-13
24
35
-31
57
76
4
6
-26
-8
7
4
-5
4
5
-10
43
22
-35
5
-14
-9
-19
-27
-14
12
-10
10
15
2
42
3
47
49
-9
12
-23
-7
-53
37
-28
-21
46
34
9
31
3
9
-4
-14
-37
-4
41
-20
-11
-51
-10
8
21
9
-10
3
-2
8
7
-20
28
-25
-22
-10
-17
-11
-15
-3
19
22
51
51
41
19
30
34
58
30
-11
-14
5
18
42
14
6
0
12
47
-27
-7
44
78
-12
-28
15
15
0
-48
31
-36
-45
-28
-9
-17
0
-17
19
40
-8
19
-3
-33
29
-21
-15
12
72
17
30
4
12
0
1
75
2
-9
-36
-44
0
25
26
-11
13
-4
-10
-3
-8
21
-15
14
46
31
-9
37
75
9
-15
-8
26
48
-4
25
-2
-17
13
-12
12
38
5
53
59
33
14
38
39
-24
15
25
44
6
-13
-32
-12
27
36
39
-13
-19
19
-8
10
-14
-6
16
26
10
53
26
-26
11
66
63
44
5
-14
-24
-15
0
3
-41
-58
-38
-43
17
9
33
-6
-14
22
-17
-20
-20
-16
9
-9
-20
-24
-3
0
-14
-15
6
11
-6
-9
42
32
21
5
4
21
-18
9
20
-4
11
19
-54
4
-6
-33
-21
-11
-5
34
9
6
12
12
39
65
7
30
-4
7
12
16
-5
20
28
22
-18
-2
5
59
38
-20
-28
58
39
-13
-7
68
-1
1
1
-1
29
-2
17
9
-8
2
14
12
19
-36
3
8
21
-20
-42
23
-59
-33
-17
-3
12
-73
-34
-27
45
32
15
48
11
-4
31
-19
-15
-19
24
35
-21
7
7
2
25
64
-25
22
-2
-12
24
43
20
9
-5
39
36
52
25
8
-33
-29
-22
-31
23
-9
19
11
-17
-20
9
-21
-14
-39
5
-8
63
49
5
19
44
6
-24
-13
-5
0
-49
-36
-36
-34
-24
-40
0
14
18
11
4
54
16
28
33
75
71
63
16
-14
-9
1
8
33
37
-18
-97
-52
-31
-46
-16
-29
12
4
-49
-25
-21
16
-3
16
12
29
41
22
18
-27
-40
4
16
67
74
57
56
20
52
15
-9
22
22
13
18
-3
13
-4
-7
-23
-5
1
14
12
38
22
38
56
-48
-46
-54
-44
-34
-60
11
16
-11
-4
22
-4
13
-34
-2
37
33
41
-8
1
-12
-42
-7
-4
-12
-3
23
32
39
22
5
12
-6
0
18
-26
-36
10
-17
-8
3
-7
15
5
-23
26
-37
-45
-31
33
-48
-73
-47
-37
-9
-29
21
-6
21
18
12
41
26
31
16
14
26
9
26
32
-2
17
-18
-52
-3
-26
-3
-36
-25
-51
-22
4
44
-5
-4
27
23
21
21
34
-17
-22
34
39
-5
30
-2
-70
-61
-37
-20
-3
14
32
-6
15
-2
-14
-4
13
22
14
19
23
-1
2
-13
-15
-12
13
-7
-10
34
-2
21
19
37
76
89
32
22
11
30
-4
-8
-20
20
-16
6
-2
-30
-33
-34
-27
9
32
41
-5
-48
-1
17
-20
-29
-45
-1
42
21
-24
-18
-22
48
37
-8
10
13
16
5
-36
18
50
26
26
72
47
46
13
0
26
8
-11
-7
-17
22
-7
-8
-6
6
-11
9
19
35
24
18
22
-6
25
28
25
57
13
32
41
18
32
41
17
-14
13
23
29
6
-6
31
-14
11
36
53
-5
28
26
14
35
-26
-42
-29
10
3
26
7
-27
26
17
30
0
15
41
2
7
-15
-2
-17
0
-9
-13
-27
17
46
118
115
46
6
23
40
76
-3
26
37
25
27
16
44
47
17
23
5
43
42
37
-4
28
-14
11
4
26
18
1
5
-64
1
-36
-12
19
1
-69
-19
-19
-6
-29
-7
-9
17
-6
-22
-22
-4
7
2
96
53
9
5
-19
49
26
34
-26
-19
-25
2
10
-4
33
11
22
10
6
22
23
9
-20
20
10
4
15
17
-23
-39
-29
11
-3
-34
-2
-39
14
12
10
52
24
-23
-28
48
36
7
-13
-1
-30
-13
2
18
44
1
28
3
-4
38
-38
-31
-6
-6
15
33
45
16
-51
-28
-17
-34
-22
28
4
-3
-1
-28
-29
-19
65
50
63
44
5
29
41
44
38
3
-3
21
30
30
3
20
-22
-2
-12
32
16
39
59
29
37
-24
-15
3
-11
22
-28
-59
-35
-6
0
29
35
-43
-30
-3
49
12
-27
9
13
-39
-32
-36
-63
-40
5
-40
30
24
-1
-32
-11
-1
13
13
-45
-19
11
2
-3
1
9
29
30
-19
-12
16
34
41
72
-9
-32
-32
-7
20
-9
-28
-33
-16
-56
10
27
21
-6
22
10
37
40
10
-25
0
-13
-1
3
8
4
-33
-86
-27
-9
33
-20
-16
-28
10
59
25
-9
2
-6
-9
27
32
27
12
-4
7
10
-13
-15
1
-34
-10
-31
21
39
60
13
-22
-11
-12
-13
3
34
30
19
2
45
1
7
1
12
-14
0
-28
36
68
38
44
6
37
26
29
11
36
10
25
20
40
46
-12
-26
-8
14
9
22
49
12
10
3
1
78
-15
0
27
49
63
22
33
-1
39
15
13
34
36
30
-3
-4
17
19
-2
25
25
32
48
-1
33
27
47
20
-47
-25
5
7
10
-24
-21
19
24
17
7
21
-13
-5
3
16
26
-27
-35
-8
0
68
83
37
26
-22
-9
38
54
-23
-10
-11
16
-31
-32
23
-8
-18
-14
8
37
22
-6
-63
-65
3
7
-22
-2
-65
10
51
17
25
43
3
-12
11
63
18
18
28
23
-7
8
0
101
101
40
11
-27
33
68
50
31
-21
33
31
-7
6
-3
19
14
13
22
51
19
-12
-47
-4
27
14
30
11
-2
-6
6
-8
2
19
61
68
31
-17
-26
-60
-37
13
43
-17
-8
-27
21
3
-14
29
23
8
27
-12
37
20
-15
33
25
-54
2
-41
-4
71
-7
9
-8
38
27
1
22
32
24
36
14
41
25
-3
-2
15
9
25
17
37
29
24
12
-13
25
-24
18
14
-11
-8
-14
9
-21
-14
-11
27
-18
5
2
-12
20
46
28
25
26
44
8
7
10
32
23
30
-16
-31
-3
-40
-2
-7
24
-39
-2
4
11
5
6
25
24
25
39
15
16
-1
35
75
25
-17
-50
-18
48
-41
-16
-20
-2
-17
-15
-7
28
-9
-17
16
11
6
59
-13
19
-18
-3
44
3
65
42
57
57
-18
4
10
27
20
-11
25
37
10
3
-10
37
49
35
-35
12
-13
24
45
-47
-2
-13
23
-40
-78
-16
12
0
-33
-14
13
22
-6
8
2
-19
-26
-6
-37
-34
-6
6
22
-3
-47
-9
28
25
48
1
28
-18
-26
22
56
4
3
-13
21
3
-14
22
-52
-9
-44
-7
18
-8
4
39
-33
-1
7
27
55
1
34
-20
10
33
-25
-1
30
28
7
-28
-8
-33
-10
-11
24
4
33
20
-9
-7
-41
-18
-31
7
41
-7
-28
34
28
23
-37
8
-9
-11
-2
13
-12
6
-19
-30
-23
-10
-28
7
0
-11
7
-45
-10
-6
-2
49
30
19
24
39
-14
-13
5
41
-30
-9
-7
-11
-16
10
-23
-10
39
30
25
11
18
104
47
17
26
38
88
27
13
26
39
-8
13
3
61
33
0
0
4
35
-12
-10
12
28
10
-13
-1
-3
35
10
-5
0
36
57
5
5
-19
0
17
12
12
33
41
-25
1
-2
44
58
0
21
-44
-17
22
-19
-3
-33
6
19
-1
31
52
19
26
-15
33
-37
27
14
15
-23
-24
24
2
-20
-72
-21
18
7
21
16
35
-18
-47
41
10
9
-11
33
21
-16
3
-32
47
-37
-26
-62
-41
36
23
9
19
13
2
12
24
-8
11
3
-27
9
-19
30
11
36
-19
-34
16
2
29
67
31
18
21
47
57
-12
18
22
-3
-7
-6
47
40
-14
-11
48
1
-28
-29
-10
-32
19
-1
-21
49
24
2
18
1
22
21
-3
-50
13
-33
42
19
-31
-41
-5
5
-3
11
-7
-30
-14
-17
18
-13
43
26
33
20
-2
32
10
31
5
-15
8
23
40
44
-56
19
14
12
-25
-6
-53
-45
-32
0
-19
-29
25
24
43
25
82
2
0
21
28
46
8
1
29
-22
18
33
4
-21
3
32
88
19
-57
21
-25
37
10
24
36
-9
16
17
12
74
20
-15
14
5
32
20
-10
15
-25
12
-35
-19
15
28
-9
22
2
30
4
21
30
-19
4
-38
-45
10
46
43
-12
-79
-23
20
36
3
-22
-23
-19
17
5
-28
-18
-19
27
38
7
16
29
36
7
18
63
28
27
31
17
19
18
23
12
39
-2
38
57
16
18
53
61
0
-22
2
34
9
-19
-3
-17
-34
-6
12
1
-12
14
-18
30
3
-10
-14
-54
20
36
-20
23
-10
17
-21
-64
40
-1
10
-29
-29
-28
0
40
19
0
-3
12
8
16
17
19
31
24
-11
26
72
-9
-38
12
32
-11
-17
-13
5
-3
-6
-7
-5
-21
52
-7
3
-7
23
-4
80
67
19
20
16
-18
-12
-9
12
-29
-5
-13
-3
5
14
16
0
-57
12
33
13
39
-9
10
39
28
18
-4
-19
3
24
40
-81
3
-1
10
-5
-39
11
9
7
-37
-33
-33
24
-11
-10
-22
-21
6
-27
18
-8
-5
-9
-42
-13
47
29
34
32
30
30
26
27
46
40
14
-4
-50
0
3
-44
4
8
5
2
12
29
44
-2
18
-1
18
72
43
-3
12
13
61
39
23
4
15
-11
7
-29
-8
-5
26
32
9
19
22
45
93
-15
-51
-12
10
-12
-60
27
-23
9
-66
-8
-14
-6
35
11
44
11
26
-14
22
16
-5
13
26
-21
-5
21
34
59
34
16
14
14
41
34
3
50
18
30
5
-10
-21
30
-2
7
26
-24
-6
28
-40
-24
17
5
27
-26
-20
-27
15
-58
-30
-23
-22
-27
-15
-7
-1
3
7
18
-14
8
-26
34
-8
-8
-30
32
14
9
-3
23
34
50
22
31
-8
6
68
69
-1
-12
-7
-13
26
-14
38
17
-4
-17
-41
-8
-9
19
17
-72
-18
6
15
-12
-29
-5
-19
27
20
11
20
-11
-15
30
-3
4
-3
-28
-16
29
28
-36
27
-4
-86
-25
58
20
16
-80
18
-23
-20
-2
-27
-25
-5
30
-26
27
20
40
25
-20
56
36
31
22
-43
-30
4
-11
30
-22
-6
43
46
-31
-72
24
37
26
35
45
-23
37
-3
-16
-7
-36
59
-12
-17
52
38
9
-10
-1
56
55
0
20
44
11
-6
-11
-1
-26
-14
17
2
-7
-8
47
-10
31
4
-9
45
-20
-100
-14
-2
0
-66
-85
-15
26
-7
35
20
13
14
-46
-2
12
-1
22
-20
-8
-13
20
35
-11
8
68
52
-5
-3
20
-3
-6
-1
47
17
21
10
31
25
-16
-10
-17
-14
47
-22
-17
27
-10
8
-23
-3
27
-2
45
19
-25
-18
28
39
31
-1
32
49
31
15
-28
-3
33
10
-5
-4
23
15
-4
-5
40
55
-10
3
-12
-11
33
10
-14
28
38
11
-19
10
9
-3
38
-34
19
47
-13
22
1
-7
66
47
-1
34
37
28
52
33
-20
14
31
30
44
27
52
32
3
-17
-5
-9
17
-10
18
-5
-28
25
89
40
21
0
42
98
46
27
31
16
-6
-6
9
14
6
-2
5
14
7
9
6
42
30
20
-39
-20
-12
38
29
-70
-22
1
15
-3
4
-12
-29
-35
-27
31
-7
-8
-2
-31
11
26
42
-18
-18
-35
-8
-9
-16
3
-47
0
17
-23
-11
-32
12
16
20
-3
20
-10
5
34
52
-50
10
55
12
7
19
56
13
-14
10
64
-7
6
6
42
41
40
-14
-6
-7
14
31
1
37
-15
-2
-9
32
32
-12
44
47
35
13
-34
12
48
5
3
-45
23
-19
-10
-12
-15
-9
-20
-48
-16
-39
-43
-26
27
47
-14
-20
1
25
11
5
55
23
-16
2
38
59
9
-6
-8
6
19
62
18
51
-26
38
3
15
-2
25
-1
-2
39
27
-32
35
13
-9
11
-37
1
-21
-7
-38
-43
-7
-7
-5
-42
7
-32
-45
-30
-15
-14
-19
19
64
1
-18
-3
-19
-20
-9
-10
27
-28
-46
-11
-38
2
10
-17
-53
-16
-13
-13
-13
-30
-15
-40
-20
7
40
20
-4
32
33
1
-26
1
15
24
-20
-15
41
21
25
-11
-24
52
11
76
-6
4
23
15
16
3
-30
17
2
-4
-7
-21
-2
20
-33
-6
-35
14
-14
33
63
12
-20
-31
-25
12
26
-16
21
-23
2
-6
10
-27
23
18
27
5
16
7
-46
-9
-3
23
19
-37
-20
20
21
-16
-11
-13
-25
-12
-1
25
42
-5
-12
7
15
11
-16
21
28
19
14
-30
-26
-30
39
-6
-31
-4
30
53
12
-28
38
36
12
-10
-9
-7
-23
11
-32
-5
-1
-2
53
31
-25
-11
-26
10
-2
-38
-10
-54
-2
50
-7
24
26
34
-14
40
0
-17
-13
16
-35
-10
18
34
42
-10
26
13
22
-6
1
-6
50
9
-7
21
21
36
19
-7
26
8
33
-13
-11
-3
37
19
37
67
6
63
57
56
35
58
75
39
-9
-13
27
52
-11
6
33
6
40
25
-8
-2
-17
16
-9
58
77
-1
11
-7
30
40
-28
-7
26
15
-4
31
41
49
-17
-4
35
0
10
4
-37
28
20
-13
-30
6
30
4
4
-29
-2
19
11
14
-6
20
3
-9
11
17
47
-20
-32
0
53
24
19
-23
-16
-61
0
-1
-37
-20
-64
6
42
-45
31
-18
-12
-23
27
-15
21
27
-29
6
17
2
3
-9
-5
25
27
41
38
20
32
33
10
49
62
47
16
-13
24
44
11
-20
13
-2
2
-27
21
33
33
28
-36
-49
27
24
15
-23
-12
-11
-26
-5
-7
-7
-2
30
-52
-4
-39
-20
-23
-69
15
-9
-26
-4
13
8
-6
-1
25
-8
5
-39
23
41
43
62
57
55
42
11
-1
-4
50
55
-3
-6
13
33
8
0
-14
-18
-8
10
38
-32
-36
-23
9
36
8
-19
14
-12
13
25
12
13
2
-17
-4
12
23
-1
0
17
19
-13
17
24
10
33
13
75
77
44
42
46
55
3
35
33
15
-25
-14
-22
18
34
-1
27
31
7
-12
-20
40
62
19
-16
45
44
7
-6
47
61
51
21
11
30
2
20
2
-1
3
23
66
57
46
33
-59
-24
0
-7
17
-33
-26
-59
12
-12
19
2
-29
-21
5
8
22
1
-8
7
-26
-53
-23
-42
-40
45
13
-1
-6
6
91
26
7
10
-15
2
12
73
58
6
-32
-18
10
13
47
57
60
49
29
74
46
8
-20
-1
-2
16
35
-33
-26
-3
63
51
-3
4
29
37
18
32
3
16
-17
-5
-5
0
-24
6
65
12
20
-1
65
65
41
30
55
-9
-17
-4
11
-2
0
-14
2
-11
-8
-29
-26
13
22
7
34
26
41
10
1
26
33
49
51
-15
8
-29
24
13
8
40
20
-31
-10
-28
8
21
23
-2
-18
23
27
-8
32
30
27
22
0
14
37
14
2
12
24
18
-1
-5
-20
7
-26
1
10
-19
0
26
-26
-17
-26
-16
-18
-38
-29
-9
-38
-9
15
-19
-2
-17
-32
17
42
34
19
-31
-47
-17
-23
-22
13
-6
-21
30
3
-5
-16
-19
11
-1
14
-30
-50
-13
17
-4
-1
6
33
-1
-17
41
-14
-38
8
1
21
-12
-31
6
5
48
4
-29
-19
15
35
20
-2
10
1
2
36
39
38
34
15
17
16
46
27
-35
-46
-16
15
3
23
-22
-18
1
27
46
38
29
32
6
17
22
30
50
8
15
21
40
61
41
46
6
-22
15
62
16
1
10
15
-9
-36
-20
9
-37
-22
-9
25
6
-13
5
12
-48
-77
-26
-24
-25
-38
-22
1
25
-28
-28
-3
1
13
7
-21
9
12
14
-12
2
12
52
2
19
-18
13
-21
-16
35
18
-13
12
70
0
38
3
-8
17
-8
-14
-4
31
10
-52
-40
9
-5
-29
8
21
17
-11
-13
-10
33
-38
19
-13
-46
0
25
19
10
26
11
-3
50
19
-10
12
56
39
28
-11
26
-10
-50
-77
26
20
-7
-60
29
15
60
-12
21
52
-43
12
-1
33
45
-5
-22
-5
29
-5
5
29
-8
-25
-71
32
42
-24
-75
19
77
42
19
13
56
33
38
13
28
47
-21
15
15
29
10
9
10
27
-21
-8
12
32
8
-29
46
-5
-11
6
24
53
35
-26
1
45
12
27
-2
-2
-20
-46
-3
28
-13
16
1
26
-37
11
64
28
-25
-7
-12
11
-3
-1
38
-5
9
-8
23
29
52
-2
17
11
12
31
16
-32
0
21
49
7
-6
18
36
7
-21
-8
3
-12
-28
-17
26
-9
-9
-37
18
38
27
67
-17
-85
-41
40
-9
-56
5
28
17
18
-28
47
7
24
14
53
65
-20
-17
19
17
17
-28
28
-21
34
25
18
8
1
-24
40
-16
-1
-27
-17
-22
-20
-24
-12
30
34
1
-42
6
41
-4
26
46
38
38
3
67
0
-1
17
27
46
-2
-17
15
11
7
-15
-8
67
18
10
-30
4
17
-14
-19
11
20
-21
54
82
-24
23
43
14
-3
-14
-14
25
29
-7
37
31
-3
-10
-27
52
27
9
1
37
30
45
-30
-2
44
12
-33
-55
-34
1
12
20
4
-9
-7
-8
23
77
33
5
24
41
70
24
18
-19
-11
-13
23
-2
-2
40
33
-18
17
37
37
9
36
37
23
23
6
-14
47
-2
-12
14
-2
25
-9
36
-30
-57
-24
-6
4
-6
-7
42
4
42
48
15
37
36
-14
-6
-14
-33
-33
-30
33
21
-20
18
46
-3
57
64
19
-4
9
94
4
-24
-10
8
28
-18
-23
15
39
-19
-31
32
30
-13
-23
34
-29
-34
7
-56
38
-2
-12
-8
-11
58
-2
-30
22
12
40
20
10
24
21
11
38
3
25
27
-25
49
0
-10
14
6
60
31
34
-25
41
22
53
44
16
69
-49
-25
13
3
11
-14
-82
-12
54
-13
15
16
-6
5
-5
22
55
28
-3
-6
-13
-15
-35
-13
12
73
64
1
31
78
-13
-40
47
62
58
-1
16
16
11
-21
23
55
55
-21
-2
-2
26
17
20
52
2
-2
-2
8
72
0
-32
2
42
44
-2
-9
-13
19
-21
9
43
46
-10
-58
22
15
-22
16
9
-15
29
15
20
80
-55
-24
-14
5
8
22
12
-12
11
7
-6
17
5
-4
-25
4
-2
67
28
-23
41
-16
-25
60
9
-4
24
-23
12
-40
-4
31
-3
-19
12
-4
16
30
-8
-6
-7
20
23
22
22
67
64
64
-9
41
18
0
58
-20
13
38
51
29
25
55
41
20
4
1
8
55
65
14
32
19
22
-25
-25
-4
8
-30
-31
2
-58
0
-37
10
17
-15
-118
-8
12
23
-25
-31
-9
4
-3
-22
65
18
29
-17
28
38
-22
-24
29
58
-5
-20
-39
16
-1
-17
-26
0
0
48
34
-28
2
23
-24
11
-17
-8
39
14
3
-19
-37
-21
13
35
1
12
51
-16
5
-10
-9
-27
27
27
-4
17
19
13
-23
0
-20
-60
12
-24
-65
15
20
-15
-35
-6
-12
19
13
34
-18
-1
-23
-2
17
3
-28
0
-21
-44
25
4
-1
17
-35
43
49
-8
6
25
-36
-21
0
11
21
-35
-30
11
-17
27
15
-15
-29
-8
-23
6
28
7
29
-41
23
55
44
78
16
27
41
-19
25
43
23
26
14
8
14
28
13
9
10
21
41
19
5
23
18
-9
30
-3
10
44
-1
32
4
2
34
0
21
8
24
-9
33
-5
36
52
24
37
11
-3
77
2
20
5
34
28
-19
11
37
35
42
59
16
-21
-25
26
116
20
-6
8
32
12
8
7
2
6
-86
35
-4
56
-37
-23
43
2
-8
-32
-20
-18
-23
-14
-4
-3
-14
-6
8
35
55
4
47
21
31
31
-12
23
33
67
-24
4
-10
-1
45
27
40
61
6
15
43
32
44
-46
-39
-21
-3
-50
-25
-7
-25
-23
-50
-30
-3
-3
-13
-5
59
43
-33
-39
-7
24
20
29
-40
-6
-34
8
23
0
2
15
-15
9
28
50
-24
-57
8
-18
12
-2
-36
-42
8
34
5
-43
29
-4
-10
-2
-20
14
-13
8
-11
-11
30
27
18
-30
-50
-7
-29
-51
-53
-46
-12
52
41
5
13
45
35
26
-7
6
1
17
22
7
6
-46
-67
-52
-24
-13
-43
-15
-15
-31
-9
0
-15
54
37
54
37
21
8
20
42
10
-23
-35
-6
-10
-13
-4
-2
29
10
-1
-27
49
23
41
-17
25
-1
-15
-17
27
-40
-22
15
7
-22
-4
47
4
-14
49
53
53
-24
-35
-3
10
-25
-47
-19
-45
-11
20
39
56
-15
37
31
-13
-3
-32
-15
-17
-22
-33
-20
23
11
-18
-19
-26
-4
22
-22
-6
17
44
-7
-19
-35
6
12
-1
-40
2
-45
9
0
35
21
28
-16
14
45
42
64
22
1
35
-11
-13
66
10
3
-34
-13
23
7
-14
-7
28
12
43
18
23
50
-35
47
30
-6
30
32
27
20
1
-17
26
-13
-36
-5
18
20
-4
8
0
10
-41
-37
-5
-14
-18
-16
15
9
51
49
23
41
30
42
14
-24
18
26
45
-5
-3
-17
49
38
3
-16
35
20
52
18
-1
-2
-2
39
-3
13
30
11
-18
-17
26
-16
-23
-35
-5
18
15
-27
22
25
31
1
42
23
25
-4
-35
-3
51
71
3
19
24
32
22
21
-11
32
20
38
6
-2
-9
7
-13
19
-19
-11
-14
-19
32
-9
-45
-39
-20
13
2
-36
-29
-8
-12
43
66
25
48
-7
-1
-13
39
16
-16
-22
7
-23
-5
11
-43
-13
12
21
41
70
40
2
0
11
-35
-33
-10
-72
-29
-43
28
31
-7
-28
-24
21
-12
43
9
33
17
43
26
-20
-1
101
91
17
-66
16
66
65
21
-6
12
37
18
7
29
40
1
1
8
79
37
-4
-10
-11
13
-46
-21
14
-11
8
3
23
-2
2
21
32
29
23
3
6
8
54
21
0
37
-18
-5
-11
-14
8
-16
-11
22
-47
37
62
40
27
30
35
6
-3
6
67
-16
18
43
10
0
17
13
-3
26
35
-46
-51
-40
-38
-47
-14
1
42
-23
-11
17
30
-24
-20
16
-6
21
74
30
-17
-5
19
28
40
-17
-9
-56
-58
-56
-61
-35
-28
11
-12
-28
16
33
7
-5
25
-13
-19
14
63
1
24
45
72
41
-30
27
24
40
17
21
-6
-2
-3
-44
8
6
17
8
14
33
-4
21
5
10
29
17
0
25
28
-2
-49
-18
-31
-41
-41
29
20
53
40
26
27
38
-17
-12
48
15
22
12
-36
-22
5
16
37
28
-35
18
2
5
-33
-14
24
21
-18
-2
-24
17
23
35
38
-22
17
-26
-1
18
19
-15
9
43
7
39
5
-10
13
-38
7
12
51
-1
-15
42
35
18
-19
13
21
-24
76
78
-16
-56
-21
-34
-2
19
9
-7
-4
-13
-8
-25
5
20
8
20
-9
18
-23
-10
-31
-21
-35
-15
29
19
1
-19
9
-23
18
24
-18
31
56
47
41
26
0
15
7
-14
-3
-34
17
-10
-5
-14
47
10
-52
-36
-19
-52
-7
-10
47
51
63
5
49
61
14
32
6
21
18
25
-2
1
35
-23
35
6
-64
8
55
27
20
-2
-18
15
-18
2
46
10
43
-11
14
27
-4
-3
12
12
-14
-29
-7
-16
34
-4
1
1
40
14
-37
-28
36
33
19
-8
-18
7
9
-23
-24
-12
-2
40
43
36
35
74
12
31
10
12
27
2
15
-18
15
-33
-29
-9
-9
-52
-17
6
-19
14
-8
0
22
45
35
19
40
3
27
34
10
61
35
21
19
22
-5
-18
22
39
25
52
65
29
18
44
6
3
3
7
20
-16
18
40
9
-37
2
0
-54
-37
41
79
14
-8
-24
-9
-27
18
19
-14
26
16
-2
-21
15
50
36
-12
16
38
49
16
29
40
30
-10
-19
4
-29
22
3
22
25
10
13
-25
0
-14
25
0
-19
47
-2
-14
47
-10
-2
25
-33
31
-4
-19
5
15
62
8
-26
-2
15
29
12
38
-5
28
-4
-2
22
7
18
23
24
16
-7
-5
-5
-67
-3
19
-12
-24
-12
-34
22
-24
-13
-77
-16
3
4
-2
14
16
1
17
51
34
32
-37
24
36
-41
-40
-21
-60
-68
-80
-43
-19
-22
-61
-31
-6
-5
-52
-32
7
8
5
12
17
73
56
-25
-26
0
2
-38
18
0
-43
-37
-11
48
42
-7
-2
23
32
65
-10
35
7
19
27
10
21
13
18
48
20
21
29
-16
13
38
-6
22
1
13
-23
-3
31
-14
-15
17
-7
6
0
32
28
1
39
2
22
-11
-19
-38
-35
-11
-39
-17
-29
11
-10
-19
76
18
-9
-21
-3
-6
-29
-34
-28
48
13
-40
-9
18
41
20
25
10
-44
-12
-26
58
3
-21
-6
-14
54
-20
-18
12
-5
28
2
30
20
13
-12
-16
28
59
-1
27
1
-8
19
-6
-7
2
9
8
-11
-23
-37
-32
25
-9
7
-36
21
37
21
25
-9
10
60
-7
3
0
-25
-43
-9
-23
17
-14
-10
11
40
-11
9
8
-28
49
10
14
-9
-7
-31
-6
16
-8
29
40
11
22
21
17
19
8
4
48
56
24
39
22
26
20
-23
35
6
-20
5
22
18
4
-27
33
29
17
42
39
2
-23
-8
0
21
-18
-29
27
38
-40
-5
-12
34
21
-41
15
29
19
-3
-43
16
64
-6
52
29
29
-14
1
3
23
21
-16
19
7
25
7
4
-7
-3
6
25
9
-1
-14
-9
-33
-31
9
-11
-13
-27
-18
21
29
16
2
35
-7
22
15
35
8
-1
-4
0
-3
12
10
30
29
23
-16
11
25
-3
-9
-22
9
8
-6
-26
-52
-5
-12
2
39
3
-23
-66
18
-49
-46
-22
17
-2
11
71
27
60
96
127
1
19
55
57
120
2
18
56
39
43
5
27
56
24
50
19
27
79
40
24
16
50
1
18
13
-24
20
-16
23
-8
14
17
-34
16
78
43
7
23
44
70
48
27
26
17
-10
2
49
10
-18
-13
17
26
48
-8
-8
34
31
-26
22
11
52
-6
-43
32
11
-48
24
-3
-52
31
-32
45
24
16
22
37
1
-15
-25
-32
38
-12
-22
12
27
17
-22
-15
14
2
-9
-5
-8
-33
-37
-1
39
15
24
28
22
-13
0
15
-10
-43
18
6
-35
-16
28
-8
-54
6
71
7
9
55
70
14
-42
31
31
9
26
4
12
31
-11
-14
-23
11
-24
11
8
-35
39
3
6
6
22
-6
41
15
-2
10
4
16
-14
0
3
36
-8
-2
39
39
32
-4
-2
27
53
-36
9
10
4
-22
-3
-33
-24
17
4
31
30
-5
8
-31
26
42
-1
-44
21
10
7
-20
11
13
41
35
-34
38
36
35
2
34
58
44
-6
-1
6
63
15
-9
38
-2
29
30
8
12
23
79
28
-24
-10
13
-26
-62
-6
35
-37
-10
-24
-34
-53
-10
39
54
-53
23
34
0
37
23
20
-22
9
-3
9
-16
3
1
-23
51
19
-42
-22
-17
-31
-17
-1
41
-2
-4
28
23
51
25
-33
-8
25
59
-4
-9
56
75
4
3
58
34
2
-10
-7
8
3
-5
-20
6
28
20
41
34
4
23
45
7
-19
5
30
45
3
-38
11
46
55
78
10
-15
3
10
23
39
5
11
5
32
46
29
-24
-57
31
59
-2
-12
-2
98
-36
-27
7
6
24
-11
-46
35
2
-21
-5
-16
10
-24
-2
32
-33
27
23
-2
10
37
15
-26
3
25
59
-32
-26
25
35
39
18
-14
1
12
-4
-5
-13
-24
-9
-19
38
-28
0
-26
22
-14
14
25
23
-8
-3
33
4
36
15
-26
-41
28
-2
-14
31
25
55
-4
60
73
15
39
-11
-32
10
71
8
-47
33
19
-5
-46
11
28
34
-12
-64
-56
-25
21
2
-69
-42
2
19
-11
-41
-14
33
-25
-67
-30
-16
-5
-59
-72
-10
-5
-10
28
2
-25
35
24
-20
-43
2
-1
3
17
9
46
14
14
-15
-22
18
41
-6
11
-9
21
26
-30
43
20
21
1
14
5
41
17
-2
36
17
10
-17
-9
37
-15
-12
13
5
10
26
30
37
4
1
12
-14
-3
-7
18
-16
-7
-9
2
-11
12
-1
43
15
20
-15
14
41
34
-27
15
16
34
37
-45
10
-24
-38
-17
35
-46
-38
-29
6
29
0
12
-13
-30
5
2
-9
-1
69
42
-25
-5
26
35
-30
-29
-18
7
7
7
23
62
39
36
-1
24
10
16
51
37
22
11
4
36
-3
-26
0
8
-21
-36
21
17
3
21
17
1
3
22
32
38
5
6
16
-25
-19
-22
7
37
-35
-37
35
26
-5
-21
-38
5
-21
-46
-49
-60
4
31
-7
-9
-1
5
4
7
-5
-4
-17
-45
-13
-9
6
-32
-44
1
-10
8
9
12
26
34
35
2
-5
-10
-25
66
-15
-9
-34
28
49
6
54
21
24
-52
33
28
80
1
18
36
-16
-11
-20
20
-31
-17
6
-16
-14
-19
-16
12
-47
-39
-1
10
46
-2
-30
-14
34
35
-5
9
2
5
23
14
12
-33
-4
-27
1
-18
25
-20
-7
15
9
-17
9
6
11
0
0
41
-2
19
10
-29
22
39
1
-13
22
30
61
6
-30
38
23
-3
7
-7
43
29
-41
16
63
41
36
6
-14
74
13
12
44
58
40
1
-9
28
-8
16
-6
19
-51
31
23
-1
39
10
38
9
8
59
13
11
7
35
33
29
-13
15
26
16
-5
1
23
0
-24
1
39
31
-25
2
13
26
40
-36
-17
-19
2
-15
20
-36
-38
-11
-9
35
6
-21
20
24
-3
24
11
71
36
-17
22
-13
1
-14
11
-16
5
-2
-29
7
-21
28
-15
-45
22
53
-14
7
-56
39
21
51
33
-18
-4
-4
80
-28
-34
41
-4
1
-6
68
53
57
33
15
14
25
34
7
11
18
-46
-26
25
28
28
11
33
25
51
15
45
36
14
9
-48
-7
-23
17
33
-6
6
-26
-66
-27
-50
36
15
68
15
19
64
-1
21
0
47
41
40
11
-17
18
-5
2
-5
-11
12
-34
0
13
-6
-1
58
16
12
-4
7
-29
-3
81
-10
-44
-26
-3
1
15
-20
3
-19
6
36
27
-17
-25
-15
-5
-35
38
4
-4
-30
0
40
45
80
38
0
18
57
40
13
39
0
22
28
33
20
-45
-27
38
30
0
4
2
-76
-55
-89
61
11
43
80
-10
74
34
40
24
12
-15
2
20
12
12
24
21
65
2
47
19
-21
23
-1
-22
51
6
23
-10
6
70
13
-20
-20
26
2
2
12
13
21
-32
-28
10
11
-30
33
-20
-57
-34
-6
-15
-13
29
6
-3
-28
-14
43
44
32
-36
-36
-16
6
-34
-32
-7
46
8
-7
-11
19
-14
29
-8
12
90
22
28
24
44
31
17
35
14
24
6
19
72
44
16
-11
-21
-14
0
44
27
-13
77
16
-2
-12
47
-1
-4
8
3
-25
-20
-27
0
10
-17
-1
-2
-4
20
-26
-49
0
31
44
-3
-6
31
-4
-5
4
4
-26
-41
-24
12
21
-12
35
7
30
38
32
16
40
-18
-33
-22
16
29
28
66
37
37
25
34
5
37
35
1
5
11
20
16
50
21
-18
-11
32
55
69
26
45
-35
35
29
15
20
-37
13
-38
-7
-15
23
-16
13
-20
-9
52
40
-4
-8
33
43
6
-21
4
1
33
-1
22
24
-3
-1
-47
-8
-19
4
7
-53
-18
-36
-32
-28
1
-5
-19
3
-12
-18
9
7
15
-16
19
18
-4
-9
45
-3
22
-17
-15
18
44
47
-4
-2
-12
7
10
-18
-2
-13
3
1
3
-11
25
-45
-22
-20
-49
35
30
30
-36
21
24
57
36
-35
4
-12
-16
-15
-17
-30
51
54
-1
-25
-35
44
18
55
37
81
20
22
3
-7
20
-33
15
27
12
-12
15
34
10
-3
-2
25
-1
-15
-29
-6
35
0
-31
-40
-21
32
-38
-35
-41
5
-25
-21
-46
-27
33
-3
18
-7
11
-20
20
37
39
16
34
1
34
22
-18
17
61
20
32
42
33
-41
-57
-8
20
5
-9
-21
7
23
-3
3
-47
1
30
3
2
31
-2
-16
-4
-27
12
47
52
85
-6
27
27
-6
71
-7
-5
23
2
-54
16
-4
22
13
-25
6
15
10
-11
-2
15
72
71
82
100
-14
-1
54
57
47
-6
-13
18
-20
-47
18
-34
-23
-11
6
34
55
43
12
-17
37
40
33
8
40
31
-8
24
36
25
-20
13
13
-22
-3
-22
19
50
-25
34
19
29
23
-17
6
14
25
4
-29
-53
45
-4
41
62
9
-10
1
15
-5
23
-33
14
-6
-17
19
-1
-9
26
18
16
23
15
18
62
21
2
55
31
-2
24
3
-31
8
1
24
-7
24
3
14
12
-20
11
-12
40
20
-3
10
-13
-5
17
-12
14
-17
5
54
17
11
-27
-15
41
50
21
29
-12
46
27
28
-4
0
16
27
30
46
55
76
-14
-16
42
17
16
71
48
2
-7
6
86
6
-18
13
33
-1
29
33
1
36
6
-4
40
69
75
-43
4
45
2
4
24
29
-29
2
29
24
13
47
36
24
45
3
-7
1
4
51
-34
3
32
-9
-45
-46
-5
3
-55
31
39
22
1
19
-21
16
-22
28
27
15
-23
11
25
-14
-18
-7
-55
-80
-83
29
-8
-55
-51
-6
3
13
-50
-38
-2
8
-20
-33
-19
-21
32
3
-9
-28
-7
22
-5
-35
11
-5
29
-1
-36
-32
-23
-1
1
15
27
4
5
-1
0
0
-8
-28
8
30
7
-11
-8
43
8
27
2
47
41
14
9
30
-19
17
6
17
-6
0
29
39
9
22
2
45
43
19
34
19
15
40
-20
-29
52
49
42
89
18
8
6
15
7
-8
13
18
36
35
-11
-1
-6
-22
19
8
-9
-32
14
-3
5
-60
-14
-18
-22
-11
-23
-3
18
36
-14
-11
-21
14
64
-15
29
32
4
42
-6
40
-2
11
58
5
55
103
57
32
20
-10
25
16
15
40
55
65
56
6
47
33
1
-16
-43
-4
31
45
56
20
-11
4
-5
25
7
33
-20
-3
27
30
17
-21
-30
23
-8
-4
-66
1
-32
-7
7
-12
-10
8
-3
24
37
47
-12
-15
43
29
21
13
31
0
59
53
72
98
52
2
16
31
41
49
31
36
6
5
52
16
35
47
-31
15
-24
7
53
10
2
60
43
68
42
39
40
26
62
56
28
-15
28
-27
-45
6
81
45
50
-16
1
39
30
8
17
32
-24
-5
-2
23
16
-25
18
-23
24
30
-50
-14
-21
-17
14
7
-21
-20
-5
38
-17
13
10
3
3
3
51
14
0
16
-13
-10
38
31
19
19
31
34
18
33
23
31
15
3
14
6
34
46
62
71
12
33
47
34
8
29
26
-8
-26
-4
46
9
-14
-31
-22
20
22
17
13
0
-16
16
-8
-25
7
35
12
33
-18
23
-18
-11
16
-43
-14
-2
0
5
25
1
-14
-14
-11
-12
46
19
2
-7
15
3
54
-8
55
31
17
17
-18
-10
18
40
17
31
24
31
27
2
1
-14
18
-2
2
22
-30
-55
-43
-7
7
-23
-23
-12
7
-4
-9
6
9
15
39
-14
-22
-12
-12
-20
-48
-13
42
-13
12
7
-13
-7
-30
-57
-80
-7
-12
-3
-5
15
8
-15
-46
-72
-20
-15
-6
-7
-18
7
25
8
-28
-10
1
-45
-67
-5
-8
16
-39
17
-12
-9
-6
37
18
5
26
14
8
13
-13
-5
-12
11
54
0
51
69
48
10
36
34
20
8
-3
33
52
5
-24
12
15
18
-11
25
-9
51
49
22
-8
14
46
49
52
42
12
-8
95
67
31
28
-5
4
-19
66
-1
18
8
-1
31
19
42
37
13
38
11
25
53
8
-7
-4
-46
-26
-34
11
-16
-84
-26
2
41
-11
-12
-1
-10
-16
30
-20
-30
-43
19
20
5
-21
62
39
-21
-16
-18
72
10
7
6
46
33
24
6
-16
47
11
37
18
0
43
46
29
11
-22
-22
6
19
-8
-16
-51
-36
-15
-2
-47
-10
16
3
30
11
-25
-40
20
29
-36
-11
-8
52
57
-31
40
37
-15
10
29
36
-56
12
-84
-12
8
54
-41
-15
33
9
-26
-12
51
43
83
30
27
37
-30
-14
-1
-23
-41
-9
-41
-59
-76
-44
-7
-31
-3
-28
8
-26
-7
-18
-14
38
44
47
29
61
47
18
11
1
-14
-15
-50
-28
-53
-26
-8
-19
-39
-42
28
4
-82
-38
-47
15
23
-31
6
37
75
65
23
-10
2
3
-9
16
90
12
50
32
53
14
-36
9
0
-5
18
4
-21
3
-27
-39
-3
-8
31
12
-6
3
27
6
-7
-41
-6
-50
-28
-24
7
12
-42
18
-1
35
20
-16
37
39
97
40
40
20
-3
-17
-2
-21
-47
-20
-7
58
20
-1
-25
14
-7
-18
-31
-8
-39
12
-14
-16
-14
-13
-1
-4
16
8
-20
-17
-10
22
27
2
-22
-5
-9
27
35
-23
20
46
28
54
66
45
65
41
48
75
34
-4
3
-19
27
-17
21
6
-14
-14
-13
-3
-12
11
51
-32
-29
20
48
48
-1
37
-7
68
54
-3
-21
-4
14
6
8
9
28
-40
-14
54
19
-24
-7
23
43
36
-18
32
68
59
21
-10
-41
26
28
-3
12
31
37
38
36
41
32
89
76
43
42
9
11
29
16
36
32
31
-9
-10
-21
-2
-12
-48
-4
47
33
-18
31
34
3
-9
-56
-49
-29
15
-22
-40
17
2
19
1
24
20
50
21
11
-23
-3
21
-28
3
-39
-20
11
-23
-10
-18
-22
-21
-43
-3
-4
11
-32
-47
-14
9
-12
-27
-6
-28
-4
-10
24
5
20
-29
-27
-6
24
-7
-28
32
9
-24
-7
-16
-25
2
-39
7
-39
-16
12
-6
-45
-21
58
2
4
29
34
22
-16
83
8
10
45
-9
37
19
23
-4
28
37
13
52
-19
-32
29
3
-20
-14
-48
17
53
9
18
14
5
5
-15
-3
1
-7
11
17
36
-23
50
32
29
-12
47
33
55
-15
4
72
29
-18
4
32
20
28
-5
9
3
47
-26
37
8
-3
10
-10
-16
-28
-4
21
-12
18
-10
21
-7
0
15
41
41
-45
-12
-4
-39
-2
-80
-43
16
33
3
26
13
44
-2
0
42
25
38
34
8
16
-7
6
-9
-28
-63
11
2
-17
-14
-16
-42
11
-7
21
55
-22
-6
-10
-6
43
25
22
3
11
21
6
13
20
1
-39
14
-17
-17
-36
-34
10
10
-1
24
34
-22
15
3
-5
65
-63
-49
-21
1
40
24
23
-4
-35
0
2
59
4
-8
26
32
32
-42
-28
43
2
20
36
21
39
-7
9
0
34
4
16
11
14
-2
-16
-26
-15
-17
-39
-47
-37
30
50
19
27
-6
-19
45
21
23
55
28
-17
-9
-22
23
27
40
57
22
26
49
79
56
23
39
20
8
-6
-65
3
-13
24
8
-32
6
-41
-42
-35
0
-17
1
-37
-70
-31
15
-33
-47
17
3
-7
23
9
1
65
15
-2
5
38
65
4
-2
22
44
17
-15
-20
9
-19
-30
-26
-30
17
3
-11
-23
0
56
40
16
24
-11
-12
13
19
-30
33
46
9
0
-3
1
2
-3
-5
-39
-24
5
69
69
-23
29
25
-3
10
-13
-50
9
-18
16
-30
8
16
30
1
16
8
-9
36
47
-8
38
22
14
11
25
-30
5
27
-18
39
30
6
5
-40
-12
-16
-1
-6
5
1
5
-23
-38
-15
-12
-37
-44
-48
3
-9
26
2
0
13
-3
37
1
48
41
23
45
30
62
66
23
40
26
22
6
35
44
4
-21
-12
14
16
5
-18
-50
-22
11
17
15
2
4
-31
-27
-7
-8
14
13
23
19
36
19
8
3
31
15
8
42
-13
-14
28
-18
6
-11
13
13
-12
-33
-49
5
25
-3
44
19
17
28
-15
15
11
30
70
19
18
20
-13
2
2
-3
-41
-14
-28
61
11
31
21
-16
12
-2
39
63
-7
-20
3
-11
26
6
-30
-2
4
27
8
16
74
53
21
31
11
44
25
23
24
-1
5
27
19
57
70
21
5
24
-28
36
53
-24
-4
-3
-17
58
52
0
40
100
52
32
5
-9
-17
-9
20
-2
-7
-33
-55
-7
17
-50
0
-3
-12
6
10
-20
10
-36
-3
-7
3
-10
34
27
-32
25
58
27
13
5
12
-19
-7
-6
-15
21
4
-15
-8
7
5
31
-11
4
5
32
7
12
48
0
19
56
51
-11
-21
35
71
31
47
18
5
52
45
-19
-30
69
38
7
-17
-14
71
53
36
6
8
2
40
-29
-2
22
-28
-20
-19
-37
52
-24
-3
-1
-17
38
3
-4
-23
9
10
3
-3
-35
0
-12
34
19
17
11
22
-9
-14
34
12
-15
32
-28
-15
59
-7
4
3
-22
56
-5
1
-8
48
-9
26
41
30
79
59
55
11
39
72
15
-16
23
14
2
-3
-22
23
49
43
18
8
25
57
21
-7
6
50
38
11
-28
-28
30
-21
-2
-22
-17
19
24
5
22
-23
45
19
-22
37
24
16
-13
-27
43
3
-16
-1
58
24
2
52
-19
5
32
-12
45
41
-21
15
21
16
14
-13
1
20
64
25
11
57
6
38
61
27
2
-3
10
49
31
-15
12
49
58
9
11
0
47
25
12
29
8
33
0
-3
-11
24
15
-36
1
38
42
22
3
-12
12
28
-27
31
24
18
42
-1
-46
0
22
-6
-39
-16
-1
-24
0
-28
-12
-70
-12
-9
-17
-2
-29
-19
-33
12
29
11
-11
27
-17
-2
-17
-1
28
-4
18
26
11
-3
12
-6
7
-6
40
-5
29
-11
-6
9
18
-11
-14
-21
-1
4
15
-15
-11
-3
29
19
12
-12
33
-1
25
41
18
24
-34
13
25
17
66
1
-31
14
-2
24
33
6
8
2
-11
20
28
0
-15
22
6
-4
35
68
75
-26
-22
4
12
58
0
46
2
16
15
9
24
-17
49
2
-3
-24
-20
-6
-14
-65
-41
-50
-11
39
-38
-16
-31
2
20
-46
5
-20
-31
31
-35
-53
-23
3
-2
-6
-27
-27
24
-4
4
-14
-12
11
38
57
58
102
40
100
17
4
-2
-10
-12
25
39
22
-15
-12
-11
12
7
-29
-7
-3
-39
-31
-21
-40
-30
30
-44
-28
-5
-64
-2
-5
25
30
-5
6
18
26
15
3
0
-14
24
46
-15
6
12
-12
-36
58
49
-2
9
25
16
83
46
17
52
12
-5
0
-9
33
-2
-10
-10
-16
-12
40
-13
27
-22
-53
54
31
13
32
32
85
78
57
69
37
-9
7
17
4
-14
12
-2
12
4
-4
-8
13
-22
5
22
-60
-49
-28
25
69
3
-2
-28
2
24
-12
-16
3
10
-18
-9
-20
18
-12
-25
-10
-14
27
-7
-11
2
28
11
-28
-1
19
41
24
11
13
3
4
31
23
18
7
4
-1
-4
45
24
47
37
12
28
32
59
1
-7
29
48
35
20
-20
-5
51
19
-7
-3
1
-4
14
-6
2
-17
16
4
-52
-35
-7
31
26
46
21
34
20
-5
-2
-4
-2
0
-39
6
30
2
-28
-27
-26
19
72
26
43
44
20
-27
33
68
56
1
-10
3
20
9
9
8
-14
2
28
-3
26
-14
19
12
-13
29
8
2
3
32
8
44
32
29
65
15
-24
-8
-40
-1
10
4
-3
14
5
4
-2
-8
-9
21
36
10
3
32
29
21
-61
-20
-4
2
-31
-10
-43
-40
-6
-37
-16
7
7
27
26
5
-10
24
29
16
-23
-30
-14
-11
-27
-2
-69
16
-44
-51
-18
-28
7
42
-17
2
-3
40
2
-17
-9
17
37
43
31
2
22
-19
10
28
61
5
-24
4
10
58
32
-17
-4
13
25
29
4
36
-18
10
31
13
3
26
-9
-33
14
49
27
-41
11
-7
39
51
34
40
2
33
15
27
0
46
-4
-29
-5
4
16
19
-1
-3
13
41
60
43
19
-21
33
27
3
-68
-51
4
-14
-53
7
23
21
-31
18
-11
4
-10
19
18
6
-52
-19
67
24
-1
-24
-13
51
44
-14
11
11
41
-7
28
8
-12
10
-23
29
32
28
25
21
-2
-27
-8
13
75
48
38
79
44
58
41
45
-15
14
-5
-34
11
53
-12
-13
12
36
46
-5
-46
9
26
15
0
8
-37
6
5
-6
-6
-45
-8
-27
11
35
-31
26
33
8
-9
-12
-37
8
56
-7
21
30
42
0
-13
46
11
51
-23
10
13
10
27
17
19
-16
35
28
22
-3
8
-5
31
-5
-30
41
12
2
-13
-12
47
36
36
28
-1
102
46
-8
-31
31
28
6
-12
12
9
7
56
46
-18
-46
36
21
-12
-20
29
-21
-20
-45
-8
61
-10
-19
-11
-6
65
22
1
-29
-8
-9
-3
40
-15
-62
-7
16
5
10
30
30
14
21
12
-11
-4
-7
-16
20
13
-14
-16
8
29
-17
-9
-2
-31
35
-13
10
28
55
13
-4
21
9
75
-1
31
-15
47
72
-3
-22
-15
37
28
-14
-18
-13
-16
-36
11
5
-19
34
48
-28
-5
-18
37
-1
-29
-38
-8
8
-15
-3
6
7
-1
8
33
27
21
-13
24
7
30
47
3
28
24
-2
-37
35
-2
48
34
-17
32
3
-13
11
-29
-28
-33
5
13
2
39
4
0
70
43
22
-2
3
48
1
60
23
-17
22
8
21
-5
-34
7
6
21
40
-9
29
22
29
58
-28
19
22
11
-46
-25
43
-17
-33
-40
-5
13
-1
-17
-21
23
39
16
12
-30
-25
6
30
40
-25
-26
-13
58
-3
-59
-28
10
-2
-5
-29
-5
-32
-16
6
-32
47
3
-7
25
18
39
12
-4
35
82
23
-3
35
8
-19
4
-28
31
48
30
16
8
55
41
31
21
-20
-10
14
-14
11
-13
2
-9
2
12
-2
-33
21
-8
22
10
29
-10
17
18
33
76
3
-12
5
-8
24
4
0
-5
15
-36
-14
15
21
-52
-33
12
42
14
53
23
-24
-22
37
-10
52
-58
-6
5
-11
5
-7
21
5
-14
41
25
3
-30
11
21
-15
-65
-48
44
34
-7
-38
-22
42
36
-21
-7
-13
31
0
-20
-18
-12
-27
-27
-59
36
7
-11
-31
-8
33
30
-35
15
14
58
52
17
18
11
30
-15
-37
-2
36
52
16
-13
47
30
50
14
7
16
22
9
-1
-25
10
19
8
39
14
58
-2
22
-14
7
-11
-21
-12
9
8
24
-43
-73
-33
5
25
6
14
32
13
14
32
39
84
44
31
23
23
-1
5
18
40
24
2
-7
7
-23
34
15
-20
61
-1
-11
45
30
11
41
49
33
77
53
-5
13
70
-9
-4
64
71
11
-28
-3
63
46
29
-11
10
56
5
-12
2
27
-20
2
-34
-52
-25
-4
-1
0
-13
12
-8
22
4
15
24
-6
28
14
-14
18
13
10
-11
-9
-9
14
57
57
18
55
43
-33
1
47
30
-1
6
-2
49
0
-33
-51
-7
16
39
20
36
3
21
13
16
-4
-2
9
12
22
-18
24
25
5
42
33
52
42
-14
19
65
15
27
0
-26
1
0
19
38
6
2
83
-2
51
27
24
51
-32
1
-5
-64
-41
-6
17
-18
11
-36
6
44
-8
-21
41
11
1
21
40
40
43
57
24
17
13
36
36
8
-27
-44
-11
5
44
-12
-8
24
6
11
-16
-15
-6
12
-9
5
17
-49
-12
4
34
28
-30
-19
19
12
-31
-32
11
8
45
22
-2
-15
15
3
-28
14
-10
13
-39
-81
-27
-5
-35
14
0
-27
21
-6
-27
37
16
-25
23
12
-18
30
-57
-10
-35
-12
6
1
-19
35
69
16
11
12
21
48
9
9
-32
1
-41
-25
-1
-26
-23
1
-14
4
50
42
13
-18
-17
15
7
23
1
-26
21
5
5
-15
-27
41
21
-5
2
-28
11
23
2
1
6
43
34
34
10
16
20
19
3
3
-12
29
-4
-8
17
19
32
24
33
42
18
-10
41
18
3
31
-2
6
18
-12
-2
-19
1
13
-59
-17
3
36
-25
-2
36
12
-16
-7
29
35
-28
-2
13
4
-17
9
-18
2
6
-10
13
-17
48
23
6
3
37
33
-14
-8
-46
-69
-2
7
18
-51
-13
7
43
43
-51
-18
7
-4
12
47
48
29
6
22
7
29
28
-2
25
27
35
-6
10
-10
31
-2
7
-2
22
-33
-9
44
57
31
-44
-48
-15
16
34
0
21
-4
37
-5
-24
-15
42
11
-2
-11
12
21
-8
36
-25
27
34
65
36
27
26
48
43
11
26
69
54
29
19
23
-6
-14
41
34
9
3
8
7
53
42
30
62
65
42
19
29
29
37
10
10
52
86
59
22
-7
17
15
5
19
35
30
21
33
14
42
26
26
15
-10
32
1
65
33
-25
-6
9
-23
-5
-9
-16
27
10
-9
11
31
20
42
12
19
5
40
55
39
43
-13
-33
-6
16
4
33
57
20
23
12
2
-2
39
45
31
-4
13
-7
10
6
-30
2
22
78
31
-36
-23
51
68
6
-30
-2
14
9
-11
-29
13
52
20
28
-21
-13
16
21
27
-2
-11
-12
19
-18
11
20
54
2
52
13
25
0
-16
-2
40
-15
15
20
5
-11
-37
-19
18
7
9
18
5
19
42
38
-26
-4
22
52
36
11
29
74
50
32
-19
-4
26
11
-24
-9
-25
-22
28
25
20
-34
-55
-45
40
14
-12
9
-13
28
35
-9
-18
-24
16
-4
-31
-3
17
-5
-14
-17
-23
17
20
19
1
-10
6
4
-32
-32
-23
-12
-3
-46
-47
-11
-13
-17
-10
-10
-27
-10
-4
-17
-11
16
-9
22
18
-2
-82
-36
34
-10
-33
-59
9
51
21
-49
-2
-24
56
3
-16
-46
2
32
7
-20
-36
-21
7
12
66
58
12
-43
-7
32
31
-6
-10
3
2
-14
-24
14
20
17
18
21
13
17
30
1
0
62
31
57
38
1
1
43
62
29
2
-14
55
-10
-6
-25
30
41
39
-2
-15
27
33
22
37
30
-1
-38
-37
-47
-25
-3
-4
6
24
26
-6
-54
20
-1
-25
-5
-28
-24
-6
18
8
16
2
-10
-7
-20
42
54
35
-45
-4
29
34
41
-12
24
16
46
7
-7
30
51
31
39
17
14
60
37
-8
8
6
-35
-5
17
32
30
30
3
-27
27
10
10
-9
0
24
-71
-36
17
21
-20
-20
25
6
-38
-43
20
15
-24
11
27
-24
35
-18
-14
-10
-9
-33
-52
3
14
4
25
0
41
53
69
63
19
50
-2
6
32
-7
25
50
4
9
19
28
-3
-10
23
19
-13
10
-54
-38
-23
0
5
0
20
-27
-30
-3
17
22
38
52
38
5
5
8
17
15
29
48
-27
-34
-4
-57
-42
-24
18
6
-59
-26
-1
-18
-36
-6
26
7
-8
11
-18
26
20
33
37
-5
0
38
13
-29
-1
-15
-24
28
-11
-33
-17
7
-29
-18
19
13
15
23
30
-28
13
15
-21
-17
7
-10
10
-11
22
44
35
14
-18
17
50
41
-1
0
42
11
-7
2
-3
6
27
36
-20
30
32
46
36
-13
26
8
13
-44
-44
-33
20
-15
-42
-37
12
-7
31
31
1
42
-45
20
-7
-14
-8
-51
13
-21
-57
34
3
0
29
49
36
-13
59
16
12
-16
33
23
5
-3
2
21
9
-3
1
-24
14
31
-15
2
-5
-6
26
7
16
25
42
42
45
-2
11
42
-12
-15
32
7
-4
-3
8
2
15
-16
-28
-12
-13
36
-28
-24
2
42
2
9
19
4
18
12
-13
17
1
-11
-9
-20
9
33
4
6
1
-11
-23
40
0
-1
46
33
-6
8
-25
13
2
16
62
76
-5
23
20
41
12
2
-5
8
-36
-1
13
8
5
-1
-17
38
47
65
50
16
31
75
86
33
38
-22
0
-30
16
36
17
12
26
34
19
14
-37
34
8
-9
-4
-32
-4
-5
-13
-41
-24
5
7
22
-13
33
13
36
1
-14
0
-16
28
15
-5
-16
6
19
-41
-15
-30
-25
7
-46
13
-49
-1
-25
-4
-2
-23
-6
-1
-3
0
6
-10
21
28
-14
-6
47
38
30
6
49
28
-1
22
89
40
-25
-23
31
20
6
23
23
24
-37
-43
-13
30
-14
-43
-26
-14
-5
2
26
43
39
-12
-3
-7
11
3
-46
-44
-2
28
14
-15
-40
-16
-10
-19
-23
-27
6
4
37
26
-22
8
38
52
24
6
38
24
-18
24
90
-36
-19
-5
26
1
46
-13
0
26
13
14
2
11
27
21
-30
19
15
-27
-43
22
-1
-40
-22
19
-9
-2
6
40
-21
8
-9
7
46
16
6
-22
-35
-9
13
22
61
6
12
4
34
20
21
20
29
-12
4
36
40
-7
-1
23
55
-8
-29
1
-10
8
-19
9
71
3
-6
36
-1
19
58
44
45
7
30
46
64
-3
-3
14
-3
55
29
-13
-11
-33
2
33
-27
-2
-21
-13
15
-15
4
-14
16
42
19
3
-27
-9
21
-10
15
-34
-18
43
50
26
2
2
-15
30
-19
20
31
-1
-9
2
5
20
18
33
2
-20
10
9
1
-15
-20
11
9
-32
3
-20
-12
-27
13
33
59
4
0
26
26
77
33
16
54
5
17
17
-4
59
61
18
-15
36
61
5
4
16
71
19
-5
-9
17
23
-40
6
1
-5
10
-37
32
-11
-32
-7
21
25
33
-28
-40
44
0
32
14
23
36
11
-1
30
36
-6
49
29
36
-28
-6
31
29
6
-24
16
24
-35
0
-40
30
3
-7
20
45
-4
19
24
26
23
-2
2
-27
20
19
-21
21
23
-3
-7
45
-16
-7
0
-14
-34
2
18
19
24
-24
9
-19
5
-8
32
-6
13
-13
-24
-40
8
19
-11
-16
-14
-4
6
-12
22
25
13
8
39
50
55
-11
-50
1
-7
5
-5
-51
-20
-35
-82
-6
-15
53
15
1
-28
-5
6
15
-11
-10
2
-10
0
-12
46
-27
-38
10
40
30
-15
0
22
18
13
27
50
-39
-34
22
-16
39
-21
-19
-10
-27
-22
26
-11
0
25
0
20
51
-8
43
30
20
31
48
38
3
-20
-27
39
6
-34
30
-3
19
42
36
5
-19
-25
0
23
-6
58
-14
-10
12
-8
12
-13
-20
10
-48
-59
-18
10
4
-26
-21
48
-21
-8
-24
10
-33
-50
-25
29
23
7
9
-30
42
32
6
27
24
-20
53
86
38
90
54
52
27
-16
-12
-4
34
-29
-11
37
-7
-3
-9
-37
41
-10
18
7
20
-14
-35
-30
-14
34
53
-41
24
-36
-16
-6
22
1
-32
-11
-15
24
15
-14
-15
-49
-4
-1
41
21
17
-19
4
46
59
36
23
24
5
25
54
61
38
24
-2
-12
42
19
-54
-32
7
-9
-2
30
-1
14
-25
-36
72
76
-3
34
52
28
70
70
49
34
37
16
17
17
32
15
-12
6
-25
-6
36
-17
-65
5
27
-15
-21
-67
-22
37
24
29
-56
12
18
-25
15
7
33
14
5
29
25
24
6
22
11
31
-7
5
37
31
52
-3
-33
-6
-29
71
31
-12
2
14
51
-12
-9
-32
2
-27
-20
21
1
51
24
0
21
25
45
-2
13
-14
17
39
18
3
-24
9
11
7
1
20
33
13
12
-19
12
53
15
-38
12
20
24
2
39
-4
27
-17
4
46
4
42
-6
-66
-20
10
-10
-22
-9
11
-7
33
-15
58
70
6
-9
13
-8
69
47
15
15
-24
-3
43
14
26
-46
-7
20
-3
14
-19
-29
-19
13
9
-8
-31
18
27
34
22
12
51
43
-5
2
-40
37
23
5
2
-28
-17
1
0
39
2
23
49
8
-49
-6
16
2
-29
-59
-73
-28
-2
-15
2
-20
-46
-3
-16
12
15
-18
-24
24
31
13
11
-7
3
-45
-22
-6
4
13
-27
9
-12
-1
4
-7
-6
26
18
18
0
-35
22
-15
9
-2
22
24
35
4
10
-15
-18
-10
24
18
23
9
2
64
38
2
-18
4
57
21
-9
14
15
-16
-9
14
-18
-6
47
-5
5
8
13
-5
45
-4
34
56
56
-1
11
8
6
0
-3
16
50
-1
15
8
42
-9
-12
23
3
-2
32
11
-18
-44
12
-47
14
-56
-39
-37
-29
-17
-31
9
-20
0
-9
-20
0
1
15
6
-6
-18
-8
32
5
8
12
22
67
40
15
61
27
8
44
8
2
19
64
14
-23
29
-6
29
28
-4
-7
-1
5
57
61
84
37
55
48
21
16
7
-19
-50
3
62
61
11
-12
68
94
49
11
-21
5
-34
28
-5
-8
-26
-14
58
11
0
-9
6
-18
-12
27
-27
-12
-6
-1
21
3
-24
13
54
-27
-7
35
53
6
-27
47
34
48
24
12
13
36
10
33
5
-6
37
-7
7
-20
38
25
46
29
1
40
10
28
-11
-18
76
69
58
25
35
56
57
24
26
69
31
31
25
-37
-16
59
50
11
-14
8
-12
-5
-28
-50
16
-43
-44
-36
-37
31
-14
9
16
-7
27
14
29
-15
3
12
34
2
-37
-47
-13
29
5
9
37
3
12
29
43
57
-1
-13
-39
0
35
2
-29
-27
-11
3
-6
8
-12
57
25
16
-3
18
42
18
5
24
57
56
14
-28
37
48
15
3
-26
25
44
21
-7
25
-4
35
34
9
-27
30
69
9
-9
16
14
-33
-12
-1
24
-4
-20
-15
2
-27
16
-5
10
24
-7
42
4
-6
23
55
26
16
79
46
-5
61
44
32
47
3
10
14
-24
14
-17
-23
-8
-8
1
8
38
4
14
48
29
16
10
-10
28
-2
45
53
13
-18
14
27
35
-8
-26
-22
57
39
-22
24
37
16
10
9
-9
44
0
-25
-22
24
37
-29
-28
-40
13
7
-27
4
24
38
26
4
-42
8
42
13
-12
-54
-36
-6
24
-1
-17
-68
-23
-15
30
-15
-50
-33
2
5
-1
0
-1
0
-3
17
42
22
-6
12
8
-2
17
23
-23
20
19
-7
7
13
41
26
-12
3
65
44
24
-22
15
16
1
22
-7
19
10
23
41
11
-2
4
16
19
8
-2
17
47
36
28
39
39
2
-1
29
42
37
4
17
24
8
14
25
-2
-38
-6
14
16
30
36
6
-13
10
11
43
28
-42
22
3
25
-19
25
40
6
52
19
-3
-25
16
24
26
-12
-76
-37
-1
42
-7
-3
-1
29
19
-1
18
-21
25
20
-12
-32
-11
-14
1
-11
8
3
15
-14
-16
10
14
7
-48
-46
-7
17
-2
15
33
25
29
9
50
47
24
48
76
44
19
-13
26
17
33
-20
-14
7
-9
-22
10
15
-11
36
-12
18
14
-36
-9
39
10
5
-5
-3
-4
12
32
-24
-70
-5
4
-30
-14
-9
-5
-2
13
36
24
24
26
-22
-23
15
50
50
32
39
52
33
16
3
39
14
-15
9
16
26
6
23
-50
-21
43
2
-32
-11
-51
12
9
-1
42
17
-7
39
50
55
27
48
42
25
15
45
13
45
25
-20
39
4
11
-10
-16
44
-1
46
5
-13
-21
-10
11
28
19
-2
23
21
63
-5
1
-40
-36
-7
-2
19
4
31
12
35
-39
-9
-2
53
21
45
49
-25
-19
16
35
20
-7
-22
-1
-16
1
27
47
-13
-30
4
17
-29
-22
-22
-19
10
-4
-3
26
-5
7
6
57
72
4
21
61
-12
-10
48
17
10
26
37
16
7
33
15
0
0
26
79
33
-1
-2
34
-4
-15
25
6
-29
-42
11
2
18
-31
17
-20
-6
4
-4
22
43
6
3
-23
29
30
32
19
32
-21
-13
32
31
-43
-73
-5
9
21
-16
-26
6
3
-37
-10
34
58
-16
1
16
0
1
-8
-17
27
-9
-6
17
14
-7
-39
29
18
14
26
21
31
21
-15
-34
-11
4
26
39
24
-4
-63
-18
-22
-20
-29
-7
28
2
-9
15
13
19
4
-28
-39
9
41
19
-20
9
10
32
-18
39
58
5
-56
-39
11
-3
-25
-71
-23
-14
-46
16
5
-4
8
19
-17
9
-9
4
-19
-49
-22
12
24
35
33
-13
-2
5
48
58
27
-14
3
38
11
25
60
29
-16
-6
2
7
12
-31
13
18
21
53
44
36
6
-20
59
49
51
34
54
79
34
-3
17
-16
-41
-40
64
-15
2
1
6
53
-9
3
26
14
-3
-41
36
-21
-11
-21
25
7
-18
0
21
-17
32
-10
-26
-15
3
13
0
-16
-16
10
-23
23
30
-6
9
-14
54
31
22
0
6
49
62
-21
0
-20
-18
-26
2
-13
-6
5
-31
7
-2
23
18
-2
62
30
18
-6
2
22
23
56
44
3
-23
-2
-29
-5
40
51
-13
-19
-38
76
32
61
5
-21
-28
36
4
24
-27
-44
35
4
6
0
-46
-34
-33
-8
16
54
6
-26
-29
-39
-35
7
-20
9
34
-29
56
12
26
19
-24
51
56
22
14
-8
17
-10
17
39
57
-56
-42
-37
14
8
29
34
-2
0
-27
35
18
4
39
-60
84
37
34
-39
13
10
30
74
66
35
-25
-2
-4
70
15
0
16
-13
13
12
18
43
-10
-4
44
-26
-9
-10
-28
20
-20
-62
-36
-2
33
18
-7
-22
-48
-2
4
-5
21
20
-48
-17
-5
14
19
-52
18
-9
-19
29
-26
16
-2
-29
22
3
16
-32
-29
-35
-22
-15
-32
-4
-2
27
40
21
10
9
-8
90
26
44
19
-28
-35
-13
-34
3
62
1
30
12
-4
39
17
46
2
-5
-37
-1
23
-28
-36
-1
42
19
29
32
12
10
17
-55
-79
-18
13
37
33
-27
-42
34
13
2
19
-39
18
9
22
12
-20
34
18
9
33
-1
12
-17
5
-5
1
5
16
0
2
-4
3
9
-20
30
11
7
6
-5
24
25
-4
23
31
36
28
16
40
36
25
-10
23
17
16
29
44
-8
28
3
37
51
-20
15
-12
30
71
-17
-25
-23
4
-2
32
14
18
2
-16
-1
47
61
70
88
2
13
20
51
24
-23
-41
-9
14
13
-26
-63
-39
-11
26
-9
-16
26
36
71
-41
-46
-26
6
38
5
4
10
-26
33
25
16
0
-5
-26
55
29
-2
-17
-21
-6
7
64
76
69
-25
-44
-22
24
34
-18
31
-10
12
39
18
-10
5
18
14
22
58
14
-2
28
31
-35
21
-33
-56
43
24
31
-7
-20
42
30
-19
-24
-2
26
-39
20
5
88
-46
-1
12
20
8
-28
33
2
16
-16
3
-14
8
-17
31
21
8
-27
-47
20
-23
-30
-31
3
13
0
6
11
4
1
13
28
43
23
26
-5
6
55
-5
49
57
1
1
12
14
6
11
10
20
19
-26
11
13
22
9
23
15
-29
-23
-16
1
56
-31
-32
-14
6
-21
9
-30
-2
12
34
11
-43
20
23
36
11
9
-4
35
32
41
7
40
42
45
21
0
42
26
-18
3
26
-3
15
-16
-14
8
14
-14
13
-19
3
6
7
29
70
49
69
19
46
89
62
1
47
20
-38
-14
11
-20
-32
-54
16
-1
-4
-18
-11
8
12
21
46
52
27
15
4
-2
-26
60
22
25
-25
-36
10
11
-1
-44
-23
16
21
0
-8
-14
20
38
18
6
26
-21
27
44
17
35
-29
-22
3
19
46
-37
-20
4
26
42
10
-20
19
28
-11
3
0
40
70
38
51
38
28
86
-29
-31
5
17
81
-22
6
13
47
42
-31
5
30
10
19
-11
-4
-17
24
19
9
40
-63
38
25
-42
12
-16
27
1
-12
30
16
14
-20
-9
25
14
13
32
-1
15
-4
13
26
23
25
-25
-39
51
47
-27
3
1
23
18
20
-13
15
19
33
-35
-4
-2
-5
22
18
-8
35
8
43
51
-20
14
11
-29
45
11
-23
-23
-23
78
-12
-15
2
-17
65
43
24
16
-14
0
8
-26
-29
1
-27
-27
-36
-31
15
-38
-27
-4
-18
13
6
-8
-24
39
19
6
-11
6
-8
13
28
3
-26
-32
-10
-21
-9
-16
-29
33
-27
17
-13
-53
32
30
28
-30
-25
54
31
26
-38
35
52
49
8
16
-38
-52
-17
23
30
11
7
-21
9
68
-1
1
-7
13
39
11
-8
-12
25
7
-3
19
11
8
2
4
19
53
69
39
-6
-36
22
15
16
-41
-29
-16
0
-5
-21
-9
10
15
-11
0
-35
-7
18
19
-40
13
27
9
7
-30
14
10
74
6
-42
48
-10
22
3
18
53
27
17
42
36
25
2
-19
1
-48
-112
-51
17
-1
-14
-74
-43
-31
-9
5
-36
-9
6
4
-33
-36
-27
-1
-17
-1
-31
-16
28
-23
5
-6
0
46
-5
20
25
48
21
-27
-47
-15
59
12
26
33
-22
4
10
12
52
9
15
32
8
38
34
3
21
1
2
19
26
34
-21
9
60
21
19
5
8
-31
13
-37
42
-11
-65
-30
9
23
15
14
48
36
-15
-10
45
68
48
-40
-30
22
69
-18
5
-21
-49
-10
13
17
12
-21
-42
25
26
1
47
43
37
27
8
-5
19
55
-33
-49
47
59
38
2
-15
6
28
34
9
-4
-17
-39
-27
21
47
-28
-13
11
32
19
2
58
-6
39
22
-35
16
-1
-8
11
26
4
13
-6
33
34
6
28
10
-1
50
23
-28
9
-2
11
19
6
14
46
55
-2
-8
23
-19
22
29
9
40
-14
-35
5
5
2
13
-5
11
7
-16
10
3
7
15
-16
-62
-4
-25
13
12
-38
17
16
36
0
3
25
22
-5
-21
1
33
56
45
-47
14
38
64
13
-53
9
59
3
-9
16
-15
-76
-38
-43
55
-1
-14
8
15
-36
-20
36
-7
5
-48
-41
22
31
13
-6
-23
71
51
27
36
33
-31
-18
-3
57
13
13
-24
-10
4
-18
-70
-33
-3
-25
-19
-10
-1
0
-35
35
-1
-17
13
-12
-22
-29
-31
-11
35
25
32
5
20
-18
-8
4
-16
-24
4
11
10
-33
-19
40
50
-14
-32
9
-1
18
49
-11
29
-40
13
46
37
-29
3
-28
-21
25
11
-14
1
20
76
40
7
32
22
34
-6
22
39
-8
-28
-15
-18
-25
3
-11
1
53
63
18
-1
-16
23
40
9
15
-2
-16
34
-27
-1
4
-24
3
27
35
13
13
-24
27
13
18
49
22
19
30
-4
18
2
-7
29
4
13
3
3
32
6
-13
18
16
38
21
6
-16
-4
1
-13
-14
-48
-40
-35
-52
-18
-4
40
-38
-37
5
14
-3
-33
18
27
-19
-36
-18
-7
18
0
30
40
1
57
62
21
39
-1
15
38
43
0
-16
29
58
34
-9
-23
7
38
3
-7
-6
0
10
3
31
-5
-12
23
-26
23
-19
63
25
8
31
16
-42
37
13
-64
-21
2
49
1
12
-24
15
-38
-3
11
0
-8
-46
71
43
13
48
-37
41
19
35
-62
56
9
21
12
-33
31
9
6
10
-16
19
45
-35
11
-32
0
-20
-23
-22
35
18
-30
-11
-18
-22
33
20
25
-8
33
33
23
15
-9
29
29
7
22
13
-52
-31
-48
-20
-50
55
8
-32
-34
19
22
8
61
35
67
62
32
26
-32
-15
13
12
5
-15
2
16
-25
-21
-20
-26
-2
-32
90
4
24
11
17
13
-7
28
6
8
-5
14
-20
32
9
8
-4
6
-11
41
5
28
-8
31
48
-28
31
33
1
50
-17
44
-10
36
-8
-4
-33
8
23
35
26
-1
-1
20
-25
-34
1
7
27
-7
18
67
-27
10
-12
20
11
-2
-35
10
44
19
-24
-12
22
47
2
0
24
-15
-23
-48
52
23
-59
1
-11
66
0
39
-28
-48
-24
8
48
-8
26
14
-16
-2
33
47
37
31
21
-25
-39
12
62
33
-49
-9
30
-25
10
28
4
19
7
-1
-10
37
29
18
-6
33
22
21
8
26
-44
-51
-6
12
-18
11
-30
29
14
24
7
-66
18
37
-23
-32
-4
15
0
-18
2
14
22
35
16
38
23
29
-40
27
10
50
-16
3
-47
-5
46
6
0
-40
20
35
41
-1
23
-6
-5
8
-16
11
-4
-12
-9
7
-8
12
-47
5
33
37
-12
-1
19
41
-3
-24
7
44
15
-25
-43
-11
11
-19
13
93
79
17
-13
29
-3
11
-21
22
-11
14
-11
6
-9
38
28
27
-1
20
30
0
-30
-38
27
13
46
-14
-22
24
43
77
-15
33
-18
78
-20
81
0
13
21
33
16
-10
14
31
0
-8
-2
34
59
27
-34
-12
-48
31
-17
31
-48
-50
16
-36
51
-64
6
-46
-4
27
12
-30
0
-1
23
10
-39
39
105
97
-24
-15
-17
90
63
15
15
-3
62
32
46
38
49
43
30
6
23
67
0
24
-16
3
50
45
24
-21
3
-29
-31
-24
-3
24
6
56
39
-16
58
-18
-9
6
8
-25
11
4
-11
26
58
50
5
-16
51
57
32
-21
-31
51
37
54
54
-15
8
-1
-18
-6
-15
-25
-1
1
-19
-12
-37
7
2
21
-4
48
41
-23
-24
4
49
25
10
45
57
5
4
-27
9
-29
-38
20
-2
-41
-19
-14
-16
-12
3
31
52
-29
-25
-22
18
58
3
-7
-30
42
42
12
-19
-19
17
-26
21
-6
-21
-13
-25
-58
5
11
29
26
-15
6
6
67
-20
29
-39
-13
49
7
20
-6
-15
24
27
2
22
40
4
32
33
17
-7
0
-4
53
-20
-27
-35
50
32
5
16
-9
9
-11
18
2
-14
-39
-13
-31
-19
-4
6
0
-12
-23
-45
10
0
16
-15
-45
27
31
-7
-19
8
32
69
-5
18
28
41
46
5
8
14
-17
11
14
-4
47
58
-19
-31
10
87
52
7
-28
1
41
14
-38
-4
-11
-61
-40
24
32
-28
-17
10
32
31
-27
-32
21
4
41
-2
-60
-1
-3
0
-1
-21
-9
-22
10
7
12
-41
18
7
-23
-3
-10
8
-13
-9
-13
0
-25
-20
-19
15
-21
-3
-2
-23
16
-29
7
-5
-6
33
34
-11
16
32
16
10
1
-32
31
-10
-33
-20
50
65
40
-37
-37
2
-3
-8
33
-7
15
20
27
61
25
54
7
13
2
4
25
11
36
-12
-14
10
68
89
19
-19
-17
25
56
40
-44
-23
23
-23
-12
-24
-29
19
-7
-43
-12
-7
39
31
12
23
2
21
15
27
44
11
-13
28
36
24
35
23
32
61
45
31
6
30
31
-34
-35
-19
36
12
27
-40
3
-3
-31
37
-12
-15
11
0
31
11
-23
1
9
-14
14
-14
-1
-19
53
1
-38
-9
-57
28
14
18
-23
-34
65
47
15
-44
-24
-15
23
33
46
67
11
-1
15
39
11
4
53
28
35
26
75
40
9
-27
-1
19
-15
13
-64
10
23
-29
17
-25
30
-30
-59
-19
17
24
8
23
25
14
15
5
-18
27
-43
-44
13
47
5
40
64
60
49
19
18
53
88
42
26
27
-6
18
27
-14
12
9
42
14
8
-53
-14
26
75
15
10
12
18
6
15
-15
-13
47
50
12
-27
-21
6
-22
-12
-8
10
34
17
-24
-22
-15
54
29
47
11
0
39
31
7
15
25
46
46
11
0
17
-60
-6
4
-7
20
-44
7
-9
-8
32
40
33
18
-29
5
49
-27
-10
29
0
34
28
24
21
4
32
55
58
26
34
-10
-14
16
39
75
-7
-7
-30
13
32
29
-9
25
11
2
-32
-42
-44
34
82
14
-50
3
8
7
24
-3
-24
-11
-10
43
27
16
8
-59
-5
17
29
36
22
19
53
-3
-10
-16
30
24
-4
6
32
20
-10
-15
-19
4
59
-1
-22
-19
-11
86
24
15
3
10
42
51
6
26
24
-29
-31
-3
41
26
-1
-25
-41
-13
32
-14
-13
-4
33
-19
12
-37
-9
18
-22
22
31
33
-25
-24
2
-7
-51
-53
1
33
28
28
-53
-70
33
5
30
2
-2
-6
24
0
13
-24
3
53
62
2
-39
-23
17
-1
13
-2
-37
37
-19
-6
34
-15
-25
-44
8
40
1
-22
-19
7
23
-3
29
-3
27
-6
4
22
39
3
-25
-19
20
48
63
7
-47
-11
-18
22
27
-52
-21
26
3
-22
-54
-49
-10
32
-10
-11
7
-14
-16
-47
-32
-3
50
44
46
-47
-17
29
53
40
-30
-31
22
39
25
-24
-27
9
5
0
15
-15
19
17
42
-13
-16
-26
-11
3
45
16
-9
-27
25
31
0
8
7
6
60
42
3
-23
27
23
-6
7
33
36
-19
-40
-5
28
47
2
-7
-41
22
50
-7
-22
14
58
46
20
7
-37
38
82
72
16
26
3
-24
63
2
24
-15
-17
32
26
37
44
-11
14
-20
14
36
41
-22
42
25
13
22
-25
-3
-17
14
42
17
-17
5
-42
-3
-10
-42
-15
-59
16
-32
-6
-1
-5
41
1
22
-19
10
55
19
22
-10
30
25
-12
-21
-40
-9
-20
14
0
-32
-12
-1
-38
-13
-50
9
-10
12
43
-6
-25
-35
19
26
8
30
34
18
22
24
8
-12
-4
-5
10
9
-13
26
-23
3
57
-4
59
19
52
21
-20
15
19
17
17
25
-28
28
-21
-45
-45
-8
10
14
9
-12
0
-23
-48
-16
-6
51
17
-34
-16
-24
-12
19
-3
13
39
-11
31
2
-16
-27
-12
56
20
-13
16
-56
-26
-34
-37
-8
-29
-15
2
2
-26
-7
0
11
47
-10
40
-4
-13
8
3
-8
10
17
2
-17
-8
20
19
17
5
-30
-30
1
-32
-27
45
13
33
9
64
38
-8
16
-11
2
6
20
-21
30
-10
14
-38
-30
3
-8
59
-23
-18
-15
25
28
10
-4
-32
39
-28
-1
19
-21
25
5
28
33
-6
31
-21
-19
7
26
39
-49
-49
11
10
-10
22
14
3
-7
-87
17
0
12
-4
-26
-18
-3
-9
7
8
-4
26
-2
10
6
76
12
5
-23
-35
12
0
21
35
1
-35
9
-3
-14
-2
-9
-13
-16
-1
5
4
4
-15
10
-5
7
41
-34
-14
-11
-8
44
59
13
38
12
20
4
-22
13
-19
11
30
-23
8
-4
20
68
0
-16
47
-10
-27
-50
-17
-19
0
0
-8
-22
42
-3
7
32
50
52
23
6
25
-11
23
68
44
37
6
-20
-7
33
68
84
29
51
22
48
46
19
32
17
18
6
15
29
1
-11
-9
11
22
77
-10
-40
28
83
46
-9
29
19
-55
-10
13
16
-2
32
34
54
23
-15
-19
38
-12
1
-22
-9
15
3
31
-40
2
25
55
18
-7
29
-50
5
35
33
10
19
-5
17
-15
22
25
-33
-21
-7
-23
-35
-15
-16
-24
-45
-38
-47
-30
-5
0
3
25
19
13
9
19
60
70
0
0
-13
11
-22
59
76
35
37
-1
101
7
-18
-32
50
-9
-6
-30
-29
38
-24
24
-18
-30
34
-23
3
11
-11
32
6
50
-8
-18
-5
1
2
-2
-30
-59
21
-24
-15
9
-17
5
22
-26
-10
-53
19
52
25
-40
-42
6
27
-32
27
13
38
-29
-29
-18
-1
36
-24
6
81
-4
22
19
57
43
27
4
32
51
44
63
-19
-11
8
24
22
46
24
-13
27
24
3
-23
12
25
-24
17
32
18
29
19
-30
17
34
46
46
-41
13
-77
-45
-33
12
-29
-34
-11
18
-30
-32
-13
38
30
-14
-16
19
-35
17
54
39
83
29
24
38
3
-26
-38
-30
-58
19
-21
-7
17
18
27
71
-4
3
16
-43
45
26
-44
28
13
16
-30
-50
6
39
27
33
-26
-46
-14
49
52
18
-13
7
19
-1
-38
54
44
-8
40
60
-4
52
3
49
65
-22
-19
-5
10
-8
27
-21
16
-15
31
22
-15
-13
13
-10
31
-35
-34
7
-27
13
-5
-5
15
-17
5
-39
4
-3
27
-6
-30
7
1
11
-35
-16
-2
2
-15
34
23
32
21
42
-12
23
-8
3
22
-33
12
0
19
-4
15
-17
-18
-3
9
10
-18
-46
23
17
-2
17
-11
7
2
-9
24
36
15
38
27
-32
-28
-18
3
71
46
-7
-21
-10
3
14
38
-26
1
2
17
51
-6
-5
-14
22
1
-47
-51
2
24
0
20
-6
-12
-23
24
14
-25
11
42
16
-14
19
2
-16
15
11
-4
5
-29
-14
-14
6
42
-8
51
52
27
-13
53
39
-1
3
-6
27
11
-22
26
-4
51
47
10
42
-8
9
50
16
28
22
61
35
6
25
24
22
48
7
-30
23
17
30
-16
21
1
19
-29
10
-10
-22
-9
14
18
23
-23
-15
35
23
-8
-31
-18
8
19
24
10
-22
12
-42
-36
4
-28
28
-32
-25
-3
29
25
24
-15
-15
15
5
22
15
-37
-37
6
52
-3
39
41
12
-30
3
18
61
11
35
-14
-21
-13
-11
45
-31
17
11
34
40
32
36
4
-1
18
5
-4
17
12
-10
-40
-6
-32
-9
-23
-28
-16
-43
-4
-43
24
-13
36
21
6
-3
23
0
-17
14
21
4
4
8
-15
-42
-56
3
-37
20
-37
17
-12
-3
-23
4
21
8
4
-8
-9
16
-22
40
36
29
18
3
-13
-14
-4
24
61
82
6
1
61
27
36
-8
2
7
-2
-39
6
-30
-3
1
6
-1
-23
-22
-16
-25
20
12
-25
-15
3
40
23
25
-39
-15
-3
-48
40
-17
5
-13
-1
-4
-18
14
1
-3
-37
-54
-38
5
29
-36
-55
-16
2
64
-48
-33
-6
21
-42
36
-17
-15
3
37
-18
-44
-21
2
0
-10
-13
-7
41
14
32
28
-20
1
-38
28
24
36
-3
10
4
26
28
21
18
27
37
-2
19
-6
9
-19
-11
-26
-15
10
-5
50
0
33
-4
-12
19
39
2
0
-3
-33
-3
-25
-16
-17
-1
-40
-24
14
-48
-58
-19
-2
-9
-60
-27
13
-4
-13
-26
14
44
23
1
4
11
25
13
20
12
35
-15
-29
-52
-40
37
79
76
-23
-8
75
39
-26
-8
-9
19
-36
14
13
3
-22
21
-3
-19
11
24
9
34
-15
-8
-18
-3
0
-34
-12
32
25
10
16
-5
16
7
-30
0
24
-9
-12
14
18
-17
12
10
7
-40
-33
-15
-17
0
-29
8
-7
-47
-24
32
9
11
-14
7
-20
-32
-9
29
5
-1
25
37
10
7
-26
46
16
10
-29
32
43
16
-15
32
29
33
4
9
43
1
30
25
-1
26
13
-10
-11
1
38
19
18
43
39
16
12
54
105
66
80
-3
56
-23
-24
15
5
11
-46
-27
7
-15
-35
0
-10
25
31
19
28
-3
12
4
10
11
12
-1
-9
-9
33
35
-26
-13
2
5
3
-6
23
-6
2
-37
-22
-17
18
-42
-3
10
5
2
-2
-52
-15
16
22
26
51
9
31
14
2
32
-5
-10
26
24
-12
-9
2
-7
-17
-21
-37
61
33
-29
-60
-70
70
13
-50
12
14
-18
-52
23
29
-6
18
12
10
-9
22
33
85
47
46
13
17
69
68
28
-26
51
47
65
-12
1
-33
24
13
37
12
12
-10
-10
25
20
8
45
19
31
4
-22
-12
-13
-35
-74
21
41
51
22
24
72
36
55
-26
41
116
47
13
37
51
22
-27
-3
-11
-17
56
-20
-12
16
-9
47
52
15
-35
28
-46
1
7
-29
-30
-8
14
25
-35
-78
8
25
43
52
6
45
3
-22
0
13
54
6
15
11
-42
62
19
-23
-4
-39
20
45
23
-8
-7
-10
24
34
34
28
0
-5
32
25
21
16
-18
34
3
-19
89
32
-7
27
2
91
68
-7
13
5
-16
-3
15
-29
4
-18
-17
9
-33
29
-24
-27
-19
-36
40
10
-26
-24
-7
39
32
-1
-34
36
50
-10
16
3
-6
-4
51
2
-13
60
23
66
-31
-30
8
-25
-27
7
19
12
-53
-28
-13
44
-8
-62
28
-6
24
44
-17
19
-1
22
24
-33
1
4
21
23
-1
17
71
46
15
1
46
85
62
26
26
2
18
9
-14
32
12
-6
10
8
44
40
11
-10
32
21
12
-27
-26
9
-10
-5
7
20
17
6
-9
7
19
1
12
45
55
16
-7
-20
20
48
-11
42
9
29
-20
-7
-22
-44
21
21
61
28
-18
3
3
4
-21
-15
10
1
-8
-23
-8
52
32
-18
-5
14
36
-3
-3
7
26
26
18
5
16
37
4
10
-38
-10
22
-3
36
25
15
25
-22
-1
24
42
22
-34
-26
26
32
-8
-33
-28
-33
-24
-29
16
10
-3
-29
-3
-12
15
18
11
48
-23
19
18
45
35
10
-51
-19
-14
24
-27
-81
-66
-30
-18
-23
-16
39
-16
2
-33
-23
-20
-17
-8
-4
-5
-23
-31
11
25
7
7
-24
-10
49
65
26
-10
-14
-15
29
34
28
2
7
24
10
1
31
4
-18
-22
3
47
55
42
23
57
51
36
38
-35
-26
16
19
53
-1
-24
-7
48
21
-18
0
-34
89
41
-1
4
31
-5
-1
9
-9
15
-47
-6
18
12
11
-1
-36
-15
-7
-24
26
-32
-18
-18
14
13
-35
-28
1
11
-50
-78
-49
-1
29
-9
-8
3
9
33
12
-12
2
48
60
22
45
31
2
78
-36
-48
-67
-55
18
-8
-46
-27
7
-32
-30
-4
-45
-1
-3
-3
5
5
-16
-52
-23
5
42
-4
-1
-30
9
14
20
-40
29
-4
3
-2
-14
49
27
-18
1
-2
16
-21
-22
-41
-17
7
8
23
27
45
-21
5
-4
-24
9
-32
-48
-53
-48
-19
43
16
-36
-25
3
32
20
-2
-55
-32
49
21
-14
16
42
58
38
39
-6
19
-109
-30
6
-40
-10
-27
-3
3
-35
-10
16
20
-18
23
18
14
-30
-36
15
54
-4
16
-30
20
48
-29
20
20
9
7
-28
-27
-30
-4
17
23
-8
42
13
-15
8
54
51
15
11
10
43
40
18
-7
28
-26
-21
-7
11
61
61
-15
-14
2
12
57
48
37
14
33
65
46
8
20
-1
64
43
-37
-13
-9
-5
1
4
-30
2
-21
-18
-7
-48
-11
6
-38
-57
-37
36
7
44
8
-12
-28
-46
-60
-23
-17
18
-4
29
0
17
37
40
0
74
73
-3
9
24
-1
-29
22
2
62
29
9
-22
-14
25
30
25
1
18
5
3
-19
-2
54
22
26
8
10
25
-5
48
45
11
45
17
49
25
-40
-15
-39
2
27
-8
39
12
11
58
7
-5
3
28
24
25
5
39
32
60
1
-47
-23
-8
-40
65
-5
36
13
35
22
47
50
63
14
-29
-15
40
20
12
-1
-29
-11
-1
19
2
-18
-27
-30
-49
18
-15
-39
30
6
17
26
30
13
53
29
48
49
30
61
3
4
4
-43
-25
41
6
20
-28
16
49
9
29
-2
6
-9
-12
-4
-34
0
-35
-34
-7
-57
-12
26
7
-8
-1
19
11
-3
-6
37
57
11
56
-12
-8
34
-20
-36
-16
-26
20
-28
-31
-29
-13
15
42
27
16
42
69
0
-13
8
25
19
-69
-39
19
36
9
70
53
22
8
5
55
-7
18
38
9
0
-19
-41
26
23
-25
-17
-31
14
4
-2
14
-6
11
-3
43
48
-12
-31
-3
0
17
-7
-40
-13
14
19
4
1
4
-48
-45
6
28
-3
-18
-6
-6
4
15
-16
14
38
19
26
44
4
54
31
-5
6
-18
-18
-15
18
10
20
67
45
45
41
-16
-45
-26
-22
-14
-12
2
6
15
-14
-4
26
25
0
15
-15
-10
-5
43
-75
-53
24
21
15
-47
-61
-22
-55
-8
31
34
88
39
12
11
17
53
72
-28
20
32
6
-19
29
-27
-19
-4
33
29
-77
-49
-61
-68
-7
32
10
1
49
26
49
35
60
70
23
10
-13
35
-2
-4
69
64
25
-6
19
21
60
47
15
34
8
-1
10
26
8
26
-21
-16
-20
-5
21
-10
22
-7
26
-18
1
22
22
15
-17
-51
-65
-6
-17
8
11
-11
-33
-13
-13
31
35
11
-1
-44
-38
-16
6
-65
-25
2
-3
-7
13
-25
-18
14
62
21
-33
-11
-4
8
4
-4
5
19
37
42
3
-1
8
34
34
-39
-17
2
-20
24
5
-15
-78
17
26
34
27
45
33
-24
43
63
45
9
-13
31
-25
-22
15
39
-49
-31
-39
-24
-4
-5
16
-19
-73
-21
31
45
23
24
17
-9
3
43
31
27
18
3
3
47
18
-26
-6
-8
-36
-25
55
-3
-6
13
4
49
14
30
13
-13
45
8
32
12
-11
9
2
6
13
-3
83
63
-12
-1
29
26
74
66
62
30
3
33
-19
-16
14
-3
-18
-43
-28
25
32
45
25
7
47
31
75
23
-42
12
51
35
-13
-14
8
59
-4
-4
21
18
11
14
-14
-20
-5
6
26
-5
-2
-11
-6
22
6
33
13
-34
-32
36
44
42
-49
-39
-6
-17
-7
-24
-2
4
-16
-32
-4
7
15
3
-9
2
0
1
-7
32
-12
4
39
31
34
-23
-19
14
-13
-3
-9
8
11
-30
-17
-25
-32
-1
-24
-15
-2
47
8
-36
-17
76
24
4
55
12
33
22
57
12
-23
-17
-2
-25
-29
12
31
55
11
-8
8
14
55
14
30
5
1
4
26
-30
-4
-25
-24
-14
12
-14
8
32
42
14
-10
-12
10
33
-16
35
56
71
56
4
-56
32
37
-7
15
3
71
39
22
-45
31
36
29
7
-11
20
24
3
15
15
-9
-5
-37
6
-4
11
-22
42
-34
-4
14
-25
28
0
15
9
-28
-28
-27
-25
-8
-6
41
36
46
33
51
50
21
18
15
49
18
31
64
22
50
40
-27
-26
-5
24
-1
-39
-16
14
-44
-9
12
22
13
80
41
60
30
56
59
55
54
38
18
41
46
-16
-65
-5
49
-9
17
-19
16
28
4
-11
-27
12
-47
-54
15
14
33
-35
-9
-46
-7
47
24
-22
-34
-3
1
13
15
12
22
62
-11
20
3
48
10
8
35
-6
9
41
46
11
58
35
-36
15
6
46
67
26
-22
15
1
4
1
28
16
14
22
35
12
-3
32
23
-2
29
22
-2
-22
-3
35
89
-14
13
10
61
61
1
5
4
-4
41
-15
31
29
13
23
30
2
35
17
17
4
-15
-8
-13
-73
-53
10
5
-5
9
-40
17
26
13
21
13
32
3
69
39
23
24
5
1
6
25
43
4
3
-43
-18
16
-3
16
-2
7
-18
-35
9
9
-6
-11
-10
30
12
17
-7
15
-18
10
-32
9
43
15
-30
-26
11
24
2
16
16
14
45
30
0
9
16
-33
-51
-26
-42
12
18
-59
-16
-22
-19
36
-54
-27
26
26
-39
20
5
20
29
-15
-1
-36
-52
-25
-4
-10
-28
10
12
33
-14
0
21
12
28
-1
-27
42
-6
39
-38
-46
-10
4
13
-16
15
14
11
-16
-5
16
19
-4
22
65
35
-30
-37
0
59
3
0
13
-21
45
40
16
14
6
25
7
30
7
17
10
2
3
36
68
6
-11
-35
20
32
33
-15
42
20
8
25
5
-6
25
54
57
34
-8
19
4
-6
-14
-5
-16
-32
-14
-16
-39
28
-1
-35
-27
-31
36
40
-22
16
25
19
1
-15
-28
-18
13
-8
-21
-15
-8
2
34
-9
-3
3
-43
14
-20
-33
-35
-13
24
-10
-47
-17
29
33
-8
-27
-1
38
27
-5
-7
45
37
41
23
8
16
17
58
-8
-27
36
48
-29
4
-28
4
-5
0
2
27
1
-26
6
-56
-1
-6
-44
-50
-26
-7
-7
-29
5
-22
45
41
-2
6
-1
31
12
19
31
15
17
13
-60
-25
-3
9
-58
-48
-44
3
14
-13
-2
39
16
10
52
26
-8
-21
-8
15
16
-21
67
15
-15
-44
-53
52
15
-27
-16
-20
35
-7
-9
4
53
12
19
24
79
31
-28
21
-10
45
-19
-17
-33
-35
-34
-31
-24
16
-50
9
69
-17
10
-27
14
36
23
-10
-32
20
-19
25
-16
-10
14
10
26
38
22
2
40
-56
-9
-12
-15
-35
10
17
3
13
-23
35
41
49
-11
9
-4
36
40
-20
-24
-11
31
-18
-44
23
4
84
44
-7
32
25
42
2
-49
-15
-14
6
-14
-25
19
-24
-24
-32
8
22
38
43
-41
-36
-11
-3
-12
-39
-13
1
38
1
-30
31
18
33
35
61
45
-15
-27
5
-1
23
-6
13
51
76
34
-5
8
-6
33
-16
-44
7
7
-16
14
12
7
13
47
2
10
-33
18
28
-9
8
53
26
25
22
0
49
14
16
79
42
16
13
12
37
32
14
4
20
8
-12
-3
0
18
8
-10
-16
-21
-9
25
17
0
-13
62
54
34
-12
5
18
1
-7
29
-14
-33
6
0
14
34
-12
30
26
45
-31
5
52
5
28
-66
-29
-28
-37
-16
-36
-42
33
-21
-2
20
18
56
12
59
34
16
9
16
-39
-44
-55
12
4
26
20
-18
-7
26
27
-1
9
3
21
-20
7
-12
10
29
