-114
-24
-60
26
16
53
-36
46
10
40
-48
-47
-97
100
-61
-75
-69
43
-20
24
1
53
77
-74
57
-86
84
67
74
-37
-41
-66
-70
10
-52
54
70
12
127
38
78
-45
20
-69
-55
-91
24
55
93
-89
28
-47
43
-28
78
56
71
79
-63
49
-104
30
59
40
50
-9
-92
56
54
-38
115
57
13
-29
35
62
-38
-6
44
44
-66
-11
-47
-55
-7
80
-32
-79
-80
-30
64
-9
-88
54
63
38
-67
11
69
43
50
-89
74
81
49
-59
-23
76
-44
-61
-34
37
4
-45
-92
76
9
8
-99
-41
-73
-1
52
75
-71
31
-63
9
64
30
-99
-70
32
72
-85
51
-41
-83
-71
-86
-21
68
-80
9
33
84
29
-63
-39
69
34
-65
-13
64
-1
18
48
77
-15
-66
79
72
-87
55
36
86
-52
84
13
-34
16
-5
51
-38
82
55
2
19
-125
-34
15
92
-29
-94
68
63
-52
81
-42
1
-49
-105
80
-65
74
-87
-101
-77
-15
-71
89
-25
-49
82
43
51
-47
-36
-47
54
-3
-64
-16
-62
-101
44
-93
-98
-66
-96
-31
61
40
-79
-55
55
7
48
-60
73
10
-98
70
-6
65
-93
-53
18
-80
-55
-28
34
-58
85
-16
-71
-92
36
-31
53
-73
33
32
-66
35
-17
-52
-79
-34
83
17
-88
45
-29
82
-66
-62
31
-74
12
-80
-47
29
6
-55
79
44
64
-16
-47
-53
-95
64
-22
-56
-34
-26
54
-58
-92
-72
-76
-94
-44
-67
-42
-85
79
-18
-92
-40
19
-50
-31
11
-72
-66
-82
7
33
0
26
38
-52
69
-100
68
-98
41
-93
77
-101
-65
-58
-87
63
45
-70
-13
23
73
3
-47
-49
-47
-57
26
57
59
-35
86
-59
-57
30
47
20
-7
69
37
-15
27
35
-76
56
6
-32
-82
77
-50
-36
-48
-18
41
-16
-100
69
69
88
59
63
29
-30
58
73
106
-43
45
-17
56
52
88
-17
-67
-16
78
62
19
-12
-14
92
47
34
62
-61
57
-70
-35
-52
-7
40
-35
1
-51
18
-46
77
44
-49
-80
-47
-32
-17
68
23
36
-63
82
87
24
98
47
-45
-40
91
-32
57
10
-78
-25
-46
58
-79
13
-81
-67
58
-70
-96
-71
22
30
80
-52
92
-62
-87
-43
-36
44
64
-7
-28
-27
28
100
-10
22
-86
-101
-32
11
-101
61
-46
-66
5
65
-80
-62
72
79
67
84
-27
-31
11
74
-102
-55
18
79
-28
-119
18
-30
44
42
44
53
-64
-77
99
-4
-44
90
-46
62
18
-9
44
31
-76
-88
-76
-31
-75
-18
18
7
57
69
-59
41
46
-61
-64
-74
-45
-75
-78
22
-25
54
23
14
27
-44
-33
-58
16
60
73
78
63
40
27
22
-83
69
-72
33
30
42
-39
-47
16
25
-64
62
-23
50
64
86
-81
66
89
54
63
57
84
-51
-41
-91
-62
-68
48
49
55
75
-66
60
66
-65
26
-18
70
47
51
99
-30
26
74
-47
-71
46
-90
-94
39
-121
59
74
-64
-70
-108
4
45
-124
108
-25
52
45
54
49
-3
64
-14
43
-79
-83
-77
73
50
46
51
-24
-96
-36
-24
-98
-71
29
31
29
64
-74
-128
-61
76
11
-88
-97
68
47
-70
39
-97
-9
-22
-25
-56
-36
-91
32
25
15
-61
15
48
-98
-41
-79
13
-47
-84
-37
-88
31
-89
31
36
-61
-12
-75
65
-43
-22
-29
-47
-15
7
66
-72
45
-44
-90
-40
66
-3
-21
-69
-78
-67
-11
-45
-74
-21
55
-87
-42
27
-52
-20
20
-40
-63
-58
-62
-74
-31
-66
-7
79
48
-77
-72
-65
-83
-77
84
28
-21
-41
47
46
-42
-62
1
11
67
63
-55
-66
-93
35
-95
-64
-71
6
-101
-57
65
83
38
-78
-12
40
14
19
-1
60
-7
58
-16
-82
60
-23
-72
-58
-63
-44
14
-53
-33
-99
60
-54
6
18
14
-76
-61
53
-46
-35
77
-82
-39
-115
67
-67
14
5
-58
0
60
-83
-74
-49
44
-59
-19
64
-42
93
41
-72
-51
-59
-51
63
-53
-8
-68
66
-35
-68
52
80
61
-9
-84
-24
-103
34
-79
57
67
-55
-40
-24
39
36
87
-56
24
-101
17
-60
-28
25
-18
85
-18
25
63
-14
75
56
-75
0
-73
-78
1
-105
17
-70
-62
54
44
-63
